digraph Tree {
node [shape=box, style="filled", color="black", fontname="helvetica"] ;
edge [fontname="helvetica"] ;
0 [label="Medical Conditions <= 1.5\ngini = 0.5\nsamples = 799\nvalue = [406, 393]\nclass = 0", fillcolor="#fefbf9"] ;
1 [label="Medications & Treatments <= 4.5\ngini = 0.491\nsamples = 166\nvalue = [72, 94]\nclass = 1", fillcolor="#d1e8f9"] ;
0 -> 1 [labeldistance=2.5, labelangle=45, headlabel="True"] ;
2 [label="Nutritional Deficiencies  <= 6.5\ngini = 0.499\nsamples = 85\nvalue = [41, 44]\nclass = 1", fillcolor="#f2f8fd"] ;
1 -> 2 ;
3 [label="Nutritional Deficiencies  <= 4.5\ngini = 0.491\nsamples = 53\nvalue = [23, 30]\nclass = 1", fillcolor="#d1e8f9"] ;
2 -> 3 ;
4 [label="Nutritional Deficiencies  <= 3.5\ngini = 0.5\nsamples = 36\nvalue = [18, 18]\nclass = 0", fillcolor="#ffffff"] ;
3 -> 4 ;
5 [label="Nutritional Deficiencies  <= 1.5\ngini = 0.492\nsamples = 32\nvalue = [14, 18]\nclass = 1", fillcolor="#d3e9f9"] ;
4 -> 5 ;
6 [label="Medications & Treatments <= 1.5\ngini = 0.495\nsamples = 20\nvalue = [11, 9]\nclass = 0", fillcolor="#fae8db"] ;
5 -> 6 ;
7 [label="Nutritional Deficiencies  <= 0.5\ngini = 0.32\nsamples = 5\nvalue = [1, 4]\nclass = 1", fillcolor="#6ab6ec"] ;
6 -> 7 ;
8 [label="gini = 0.0\nsamples = 4\nvalue = [0, 4]\nclass = 1", fillcolor="#399de5"] ;
7 -> 8 ;
9 [label="gini = 0.0\nsamples = 1\nvalue = [1, 0]\nclass = 0", fillcolor="#e58139"] ;
7 -> 9 ;
10 [label="Nutritional Deficiencies  <= 0.5\ngini = 0.444\nsamples = 15\nvalue = [10, 5]\nclass = 0", fillcolor="#f2c09c"] ;
6 -> 10 ;
11 [label="Medications & Treatments <= 3.5\ngini = 0.463\nsamples = 11\nvalue = [7, 4]\nclass = 0", fillcolor="#f4c9aa"] ;
10 -> 11 ;
12 [label="Medical Conditions <= 0.5\ngini = 0.494\nsamples = 9\nvalue = [5, 4]\nclass = 0", fillcolor="#fae6d7"] ;
11 -> 12 ;
13 [label="gini = 0.5\nsamples = 4\nvalue = [2, 2]\nclass = 0", fillcolor="#ffffff"] ;
12 -> 13 ;
14 [label="Medications & Treatments <= 2.5\ngini = 0.48\nsamples = 5\nvalue = [3, 2]\nclass = 0", fillcolor="#f6d5bd"] ;
12 -> 14 ;
15 [label="gini = 0.5\nsamples = 4\nvalue = [2, 2]\nclass = 0", fillcolor="#ffffff"] ;
14 -> 15 ;
16 [label="gini = 0.0\nsamples = 1\nvalue = [1, 0]\nclass = 0", fillcolor="#e58139"] ;
14 -> 16 ;
17 [label="gini = 0.0\nsamples = 2\nvalue = [2, 0]\nclass = 0", fillcolor="#e58139"] ;
11 -> 17 ;
18 [label="Medications & Treatments <= 3.5\ngini = 0.375\nsamples = 4\nvalue = [3, 1]\nclass = 0", fillcolor="#eeab7b"] ;
10 -> 18 ;
19 [label="gini = 0.0\nsamples = 3\nvalue = [3, 0]\nclass = 0", fillcolor="#e58139"] ;
18 -> 19 ;
20 [label="gini = 0.0\nsamples = 1\nvalue = [0, 1]\nclass = 1", fillcolor="#399de5"] ;
18 -> 20 ;
21 [label="Nutritional Deficiencies  <= 2.5\ngini = 0.375\nsamples = 12\nvalue = [3, 9]\nclass = 1", fillcolor="#7bbeee"] ;
5 -> 21 ;
22 [label="gini = 0.0\nsamples = 6\nvalue = [0, 6]\nclass = 1", fillcolor="#399de5"] ;
21 -> 22 ;
23 [label="Medications & Treatments <= 2.0\ngini = 0.5\nsamples = 6\nvalue = [3, 3]\nclass = 0", fillcolor="#ffffff"] ;
21 -> 23 ;
24 [label="Medical Conditions <= 0.5\ngini = 0.48\nsamples = 5\nvalue = [2, 3]\nclass = 1", fillcolor="#bddef6"] ;
23 -> 24 ;
25 [label="gini = 0.0\nsamples = 1\nvalue = [0, 1]\nclass = 1", fillcolor="#399de5"] ;
24 -> 25 ;
26 [label="Medications & Treatments <= 0.5\ngini = 0.5\nsamples = 4\nvalue = [2, 2]\nclass = 0", fillcolor="#ffffff"] ;
24 -> 26 ;
27 [label="gini = 0.5\nsamples = 2\nvalue = [1, 1]\nclass = 0", fillcolor="#ffffff"] ;
26 -> 27 ;
28 [label="gini = 0.5\nsamples = 2\nvalue = [1, 1]\nclass = 0", fillcolor="#ffffff"] ;
26 -> 28 ;
29 [label="gini = 0.0\nsamples = 1\nvalue = [1, 0]\nclass = 0", fillcolor="#e58139"] ;
23 -> 29 ;
30 [label="gini = 0.0\nsamples = 4\nvalue = [4, 0]\nclass = 0", fillcolor="#e58139"] ;
4 -> 30 ;
31 [label="Medical Conditions <= 0.5\ngini = 0.415\nsamples = 17\nvalue = [5, 12]\nclass = 1", fillcolor="#8bc6f0"] ;
3 -> 31 ;
32 [label="Medications & Treatments <= 3.5\ngini = 0.473\nsamples = 13\nvalue = [5, 8]\nclass = 1", fillcolor="#b5daf5"] ;
31 -> 32 ;
33 [label="Medications & Treatments <= 2.5\ngini = 0.486\nsamples = 12\nvalue = [5, 7]\nclass = 1", fillcolor="#c6e3f8"] ;
32 -> 33 ;
34 [label="Medications & Treatments <= 0.5\ngini = 0.444\nsamples = 9\nvalue = [3, 6]\nclass = 1", fillcolor="#9ccef2"] ;
33 -> 34 ;
35 [label="Nutritional Deficiencies  <= 5.5\ngini = 0.5\nsamples = 4\nvalue = [2, 2]\nclass = 0", fillcolor="#ffffff"] ;
34 -> 35 ;
36 [label="gini = 0.5\nsamples = 2\nvalue = [1, 1]\nclass = 0", fillcolor="#ffffff"] ;
35 -> 36 ;
37 [label="gini = 0.5\nsamples = 2\nvalue = [1, 1]\nclass = 0", fillcolor="#ffffff"] ;
35 -> 37 ;
38 [label="Nutritional Deficiencies  <= 5.5\ngini = 0.32\nsamples = 5\nvalue = [1, 4]\nclass = 1", fillcolor="#6ab6ec"] ;
34 -> 38 ;
39 [label="gini = 0.0\nsamples = 2\nvalue = [0, 2]\nclass = 1", fillcolor="#399de5"] ;
38 -> 39 ;
40 [label="Medications & Treatments <= 1.5\ngini = 0.444\nsamples = 3\nvalue = [1, 2]\nclass = 1", fillcolor="#9ccef2"] ;
38 -> 40 ;
41 [label="gini = 0.0\nsamples = 1\nvalue = [0, 1]\nclass = 1", fillcolor="#399de5"] ;
40 -> 41 ;
42 [label="gini = 0.5\nsamples = 2\nvalue = [1, 1]\nclass = 0", fillcolor="#ffffff"] ;
40 -> 42 ;
43 [label="Nutritional Deficiencies  <= 5.5\ngini = 0.444\nsamples = 3\nvalue = [2, 1]\nclass = 0", fillcolor="#f2c09c"] ;
33 -> 43 ;
44 [label="gini = 0.5\nsamples = 2\nvalue = [1, 1]\nclass = 0", fillcolor="#ffffff"] ;
43 -> 44 ;
45 [label="gini = 0.0\nsamples = 1\nvalue = [1, 0]\nclass = 0", fillcolor="#e58139"] ;
43 -> 45 ;
46 [label="gini = 0.0\nsamples = 1\nvalue = [0, 1]\nclass = 1", fillcolor="#399de5"] ;
32 -> 46 ;
47 [label="gini = 0.0\nsamples = 4\nvalue = [0, 4]\nclass = 1", fillcolor="#399de5"] ;
31 -> 47 ;
48 [label="Nutritional Deficiencies  <= 7.5\ngini = 0.492\nsamples = 32\nvalue = [18, 14]\nclass = 0", fillcolor="#f9e3d3"] ;
2 -> 48 ;
49 [label="Medications & Treatments <= 3.5\ngini = 0.346\nsamples = 9\nvalue = [7, 2]\nclass = 0", fillcolor="#eca572"] ;
48 -> 49 ;
50 [label="Medications & Treatments <= 1.5\ngini = 0.245\nsamples = 7\nvalue = [6, 1]\nclass = 0", fillcolor="#e9965a"] ;
49 -> 50 ;
51 [label="Medical Conditions <= 0.5\ngini = 0.444\nsamples = 3\nvalue = [2, 1]\nclass = 0", fillcolor="#f2c09c"] ;
50 -> 51 ;
52 [label="gini = 0.0\nsamples = 1\nvalue = [1, 0]\nclass = 0", fillcolor="#e58139"] ;
51 -> 52 ;
53 [label="gini = 0.5\nsamples = 2\nvalue = [1, 1]\nclass = 0", fillcolor="#ffffff"] ;
51 -> 53 ;
54 [label="gini = 0.0\nsamples = 4\nvalue = [4, 0]\nclass = 0", fillcolor="#e58139"] ;
50 -> 54 ;
55 [label="Medical Conditions <= 0.5\ngini = 0.5\nsamples = 2\nvalue = [1, 1]\nclass = 0", fillcolor="#ffffff"] ;
49 -> 55 ;
56 [label="gini = 0.0\nsamples = 1\nvalue = [0, 1]\nclass = 1", fillcolor="#399de5"] ;
55 -> 56 ;
57 [label="gini = 0.0\nsamples = 1\nvalue = [1, 0]\nclass = 0", fillcolor="#e58139"] ;
55 -> 57 ;
58 [label="Medications & Treatments <= 1.5\ngini = 0.499\nsamples = 23\nvalue = [11, 12]\nclass = 1", fillcolor="#eff7fd"] ;
48 -> 58 ;
59 [label="Medications & Treatments <= 0.5\ngini = 0.42\nsamples = 10\nvalue = [7, 3]\nclass = 0", fillcolor="#f0b78e"] ;
58 -> 59 ;
60 [label="Nutritional Deficiencies  <= 8.5\ngini = 0.5\nsamples = 6\nvalue = [3, 3]\nclass = 0", fillcolor="#ffffff"] ;
59 -> 60 ;
61 [label="gini = 0.0\nsamples = 1\nvalue = [0, 1]\nclass = 1", fillcolor="#399de5"] ;
60 -> 61 ;
62 [label="Nutritional Deficiencies  <= 9.5\ngini = 0.48\nsamples = 5\nvalue = [3, 2]\nclass = 0", fillcolor="#f6d5bd"] ;
60 -> 62 ;
63 [label="Medical Conditions <= 0.5\ngini = 0.375\nsamples = 4\nvalue = [3, 1]\nclass = 0", fillcolor="#eeab7b"] ;
62 -> 63 ;
64 [label="gini = 0.444\nsamples = 3\nvalue = [2, 1]\nclass = 0", fillcolor="#f2c09c"] ;
63 -> 64 ;
65 [label="gini = 0.0\nsamples = 1\nvalue = [1, 0]\nclass = 0", fillcolor="#e58139"] ;
63 -> 65 ;
66 [label="gini = 0.0\nsamples = 1\nvalue = [0, 1]\nclass = 1", fillcolor="#399de5"] ;
62 -> 66 ;
67 [label="gini = 0.0\nsamples = 4\nvalue = [4, 0]\nclass = 0", fillcolor="#e58139"] ;
59 -> 67 ;
68 [label="Medications & Treatments <= 3.5\ngini = 0.426\nsamples = 13\nvalue = [4, 9]\nclass = 1", fillcolor="#91c9f1"] ;
58 -> 68 ;
69 [label="Medical Conditions <= 0.5\ngini = 0.375\nsamples = 12\nvalue = [3, 9]\nclass = 1", fillcolor="#7bbeee"] ;
68 -> 69 ;
70 [label="gini = 0.0\nsamples = 5\nvalue = [0, 5]\nclass = 1", fillcolor="#399de5"] ;
69 -> 70 ;
71 [label="Medications & Treatments <= 2.5\ngini = 0.49\nsamples = 7\nvalue = [3, 4]\nclass = 1", fillcolor="#cee6f8"] ;
69 -> 71 ;
72 [label="gini = 0.0\nsamples = 1\nvalue = [0, 1]\nclass = 1", fillcolor="#399de5"] ;
71 -> 72 ;
73 [label="Nutritional Deficiencies  <= 8.5\ngini = 0.5\nsamples = 6\nvalue = [3, 3]\nclass = 0", fillcolor="#ffffff"] ;
71 -> 73 ;
74 [label="gini = 0.5\nsamples = 4\nvalue = [2, 2]\nclass = 0", fillcolor="#ffffff"] ;
73 -> 74 ;
75 [label="gini = 0.5\nsamples = 2\nvalue = [1, 1]\nclass = 0", fillcolor="#ffffff"] ;
73 -> 75 ;
76 [label="gini = 0.0\nsamples = 1\nvalue = [1, 0]\nclass = 0", fillcolor="#e58139"] ;
68 -> 76 ;
77 [label="Nutritional Deficiencies  <= 2.5\ngini = 0.472\nsamples = 81\nvalue = [31, 50]\nclass = 1", fillcolor="#b4daf5"] ;
1 -> 77 ;
78 [label="Nutritional Deficiencies  <= 1.5\ngini = 0.498\nsamples = 30\nvalue = [14, 16]\nclass = 1", fillcolor="#e6f3fc"] ;
77 -> 78 ;
79 [label="Nutritional Deficiencies  <= 0.5\ngini = 0.48\nsamples = 20\nvalue = [8, 12]\nclass = 1", fillcolor="#bddef6"] ;
78 -> 79 ;
80 [label="Medications & Treatments <= 9.5\ngini = 0.5\nsamples = 10\nvalue = [5, 5]\nclass = 0", fillcolor="#ffffff"] ;
79 -> 80 ;
81 [label="Medications & Treatments <= 6.5\ngini = 0.494\nsamples = 9\nvalue = [5, 4]\nclass = 0", fillcolor="#fae6d7"] ;
80 -> 81 ;
82 [label="Medical Conditions <= 0.5\ngini = 0.444\nsamples = 3\nvalue = [2, 1]\nclass = 0", fillcolor="#f2c09c"] ;
81 -> 82 ;
83 [label="gini = 0.0\nsamples = 1\nvalue = [1, 0]\nclass = 0", fillcolor="#e58139"] ;
82 -> 83 ;
84 [label="gini = 0.5\nsamples = 2\nvalue = [1, 1]\nclass = 0", fillcolor="#ffffff"] ;
82 -> 84 ;
85 [label="Medications & Treatments <= 8.0\ngini = 0.5\nsamples = 6\nvalue = [3, 3]\nclass = 0", fillcolor="#ffffff"] ;
81 -> 85 ;
86 [label="gini = 0.5\nsamples = 2\nvalue = [1, 1]\nclass = 0", fillcolor="#ffffff"] ;
85 -> 86 ;
87 [label="Medical Conditions <= 0.5\ngini = 0.5\nsamples = 4\nvalue = [2, 2]\nclass = 0", fillcolor="#ffffff"] ;
85 -> 87 ;
88 [label="gini = 0.5\nsamples = 2\nvalue = [1, 1]\nclass = 0", fillcolor="#ffffff"] ;
87 -> 88 ;
89 [label="gini = 0.5\nsamples = 2\nvalue = [1, 1]\nclass = 0", fillcolor="#ffffff"] ;
87 -> 89 ;
90 [label="gini = 0.0\nsamples = 1\nvalue = [0, 1]\nclass = 1", fillcolor="#399de5"] ;
80 -> 90 ;
91 [label="Medical Conditions <= 0.5\ngini = 0.42\nsamples = 10\nvalue = [3, 7]\nclass = 1", fillcolor="#8ec7f0"] ;
79 -> 91 ;
92 [label="gini = 0.0\nsamples = 2\nvalue = [0, 2]\nclass = 1", fillcolor="#399de5"] ;
91 -> 92 ;
93 [label="Medications & Treatments <= 5.5\ngini = 0.469\nsamples = 8\nvalue = [3, 5]\nclass = 1", fillcolor="#b0d8f5"] ;
91 -> 93 ;
94 [label="gini = 0.5\nsamples = 2\nvalue = [1, 1]\nclass = 0", fillcolor="#ffffff"] ;
93 -> 94 ;
95 [label="Medications & Treatments <= 8.5\ngini = 0.444\nsamples = 6\nvalue = [2, 4]\nclass = 1", fillcolor="#9ccef2"] ;
93 -> 95 ;
96 [label="Medications & Treatments <= 6.5\ngini = 0.375\nsamples = 4\nvalue = [1, 3]\nclass = 1", fillcolor="#7bbeee"] ;
95 -> 96 ;
97 [label="gini = 0.444\nsamples = 3\nvalue = [1, 2]\nclass = 1", fillcolor="#9ccef2"] ;
96 -> 97 ;
98 [label="gini = 0.0\nsamples = 1\nvalue = [0, 1]\nclass = 1", fillcolor="#399de5"] ;
96 -> 98 ;
99 [label="gini = 0.5\nsamples = 2\nvalue = [1, 1]\nclass = 0", fillcolor="#ffffff"] ;
95 -> 99 ;
100 [label="Medications & Treatments <= 9.5\ngini = 0.48\nsamples = 10\nvalue = [6, 4]\nclass = 0", fillcolor="#f6d5bd"] ;
78 -> 100 ;
101 [label="Medications & Treatments <= 5.5\ngini = 0.444\nsamples = 9\nvalue = [6, 3]\nclass = 0", fillcolor="#f2c09c"] ;
100 -> 101 ;
102 [label="Medical Conditions <= 0.5\ngini = 0.5\nsamples = 4\nvalue = [2, 2]\nclass = 0", fillcolor="#ffffff"] ;
101 -> 102 ;
103 [label="gini = 0.5\nsamples = 2\nvalue = [1, 1]\nclass = 0", fillcolor="#ffffff"] ;
102 -> 103 ;
104 [label="gini = 0.5\nsamples = 2\nvalue = [1, 1]\nclass = 0", fillcolor="#ffffff"] ;
102 -> 104 ;
105 [label="Medical Conditions <= 0.5\ngini = 0.32\nsamples = 5\nvalue = [4, 1]\nclass = 0", fillcolor="#eca06a"] ;
101 -> 105 ;
106 [label="gini = 0.0\nsamples = 3\nvalue = [3, 0]\nclass = 0", fillcolor="#e58139"] ;
105 -> 106 ;
107 [label="Medications & Treatments <= 8.0\ngini = 0.5\nsamples = 2\nvalue = [1, 1]\nclass = 0", fillcolor="#ffffff"] ;
105 -> 107 ;
108 [label="gini = 0.0\nsamples = 1\nvalue = [0, 1]\nclass = 1", fillcolor="#399de5"] ;
107 -> 108 ;
109 [label="gini = 0.0\nsamples = 1\nvalue = [1, 0]\nclass = 0", fillcolor="#e58139"] ;
107 -> 109 ;
110 [label="gini = 0.0\nsamples = 1\nvalue = [0, 1]\nclass = 1", fillcolor="#399de5"] ;
100 -> 110 ;
111 [label="Nutritional Deficiencies  <= 9.5\ngini = 0.444\nsamples = 51\nvalue = [17, 34]\nclass = 1", fillcolor="#9ccef2"] ;
77 -> 111 ;
112 [label="Medications & Treatments <= 9.5\ngini = 0.43\nsamples = 48\nvalue = [15, 33]\nclass = 1", fillcolor="#93caf1"] ;
111 -> 112 ;
113 [label="Nutritional Deficiencies  <= 5.5\ngini = 0.399\nsamples = 40\nvalue = [11, 29]\nclass = 1", fillcolor="#84c2ef"] ;
112 -> 113 ;
114 [label="Nutritional Deficiencies  <= 3.5\ngini = 0.32\nsamples = 20\nvalue = [4, 16]\nclass = 1", fillcolor="#6ab6ec"] ;
113 -> 114 ;
115 [label="Medications & Treatments <= 8.0\ngini = 0.444\nsamples = 6\nvalue = [2, 4]\nclass = 1", fillcolor="#9ccef2"] ;
114 -> 115 ;
116 [label="Medical Conditions <= 0.5\ngini = 0.32\nsamples = 5\nvalue = [1, 4]\nclass = 1", fillcolor="#6ab6ec"] ;
115 -> 116 ;
117 [label="Medications & Treatments <= 6.0\ngini = 0.5\nsamples = 2\nvalue = [1, 1]\nclass = 0", fillcolor="#ffffff"] ;
116 -> 117 ;
118 [label="gini = 0.0\nsamples = 1\nvalue = [1, 0]\nclass = 0", fillcolor="#e58139"] ;
117 -> 118 ;
119 [label="gini = 0.0\nsamples = 1\nvalue = [0, 1]\nclass = 1", fillcolor="#399de5"] ;
117 -> 119 ;
120 [label="gini = 0.0\nsamples = 3\nvalue = [0, 3]\nclass = 1", fillcolor="#399de5"] ;
116 -> 120 ;
121 [label="gini = 0.0\nsamples = 1\nvalue = [1, 0]\nclass = 0", fillcolor="#e58139"] ;
115 -> 121 ;
122 [label="Medications & Treatments <= 6.5\ngini = 0.245\nsamples = 14\nvalue = [2, 12]\nclass = 1", fillcolor="#5aade9"] ;
114 -> 122 ;
123 [label="gini = 0.0\nsamples = 3\nvalue = [0, 3]\nclass = 1", fillcolor="#399de5"] ;
122 -> 123 ;
124 [label="Medical Conditions <= 0.5\ngini = 0.298\nsamples = 11\nvalue = [2, 9]\nclass = 1", fillcolor="#65b3eb"] ;
122 -> 124 ;
125 [label="Medications & Treatments <= 8.0\ngini = 0.5\nsamples = 2\nvalue = [1, 1]\nclass = 0", fillcolor="#ffffff"] ;
124 -> 125 ;
126 [label="gini = 0.0\nsamples = 1\nvalue = [1, 0]\nclass = 0", fillcolor="#e58139"] ;
125 -> 126 ;
127 [label="gini = 0.0\nsamples = 1\nvalue = [0, 1]\nclass = 1", fillcolor="#399de5"] ;
125 -> 127 ;
128 [label="Nutritional Deficiencies  <= 4.5\ngini = 0.198\nsamples = 9\nvalue = [1, 8]\nclass = 1", fillcolor="#52a9e8"] ;
124 -> 128 ;
129 [label="gini = 0.444\nsamples = 3\nvalue = [1, 2]\nclass = 1", fillcolor="#9ccef2"] ;
128 -> 129 ;
130 [label="gini = 0.0\nsamples = 6\nvalue = [0, 6]\nclass = 1", fillcolor="#399de5"] ;
128 -> 130 ;
131 [label="Nutritional Deficiencies  <= 6.5\ngini = 0.455\nsamples = 20\nvalue = [7, 13]\nclass = 1", fillcolor="#a4d2f3"] ;
113 -> 131 ;
132 [label="Medications & Treatments <= 8.0\ngini = 0.5\nsamples = 4\nvalue = [2, 2]\nclass = 0", fillcolor="#ffffff"] ;
131 -> 132 ;
133 [label="Medications & Treatments <= 6.5\ngini = 0.444\nsamples = 3\nvalue = [2, 1]\nclass = 0", fillcolor="#f2c09c"] ;
132 -> 133 ;
134 [label="gini = 0.5\nsamples = 2\nvalue = [1, 1]\nclass = 0", fillcolor="#ffffff"] ;
133 -> 134 ;
135 [label="gini = 0.0\nsamples = 1\nvalue = [1, 0]\nclass = 0", fillcolor="#e58139"] ;
133 -> 135 ;
136 [label="gini = 0.0\nsamples = 1\nvalue = [0, 1]\nclass = 1", fillcolor="#399de5"] ;
132 -> 136 ;
137 [label="Nutritional Deficiencies  <= 8.5\ngini = 0.43\nsamples = 16\nvalue = [5, 11]\nclass = 1", fillcolor="#93caf1"] ;
131 -> 137 ;
138 [label="Medications & Treatments <= 8.0\ngini = 0.408\nsamples = 14\nvalue = [4, 10]\nclass = 1", fillcolor="#88c4ef"] ;
137 -> 138 ;
139 [label="Medical Conditions <= 0.5\ngini = 0.444\nsamples = 9\nvalue = [3, 6]\nclass = 1", fillcolor="#9ccef2"] ;
138 -> 139 ;
140 [label="Medications & Treatments <= 6.5\ngini = 0.5\nsamples = 4\nvalue = [2, 2]\nclass = 0", fillcolor="#ffffff"] ;
139 -> 140 ;
141 [label="Nutritional Deficiencies  <= 7.5\ngini = 0.444\nsamples = 3\nvalue = [1, 2]\nclass = 1", fillcolor="#9ccef2"] ;
140 -> 141 ;
142 [label="gini = 0.0\nsamples = 1\nvalue = [0, 1]\nclass = 1", fillcolor="#399de5"] ;
141 -> 142 ;
143 [label="gini = 0.5\nsamples = 2\nvalue = [1, 1]\nclass = 0", fillcolor="#ffffff"] ;
141 -> 143 ;
144 [label="gini = 0.0\nsamples = 1\nvalue = [1, 0]\nclass = 0", fillcolor="#e58139"] ;
140 -> 144 ;
145 [label="Nutritional Deficiencies  <= 7.5\ngini = 0.32\nsamples = 5\nvalue = [1, 4]\nclass = 1", fillcolor="#6ab6ec"] ;
139 -> 145 ;
146 [label="Medications & Treatments <= 6.5\ngini = 0.444\nsamples = 3\nvalue = [1, 2]\nclass = 1", fillcolor="#9ccef2"] ;
145 -> 146 ;
147 [label="gini = 0.0\nsamples = 1\nvalue = [1, 0]\nclass = 0", fillcolor="#e58139"] ;
146 -> 147 ;
148 [label="gini = 0.0\nsamples = 2\nvalue = [0, 2]\nclass = 1", fillcolor="#399de5"] ;
146 -> 148 ;
149 [label="gini = 0.0\nsamples = 2\nvalue = [0, 2]\nclass = 1", fillcolor="#399de5"] ;
145 -> 149 ;
150 [label="Medical Conditions <= 0.5\ngini = 0.32\nsamples = 5\nvalue = [1, 4]\nclass = 1", fillcolor="#6ab6ec"] ;
138 -> 150 ;
151 [label="gini = 0.0\nsamples = 3\nvalue = [0, 3]\nclass = 1", fillcolor="#399de5"] ;
150 -> 151 ;
152 [label="Nutritional Deficiencies  <= 7.5\ngini = 0.5\nsamples = 2\nvalue = [1, 1]\nclass = 0", fillcolor="#ffffff"] ;
150 -> 152 ;
153 [label="gini = 0.0\nsamples = 1\nvalue = [1, 0]\nclass = 0", fillcolor="#e58139"] ;
152 -> 153 ;
154 [label="gini = 0.0\nsamples = 1\nvalue = [0, 1]\nclass = 1", fillcolor="#399de5"] ;
152 -> 154 ;
155 [label="Medications & Treatments <= 7.5\ngini = 0.5\nsamples = 2\nvalue = [1, 1]\nclass = 0", fillcolor="#ffffff"] ;
137 -> 155 ;
156 [label="gini = 0.0\nsamples = 1\nvalue = [0, 1]\nclass = 1", fillcolor="#399de5"] ;
155 -> 156 ;
157 [label="gini = 0.0\nsamples = 1\nvalue = [1, 0]\nclass = 0", fillcolor="#e58139"] ;
155 -> 157 ;
158 [label="Nutritional Deficiencies  <= 8.5\ngini = 0.5\nsamples = 8\nvalue = [4, 4]\nclass = 0", fillcolor="#ffffff"] ;
112 -> 158 ;
159 [label="Nutritional Deficiencies  <= 6.0\ngini = 0.49\nsamples = 7\nvalue = [4, 3]\nclass = 0", fillcolor="#f8e0ce"] ;
158 -> 159 ;
160 [label="Medical Conditions <= 0.5\ngini = 0.444\nsamples = 3\nvalue = [2, 1]\nclass = 0", fillcolor="#f2c09c"] ;
159 -> 160 ;
161 [label="gini = 0.0\nsamples = 2\nvalue = [2, 0]\nclass = 0", fillcolor="#e58139"] ;
160 -> 161 ;
162 [label="gini = 0.0\nsamples = 1\nvalue = [0, 1]\nclass = 1", fillcolor="#399de5"] ;
160 -> 162 ;
163 [label="Medical Conditions <= 0.5\ngini = 0.5\nsamples = 4\nvalue = [2, 2]\nclass = 0", fillcolor="#ffffff"] ;
159 -> 163 ;
164 [label="gini = 0.0\nsamples = 2\nvalue = [0, 2]\nclass = 1", fillcolor="#399de5"] ;
163 -> 164 ;
165 [label="gini = 0.0\nsamples = 2\nvalue = [2, 0]\nclass = 0", fillcolor="#e58139"] ;
163 -> 165 ;
166 [label="gini = 0.0\nsamples = 1\nvalue = [0, 1]\nclass = 1", fillcolor="#399de5"] ;
158 -> 166 ;
167 [label="Medications & Treatments <= 9.5\ngini = 0.444\nsamples = 3\nvalue = [2, 1]\nclass = 0", fillcolor="#f2c09c"] ;
111 -> 167 ;
168 [label="gini = 0.0\nsamples = 2\nvalue = [2, 0]\nclass = 0", fillcolor="#e58139"] ;
167 -> 168 ;
169 [label="gini = 0.0\nsamples = 1\nvalue = [0, 1]\nclass = 1", fillcolor="#399de5"] ;
167 -> 169 ;
170 [label="Medications & Treatments <= 7.5\ngini = 0.498\nsamples = 633\nvalue = [334, 299]\nclass = 0", fillcolor="#fcf2ea"] ;
0 -> 170 [labeldistance=2.5, labelangle=-45, headlabel="False"] ;
171 [label="Medications & Treatments <= 6.5\ngini = 0.497\nsamples = 487\nvalue = [263, 224]\nclass = 0", fillcolor="#fbece2"] ;
170 -> 171 ;
172 [label="Nutritional Deficiencies  <= 0.5\ngini = 0.498\nsamples = 432\nvalue = [228, 204]\nclass = 0", fillcolor="#fcf2ea"] ;
171 -> 172 ;
173 [label="Medications & Treatments <= 2.5\ngini = 0.46\nsamples = 39\nvalue = [25, 14]\nclass = 0", fillcolor="#f4c8a8"] ;
172 -> 173 ;
174 [label="Medications & Treatments <= 1.5\ngini = 0.498\nsamples = 15\nvalue = [7, 8]\nclass = 1", fillcolor="#e6f3fc"] ;
173 -> 174 ;
175 [label="Medical Conditions <= 9.0\ngini = 0.486\nsamples = 12\nvalue = [7, 5]\nclass = 0", fillcolor="#f8dbc6"] ;
174 -> 175 ;
176 [label="Medical Conditions <= 5.0\ngini = 0.42\nsamples = 10\nvalue = [7, 3]\nclass = 0", fillcolor="#f0b78e"] ;
175 -> 176 ;
177 [label="Medical Conditions <= 3.5\ngini = 0.48\nsamples = 5\nvalue = [2, 3]\nclass = 1", fillcolor="#bddef6"] ;
176 -> 177 ;
178 [label="Medications & Treatments <= 0.5\ngini = 0.444\nsamples = 3\nvalue = [2, 1]\nclass = 0", fillcolor="#f2c09c"] ;
177 -> 178 ;
179 [label="Medical Conditions <= 2.5\ngini = 0.5\nsamples = 2\nvalue = [1, 1]\nclass = 0", fillcolor="#ffffff"] ;
178 -> 179 ;
180 [label="gini = 0.0\nsamples = 1\nvalue = [0, 1]\nclass = 1", fillcolor="#399de5"] ;
179 -> 180 ;
181 [label="gini = 0.0\nsamples = 1\nvalue = [1, 0]\nclass = 0", fillcolor="#e58139"] ;
179 -> 181 ;
182 [label="gini = 0.0\nsamples = 1\nvalue = [1, 0]\nclass = 0", fillcolor="#e58139"] ;
178 -> 182 ;
183 [label="gini = 0.0\nsamples = 2\nvalue = [0, 2]\nclass = 1", fillcolor="#399de5"] ;
177 -> 183 ;
184 [label="gini = 0.0\nsamples = 5\nvalue = [5, 0]\nclass = 0", fillcolor="#e58139"] ;
176 -> 184 ;
185 [label="gini = 0.0\nsamples = 2\nvalue = [0, 2]\nclass = 1", fillcolor="#399de5"] ;
175 -> 185 ;
186 [label="gini = 0.0\nsamples = 3\nvalue = [0, 3]\nclass = 1", fillcolor="#399de5"] ;
174 -> 186 ;
187 [label="Medical Conditions <= 6.5\ngini = 0.375\nsamples = 24\nvalue = [18, 6]\nclass = 0", fillcolor="#eeab7b"] ;
173 -> 187 ;
188 [label="Medications & Treatments <= 5.5\ngini = 0.153\nsamples = 12\nvalue = [11, 1]\nclass = 0", fillcolor="#e78c4b"] ;
187 -> 188 ;
189 [label="gini = 0.0\nsamples = 9\nvalue = [9, 0]\nclass = 0", fillcolor="#e58139"] ;
188 -> 189 ;
190 [label="Medical Conditions <= 3.0\ngini = 0.444\nsamples = 3\nvalue = [2, 1]\nclass = 0", fillcolor="#f2c09c"] ;
188 -> 190 ;
191 [label="gini = 0.0\nsamples = 1\nvalue = [1, 0]\nclass = 0", fillcolor="#e58139"] ;
190 -> 191 ;
192 [label="Medical Conditions <= 4.5\ngini = 0.5\nsamples = 2\nvalue = [1, 1]\nclass = 0", fillcolor="#ffffff"] ;
190 -> 192 ;
193 [label="gini = 0.0\nsamples = 1\nvalue = [0, 1]\nclass = 1", fillcolor="#399de5"] ;
192 -> 193 ;
194 [label="gini = 0.0\nsamples = 1\nvalue = [1, 0]\nclass = 0", fillcolor="#e58139"] ;
192 -> 194 ;
195 [label="Medications & Treatments <= 3.5\ngini = 0.486\nsamples = 12\nvalue = [7, 5]\nclass = 0", fillcolor="#f8dbc6"] ;
187 -> 195 ;
196 [label="gini = 0.0\nsamples = 1\nvalue = [0, 1]\nclass = 1", fillcolor="#399de5"] ;
195 -> 196 ;
197 [label="Medical Conditions <= 9.5\ngini = 0.463\nsamples = 11\nvalue = [7, 4]\nclass = 0", fillcolor="#f4c9aa"] ;
195 -> 197 ;
198 [label="Medications & Treatments <= 5.5\ngini = 0.5\nsamples = 8\nvalue = [4, 4]\nclass = 0", fillcolor="#ffffff"] ;
197 -> 198 ;
199 [label="Medical Conditions <= 8.5\ngini = 0.444\nsamples = 6\nvalue = [4, 2]\nclass = 0", fillcolor="#f2c09c"] ;
198 -> 199 ;
200 [label="Medical Conditions <= 7.5\ngini = 0.5\nsamples = 4\nvalue = [2, 2]\nclass = 0", fillcolor="#ffffff"] ;
199 -> 200 ;
201 [label="gini = 0.0\nsamples = 1\nvalue = [1, 0]\nclass = 0", fillcolor="#e58139"] ;
200 -> 201 ;
202 [label="Medications & Treatments <= 4.5\ngini = 0.444\nsamples = 3\nvalue = [1, 2]\nclass = 1", fillcolor="#9ccef2"] ;
200 -> 202 ;
203 [label="gini = 0.5\nsamples = 2\nvalue = [1, 1]\nclass = 0", fillcolor="#ffffff"] ;
202 -> 203 ;
204 [label="gini = 0.0\nsamples = 1\nvalue = [0, 1]\nclass = 1", fillcolor="#399de5"] ;
202 -> 204 ;
205 [label="gini = 0.0\nsamples = 2\nvalue = [2, 0]\nclass = 0", fillcolor="#e58139"] ;
199 -> 205 ;
206 [label="gini = 0.0\nsamples = 2\nvalue = [0, 2]\nclass = 1", fillcolor="#399de5"] ;
198 -> 206 ;
207 [label="gini = 0.0\nsamples = 3\nvalue = [3, 0]\nclass = 0", fillcolor="#e58139"] ;
197 -> 207 ;
208 [label="Medical Conditions <= 9.5\ngini = 0.499\nsamples = 393\nvalue = [203, 190]\nclass = 0", fillcolor="#fdf7f2"] ;
172 -> 208 ;
209 [label="Medications & Treatments <= 0.5\ngini = 0.5\nsamples = 344\nvalue = [174, 170]\nclass = 0", fillcolor="#fefcfa"] ;
208 -> 209 ;
210 [label="Medical Conditions <= 8.5\ngini = 0.488\nsamples = 45\nvalue = [26, 19]\nclass = 0", fillcolor="#f8ddca"] ;
209 -> 210 ;
211 [label="Medical Conditions <= 6.5\ngini = 0.472\nsamples = 34\nvalue = [21, 13]\nclass = 0", fillcolor="#f5cfb4"] ;
210 -> 211 ;
212 [label="Medical Conditions <= 3.5\ngini = 0.49\nsamples = 28\nvalue = [16, 12]\nclass = 0", fillcolor="#f8e0ce"] ;
211 -> 212 ;
213 [label="Nutritional Deficiencies  <= 4.0\ngini = 0.42\nsamples = 10\nvalue = [7, 3]\nclass = 0", fillcolor="#f0b78e"] ;
212 -> 213 ;
214 [label="Medical Conditions <= 2.5\ngini = 0.5\nsamples = 4\nvalue = [2, 2]\nclass = 0", fillcolor="#ffffff"] ;
213 -> 214 ;
215 [label="Nutritional Deficiencies  <= 2.5\ngini = 0.444\nsamples = 3\nvalue = [2, 1]\nclass = 0", fillcolor="#f2c09c"] ;
214 -> 215 ;
216 [label="gini = 0.5\nsamples = 2\nvalue = [1, 1]\nclass = 0", fillcolor="#ffffff"] ;
215 -> 216 ;
217 [label="gini = 0.0\nsamples = 1\nvalue = [1, 0]\nclass = 0", fillcolor="#e58139"] ;
215 -> 217 ;
218 [label="gini = 0.0\nsamples = 1\nvalue = [0, 1]\nclass = 1", fillcolor="#399de5"] ;
214 -> 218 ;
219 [label="Nutritional Deficiencies  <= 9.5\ngini = 0.278\nsamples = 6\nvalue = [5, 1]\nclass = 0", fillcolor="#ea9a61"] ;
213 -> 219 ;
220 [label="gini = 0.0\nsamples = 4\nvalue = [4, 0]\nclass = 0", fillcolor="#e58139"] ;
219 -> 220 ;
221 [label="Medical Conditions <= 2.5\ngini = 0.5\nsamples = 2\nvalue = [1, 1]\nclass = 0", fillcolor="#ffffff"] ;
219 -> 221 ;
222 [label="gini = 0.0\nsamples = 1\nvalue = [0, 1]\nclass = 1", fillcolor="#399de5"] ;
221 -> 222 ;
223 [label="gini = 0.0\nsamples = 1\nvalue = [1, 0]\nclass = 0", fillcolor="#e58139"] ;
221 -> 223 ;
224 [label="Nutritional Deficiencies  <= 7.5\ngini = 0.5\nsamples = 18\nvalue = [9, 9]\nclass = 0", fillcolor="#ffffff"] ;
212 -> 224 ;
225 [label="Medical Conditions <= 5.5\ngini = 0.459\nsamples = 14\nvalue = [9, 5]\nclass = 0", fillcolor="#f3c7a7"] ;
224 -> 225 ;
226 [label="Nutritional Deficiencies  <= 4.5\ngini = 0.375\nsamples = 8\nvalue = [6, 2]\nclass = 0", fillcolor="#eeab7b"] ;
225 -> 226 ;
227 [label="gini = 0.0\nsamples = 1\nvalue = [0, 1]\nclass = 1", fillcolor="#399de5"] ;
226 -> 227 ;
228 [label="Nutritional Deficiencies  <= 6.5\ngini = 0.245\nsamples = 7\nvalue = [6, 1]\nclass = 0", fillcolor="#e9965a"] ;
226 -> 228 ;
229 [label="gini = 0.0\nsamples = 4\nvalue = [4, 0]\nclass = 0", fillcolor="#e58139"] ;
228 -> 229 ;
230 [label="gini = 0.444\nsamples = 3\nvalue = [2, 1]\nclass = 0", fillcolor="#f2c09c"] ;
228 -> 230 ;
231 [label="Nutritional Deficiencies  <= 3.5\ngini = 0.5\nsamples = 6\nvalue = [3, 3]\nclass = 0", fillcolor="#ffffff"] ;
225 -> 231 ;
232 [label="Nutritional Deficiencies  <= 1.5\ngini = 0.444\nsamples = 3\nvalue = [2, 1]\nclass = 0", fillcolor="#f2c09c"] ;
231 -> 232 ;
233 [label="gini = 0.5\nsamples = 2\nvalue = [1, 1]\nclass = 0", fillcolor="#ffffff"] ;
232 -> 233 ;
234 [label="gini = 0.0\nsamples = 1\nvalue = [1, 0]\nclass = 0", fillcolor="#e58139"] ;
232 -> 234 ;
235 [label="Nutritional Deficiencies  <= 6.0\ngini = 0.444\nsamples = 3\nvalue = [1, 2]\nclass = 1", fillcolor="#9ccef2"] ;
231 -> 235 ;
236 [label="gini = 0.0\nsamples = 1\nvalue = [0, 1]\nclass = 1", fillcolor="#399de5"] ;
235 -> 236 ;
237 [label="gini = 0.5\nsamples = 2\nvalue = [1, 1]\nclass = 0", fillcolor="#ffffff"] ;
235 -> 237 ;
238 [label="gini = 0.0\nsamples = 4\nvalue = [0, 4]\nclass = 1", fillcolor="#399de5"] ;
224 -> 238 ;
239 [label="Nutritional Deficiencies  <= 9.0\ngini = 0.278\nsamples = 6\nvalue = [5, 1]\nclass = 0", fillcolor="#ea9a61"] ;
211 -> 239 ;
240 [label="gini = 0.0\nsamples = 3\nvalue = [3, 0]\nclass = 0", fillcolor="#e58139"] ;
239 -> 240 ;
241 [label="Medical Conditions <= 7.5\ngini = 0.444\nsamples = 3\nvalue = [2, 1]\nclass = 0", fillcolor="#f2c09c"] ;
239 -> 241 ;
242 [label="gini = 0.0\nsamples = 2\nvalue = [2, 0]\nclass = 0", fillcolor="#e58139"] ;
241 -> 242 ;
243 [label="gini = 0.0\nsamples = 1\nvalue = [0, 1]\nclass = 1", fillcolor="#399de5"] ;
241 -> 243 ;
244 [label="Nutritional Deficiencies  <= 3.5\ngini = 0.496\nsamples = 11\nvalue = [5, 6]\nclass = 1", fillcolor="#deeffb"] ;
210 -> 244 ;
245 [label="gini = 0.0\nsamples = 2\nvalue = [2, 0]\nclass = 0", fillcolor="#e58139"] ;
244 -> 245 ;
246 [label="Nutritional Deficiencies  <= 8.0\ngini = 0.444\nsamples = 9\nvalue = [3, 6]\nclass = 1", fillcolor="#9ccef2"] ;
244 -> 246 ;
247 [label="Nutritional Deficiencies  <= 4.5\ngini = 0.245\nsamples = 7\nvalue = [1, 6]\nclass = 1", fillcolor="#5aade9"] ;
246 -> 247 ;
248 [label="gini = 0.444\nsamples = 3\nvalue = [1, 2]\nclass = 1", fillcolor="#9ccef2"] ;
247 -> 248 ;
249 [label="gini = 0.0\nsamples = 4\nvalue = [0, 4]\nclass = 1", fillcolor="#399de5"] ;
247 -> 249 ;
250 [label="gini = 0.0\nsamples = 2\nvalue = [2, 0]\nclass = 0", fillcolor="#e58139"] ;
246 -> 250 ;
251 [label="Medications & Treatments <= 1.5\ngini = 0.5\nsamples = 299\nvalue = [148, 151]\nclass = 1", fillcolor="#fbfdfe"] ;
209 -> 251 ;
252 [label="Medical Conditions <= 3.5\ngini = 0.483\nsamples = 49\nvalue = [20, 29]\nclass = 1", fillcolor="#c2e1f7"] ;
251 -> 252 ;
253 [label="Nutritional Deficiencies  <= 4.5\ngini = 0.337\nsamples = 14\nvalue = [3, 11]\nclass = 1", fillcolor="#6fb8ec"] ;
252 -> 253 ;
254 [label="Nutritional Deficiencies  <= 2.0\ngini = 0.49\nsamples = 7\nvalue = [3, 4]\nclass = 1", fillcolor="#cee6f8"] ;
253 -> 254 ;
255 [label="gini = 0.0\nsamples = 2\nvalue = [0, 2]\nclass = 1", fillcolor="#399de5"] ;
254 -> 255 ;
256 [label="Medical Conditions <= 2.5\ngini = 0.48\nsamples = 5\nvalue = [3, 2]\nclass = 0", fillcolor="#f6d5bd"] ;
254 -> 256 ;
257 [label="Nutritional Deficiencies  <= 3.5\ngini = 0.5\nsamples = 2\nvalue = [1, 1]\nclass = 0", fillcolor="#ffffff"] ;
256 -> 257 ;
258 [label="gini = 0.0\nsamples = 1\nvalue = [0, 1]\nclass = 1", fillcolor="#399de5"] ;
257 -> 258 ;
259 [label="gini = 0.0\nsamples = 1\nvalue = [1, 0]\nclass = 0", fillcolor="#e58139"] ;
257 -> 259 ;
260 [label="Nutritional Deficiencies  <= 3.5\ngini = 0.444\nsamples = 3\nvalue = [2, 1]\nclass = 0", fillcolor="#f2c09c"] ;
256 -> 260 ;
261 [label="gini = 0.0\nsamples = 1\nvalue = [1, 0]\nclass = 0", fillcolor="#e58139"] ;
260 -> 261 ;
262 [label="gini = 0.5\nsamples = 2\nvalue = [1, 1]\nclass = 0", fillcolor="#ffffff"] ;
260 -> 262 ;
263 [label="gini = 0.0\nsamples = 7\nvalue = [0, 7]\nclass = 1", fillcolor="#399de5"] ;
253 -> 263 ;
264 [label="Nutritional Deficiencies  <= 5.5\ngini = 0.5\nsamples = 35\nvalue = [17, 18]\nclass = 1", fillcolor="#f4fafe"] ;
252 -> 264 ;
265 [label="Medical Conditions <= 5.5\ngini = 0.426\nsamples = 13\nvalue = [4, 9]\nclass = 1", fillcolor="#91c9f1"] ;
264 -> 265 ;
266 [label="Nutritional Deficiencies  <= 1.5\ngini = 0.48\nsamples = 5\nvalue = [3, 2]\nclass = 0", fillcolor="#f6d5bd"] ;
265 -> 266 ;
267 [label="gini = 0.0\nsamples = 1\nvalue = [1, 0]\nclass = 0", fillcolor="#e58139"] ;
266 -> 267 ;
268 [label="Medical Conditions <= 4.5\ngini = 0.5\nsamples = 4\nvalue = [2, 2]\nclass = 0", fillcolor="#ffffff"] ;
266 -> 268 ;
269 [label="gini = 0.5\nsamples = 2\nvalue = [1, 1]\nclass = 0", fillcolor="#ffffff"] ;
268 -> 269 ;
270 [label="gini = 0.5\nsamples = 2\nvalue = [1, 1]\nclass = 0", fillcolor="#ffffff"] ;
268 -> 270 ;
271 [label="Medical Conditions <= 6.5\ngini = 0.219\nsamples = 8\nvalue = [1, 7]\nclass = 1", fillcolor="#55abe9"] ;
265 -> 271 ;
272 [label="Nutritional Deficiencies  <= 4.5\ngini = 0.375\nsamples = 4\nvalue = [1, 3]\nclass = 1", fillcolor="#7bbeee"] ;
271 -> 272 ;
273 [label="Nutritional Deficiencies  <= 3.0\ngini = 0.5\nsamples = 2\nvalue = [1, 1]\nclass = 0", fillcolor="#ffffff"] ;
272 -> 273 ;
274 [label="gini = 0.0\nsamples = 1\nvalue = [0, 1]\nclass = 1", fillcolor="#399de5"] ;
273 -> 274 ;
275 [label="gini = 0.0\nsamples = 1\nvalue = [1, 0]\nclass = 0", fillcolor="#e58139"] ;
273 -> 275 ;
276 [label="gini = 0.0\nsamples = 2\nvalue = [0, 2]\nclass = 1", fillcolor="#399de5"] ;
272 -> 276 ;
277 [label="gini = 0.0\nsamples = 4\nvalue = [0, 4]\nclass = 1", fillcolor="#399de5"] ;
271 -> 277 ;
278 [label="Medical Conditions <= 6.5\ngini = 0.483\nsamples = 22\nvalue = [13, 9]\nclass = 0", fillcolor="#f7d8c2"] ;
264 -> 278 ;
279 [label="Nutritional Deficiencies  <= 6.5\ngini = 0.5\nsamples = 12\nvalue = [6, 6]\nclass = 0", fillcolor="#ffffff"] ;
278 -> 279 ;
280 [label="gini = 0.0\nsamples = 1\nvalue = [1, 0]\nclass = 0", fillcolor="#e58139"] ;
279 -> 280 ;
281 [label="Medical Conditions <= 4.5\ngini = 0.496\nsamples = 11\nvalue = [5, 6]\nclass = 1", fillcolor="#deeffb"] ;
279 -> 281 ;
282 [label="Nutritional Deficiencies  <= 8.5\ngini = 0.444\nsamples = 3\nvalue = [2, 1]\nclass = 0", fillcolor="#f2c09c"] ;
281 -> 282 ;
283 [label="gini = 0.5\nsamples = 2\nvalue = [1, 1]\nclass = 0", fillcolor="#ffffff"] ;
282 -> 283 ;
284 [label="gini = 0.0\nsamples = 1\nvalue = [1, 0]\nclass = 0", fillcolor="#e58139"] ;
282 -> 284 ;
285 [label="Nutritional Deficiencies  <= 9.5\ngini = 0.469\nsamples = 8\nvalue = [3, 5]\nclass = 1", fillcolor="#b0d8f5"] ;
281 -> 285 ;
286 [label="Medical Conditions <= 5.5\ngini = 0.49\nsamples = 7\nvalue = [3, 4]\nclass = 1", fillcolor="#cee6f8"] ;
285 -> 286 ;
287 [label="Nutritional Deficiencies  <= 8.5\ngini = 0.444\nsamples = 3\nvalue = [1, 2]\nclass = 1", fillcolor="#9ccef2"] ;
286 -> 287 ;
288 [label="gini = 0.0\nsamples = 2\nvalue = [0, 2]\nclass = 1", fillcolor="#399de5"] ;
287 -> 288 ;
289 [label="gini = 0.0\nsamples = 1\nvalue = [1, 0]\nclass = 0", fillcolor="#e58139"] ;
287 -> 289 ;
290 [label="Nutritional Deficiencies  <= 8.5\ngini = 0.5\nsamples = 4\nvalue = [2, 2]\nclass = 0", fillcolor="#ffffff"] ;
286 -> 290 ;
291 [label="Nutritional Deficiencies  <= 7.5\ngini = 0.444\nsamples = 3\nvalue = [2, 1]\nclass = 0", fillcolor="#f2c09c"] ;
290 -> 291 ;
292 [label="gini = 0.5\nsamples = 2\nvalue = [1, 1]\nclass = 0", fillcolor="#ffffff"] ;
291 -> 292 ;
293 [label="gini = 0.0\nsamples = 1\nvalue = [1, 0]\nclass = 0", fillcolor="#e58139"] ;
291 -> 293 ;
294 [label="gini = 0.0\nsamples = 1\nvalue = [0, 1]\nclass = 1", fillcolor="#399de5"] ;
290 -> 294 ;
295 [label="gini = 0.0\nsamples = 1\nvalue = [0, 1]\nclass = 1", fillcolor="#399de5"] ;
285 -> 295 ;
296 [label="Nutritional Deficiencies  <= 8.5\ngini = 0.42\nsamples = 10\nvalue = [7, 3]\nclass = 0", fillcolor="#f0b78e"] ;
278 -> 296 ;
297 [label="Nutritional Deficiencies  <= 7.5\ngini = 0.49\nsamples = 7\nvalue = [4, 3]\nclass = 0", fillcolor="#f8e0ce"] ;
296 -> 297 ;
298 [label="Medical Conditions <= 8.5\ngini = 0.375\nsamples = 4\nvalue = [3, 1]\nclass = 0", fillcolor="#eeab7b"] ;
297 -> 298 ;
299 [label="gini = 0.0\nsamples = 2\nvalue = [2, 0]\nclass = 0", fillcolor="#e58139"] ;
298 -> 299 ;
300 [label="gini = 0.5\nsamples = 2\nvalue = [1, 1]\nclass = 0", fillcolor="#ffffff"] ;
298 -> 300 ;
301 [label="Medical Conditions <= 8.5\ngini = 0.444\nsamples = 3\nvalue = [1, 2]\nclass = 1", fillcolor="#9ccef2"] ;
297 -> 301 ;
302 [label="gini = 0.0\nsamples = 1\nvalue = [0, 1]\nclass = 1", fillcolor="#399de5"] ;
301 -> 302 ;
303 [label="gini = 0.5\nsamples = 2\nvalue = [1, 1]\nclass = 0", fillcolor="#ffffff"] ;
301 -> 303 ;
304 [label="gini = 0.0\nsamples = 3\nvalue = [3, 0]\nclass = 0", fillcolor="#e58139"] ;
296 -> 304 ;
305 [label="Medications & Treatments <= 2.5\ngini = 0.5\nsamples = 250\nvalue = [128, 122]\nclass = 0", fillcolor="#fef9f6"] ;
251 -> 305 ;
306 [label="Medical Conditions <= 2.5\ngini = 0.475\nsamples = 54\nvalue = [33, 21]\nclass = 0", fillcolor="#f6d1b7"] ;
305 -> 306 ;
307 [label="gini = 0.0\nsamples = 8\nvalue = [8, 0]\nclass = 0", fillcolor="#e58139"] ;
306 -> 307 ;
308 [label="Nutritional Deficiencies  <= 1.5\ngini = 0.496\nsamples = 46\nvalue = [25, 21]\nclass = 0", fillcolor="#fbebdf"] ;
306 -> 308 ;
309 [label="Medical Conditions <= 8.5\ngini = 0.32\nsamples = 5\nvalue = [4, 1]\nclass = 0", fillcolor="#eca06a"] ;
308 -> 309 ;
310 [label="gini = 0.0\nsamples = 4\nvalue = [4, 0]\nclass = 0", fillcolor="#e58139"] ;
309 -> 310 ;
311 [label="gini = 0.0\nsamples = 1\nvalue = [0, 1]\nclass = 1", fillcolor="#399de5"] ;
309 -> 311 ;
312 [label="Medical Conditions <= 3.5\ngini = 0.5\nsamples = 41\nvalue = [21, 20]\nclass = 0", fillcolor="#fef9f6"] ;
308 -> 312 ;
313 [label="Nutritional Deficiencies  <= 5.5\ngini = 0.444\nsamples = 6\nvalue = [2, 4]\nclass = 1", fillcolor="#9ccef2"] ;
312 -> 313 ;
314 [label="gini = 0.0\nsamples = 3\nvalue = [0, 3]\nclass = 1", fillcolor="#399de5"] ;
313 -> 314 ;
315 [label="Nutritional Deficiencies  <= 8.0\ngini = 0.444\nsamples = 3\nvalue = [2, 1]\nclass = 0", fillcolor="#f2c09c"] ;
313 -> 315 ;
316 [label="gini = 0.0\nsamples = 2\nvalue = [2, 0]\nclass = 0", fillcolor="#e58139"] ;
315 -> 316 ;
317 [label="gini = 0.0\nsamples = 1\nvalue = [0, 1]\nclass = 1", fillcolor="#399de5"] ;
315 -> 317 ;
318 [label="Nutritional Deficiencies  <= 2.5\ngini = 0.496\nsamples = 35\nvalue = [19, 16]\nclass = 0", fillcolor="#fbebe0"] ;
312 -> 318 ;
319 [label="gini = 0.0\nsamples = 1\nvalue = [1, 0]\nclass = 0", fillcolor="#e58139"] ;
318 -> 319 ;
320 [label="Medical Conditions <= 7.5\ngini = 0.498\nsamples = 34\nvalue = [18, 16]\nclass = 0", fillcolor="#fcf1e9"] ;
318 -> 320 ;
321 [label="Nutritional Deficiencies  <= 5.5\ngini = 0.49\nsamples = 28\nvalue = [16, 12]\nclass = 0", fillcolor="#f8e0ce"] ;
320 -> 321 ;
322 [label="Medical Conditions <= 4.5\ngini = 0.444\nsamples = 12\nvalue = [8, 4]\nclass = 0", fillcolor="#f2c09c"] ;
321 -> 322 ;
323 [label="gini = 0.444\nsamples = 3\nvalue = [1, 2]\nclass = 1", fillcolor="#9ccef2"] ;
322 -> 323 ;
324 [label="Medical Conditions <= 5.5\ngini = 0.346\nsamples = 9\nvalue = [7, 2]\nclass = 0", fillcolor="#eca572"] ;
322 -> 324 ;
325 [label="gini = 0.0\nsamples = 2\nvalue = [2, 0]\nclass = 0", fillcolor="#e58139"] ;
324 -> 325 ;
326 [label="Medical Conditions <= 6.5\ngini = 0.408\nsamples = 7\nvalue = [5, 2]\nclass = 0", fillcolor="#efb388"] ;
324 -> 326 ;
327 [label="Nutritional Deficiencies  <= 4.0\ngini = 0.444\nsamples = 6\nvalue = [4, 2]\nclass = 0", fillcolor="#f2c09c"] ;
326 -> 327 ;
328 [label="gini = 0.5\nsamples = 2\nvalue = [1, 1]\nclass = 0", fillcolor="#ffffff"] ;
327 -> 328 ;
329 [label="gini = 0.375\nsamples = 4\nvalue = [3, 1]\nclass = 0", fillcolor="#eeab7b"] ;
327 -> 329 ;
330 [label="gini = 0.0\nsamples = 1\nvalue = [1, 0]\nclass = 0", fillcolor="#e58139"] ;
326 -> 330 ;
331 [label="Medical Conditions <= 4.5\ngini = 0.5\nsamples = 16\nvalue = [8, 8]\nclass = 0", fillcolor="#ffffff"] ;
321 -> 331 ;
332 [label="Nutritional Deficiencies  <= 8.5\ngini = 0.375\nsamples = 4\nvalue = [3, 1]\nclass = 0", fillcolor="#eeab7b"] ;
331 -> 332 ;
333 [label="gini = 0.0\nsamples = 3\nvalue = [3, 0]\nclass = 0", fillcolor="#e58139"] ;
332 -> 333 ;
334 [label="gini = 0.0\nsamples = 1\nvalue = [0, 1]\nclass = 1", fillcolor="#399de5"] ;
332 -> 334 ;
335 [label="Nutritional Deficiencies  <= 9.0\ngini = 0.486\nsamples = 12\nvalue = [5, 7]\nclass = 1", fillcolor="#c6e3f8"] ;
331 -> 335 ;
336 [label="Medical Conditions <= 6.5\ngini = 0.444\nsamples = 9\nvalue = [3, 6]\nclass = 1", fillcolor="#9ccef2"] ;
335 -> 336 ;
337 [label="Medical Conditions <= 5.5\ngini = 0.49\nsamples = 7\nvalue = [3, 4]\nclass = 1", fillcolor="#cee6f8"] ;
336 -> 337 ;
338 [label="Nutritional Deficiencies  <= 7.5\ngini = 0.444\nsamples = 6\nvalue = [2, 4]\nclass = 1", fillcolor="#9ccef2"] ;
337 -> 338 ;
339 [label="Nutritional Deficiencies  <= 6.5\ngini = 0.48\nsamples = 5\nvalue = [2, 3]\nclass = 1", fillcolor="#bddef6"] ;
338 -> 339 ;
340 [label="gini = 0.444\nsamples = 3\nvalue = [1, 2]\nclass = 1", fillcolor="#9ccef2"] ;
339 -> 340 ;
341 [label="gini = 0.5\nsamples = 2\nvalue = [1, 1]\nclass = 0", fillcolor="#ffffff"] ;
339 -> 341 ;
342 [label="gini = 0.0\nsamples = 1\nvalue = [0, 1]\nclass = 1", fillcolor="#399de5"] ;
338 -> 342 ;
343 [label="gini = 0.0\nsamples = 1\nvalue = [1, 0]\nclass = 0", fillcolor="#e58139"] ;
337 -> 343 ;
344 [label="gini = 0.0\nsamples = 2\nvalue = [0, 2]\nclass = 1", fillcolor="#399de5"] ;
336 -> 344 ;
345 [label="Medical Conditions <= 5.5\ngini = 0.444\nsamples = 3\nvalue = [2, 1]\nclass = 0", fillcolor="#f2c09c"] ;
335 -> 345 ;
346 [label="gini = 0.0\nsamples = 1\nvalue = [1, 0]\nclass = 0", fillcolor="#e58139"] ;
345 -> 346 ;
347 [label="Medical Conditions <= 6.5\ngini = 0.5\nsamples = 2\nvalue = [1, 1]\nclass = 0", fillcolor="#ffffff"] ;
345 -> 347 ;
348 [label="gini = 0.0\nsamples = 1\nvalue = [0, 1]\nclass = 1", fillcolor="#399de5"] ;
347 -> 348 ;
349 [label="gini = 0.0\nsamples = 1\nvalue = [1, 0]\nclass = 0", fillcolor="#e58139"] ;
347 -> 349 ;
350 [label="Nutritional Deficiencies  <= 7.5\ngini = 0.444\nsamples = 6\nvalue = [2, 4]\nclass = 1", fillcolor="#9ccef2"] ;
320 -> 350 ;
351 [label="Medical Conditions <= 8.5\ngini = 0.32\nsamples = 5\nvalue = [1, 4]\nclass = 1", fillcolor="#6ab6ec"] ;
350 -> 351 ;
352 [label="Nutritional Deficiencies  <= 4.5\ngini = 0.444\nsamples = 3\nvalue = [1, 2]\nclass = 1", fillcolor="#9ccef2"] ;
351 -> 352 ;
353 [label="gini = 0.0\nsamples = 1\nvalue = [0, 1]\nclass = 1", fillcolor="#399de5"] ;
352 -> 353 ;
354 [label="gini = 0.5\nsamples = 2\nvalue = [1, 1]\nclass = 0", fillcolor="#ffffff"] ;
352 -> 354 ;
355 [label="gini = 0.0\nsamples = 2\nvalue = [0, 2]\nclass = 1", fillcolor="#399de5"] ;
351 -> 355 ;
356 [label="gini = 0.0\nsamples = 1\nvalue = [1, 0]\nclass = 0", fillcolor="#e58139"] ;
350 -> 356 ;
357 [label="Nutritional Deficiencies  <= 1.5\ngini = 0.5\nsamples = 196\nvalue = [95, 101]\nclass = 1", fillcolor="#f3f9fd"] ;
305 -> 357 ;
358 [label="Medical Conditions <= 4.0\ngini = 0.375\nsamples = 8\nvalue = [2, 6]\nclass = 1", fillcolor="#7bbeee"] ;
357 -> 358 ;
359 [label="gini = 0.0\nsamples = 1\nvalue = [1, 0]\nclass = 0", fillcolor="#e58139"] ;
358 -> 359 ;
360 [label="Medications & Treatments <= 5.5\ngini = 0.245\nsamples = 7\nvalue = [1, 6]\nclass = 1", fillcolor="#5aade9"] ;
358 -> 360 ;
361 [label="gini = 0.0\nsamples = 5\nvalue = [0, 5]\nclass = 1", fillcolor="#399de5"] ;
360 -> 361 ;
362 [label="gini = 0.5\nsamples = 2\nvalue = [1, 1]\nclass = 0", fillcolor="#ffffff"] ;
360 -> 362 ;
363 [label="Nutritional Deficiencies  <= 3.5\ngini = 0.5\nsamples = 188\nvalue = [93, 95]\nclass = 1", fillcolor="#fbfdfe"] ;
357 -> 363 ;
364 [label="Medications & Treatments <= 5.5\ngini = 0.484\nsamples = 39\nvalue = [23, 16]\nclass = 0", fillcolor="#f7d9c3"] ;
363 -> 364 ;
365 [label="Medications & Treatments <= 4.5\ngini = 0.444\nsamples = 30\nvalue = [20, 10]\nclass = 0", fillcolor="#f2c09c"] ;
364 -> 365 ;
366 [label="Medical Conditions <= 3.5\ngini = 0.488\nsamples = 19\nvalue = [11, 8]\nclass = 0", fillcolor="#f8ddc9"] ;
365 -> 366 ;
367 [label="Medications & Treatments <= 3.5\ngini = 0.469\nsamples = 8\nvalue = [3, 5]\nclass = 1", fillcolor="#b0d8f5"] ;
366 -> 367 ;
368 [label="Medical Conditions <= 2.5\ngini = 0.375\nsamples = 4\nvalue = [3, 1]\nclass = 0", fillcolor="#eeab7b"] ;
367 -> 368 ;
369 [label="gini = 0.5\nsamples = 2\nvalue = [1, 1]\nclass = 0", fillcolor="#ffffff"] ;
368 -> 369 ;
370 [label="gini = 0.0\nsamples = 2\nvalue = [2, 0]\nclass = 0", fillcolor="#e58139"] ;
368 -> 370 ;
371 [label="gini = 0.0\nsamples = 4\nvalue = [0, 4]\nclass = 1", fillcolor="#399de5"] ;
367 -> 371 ;
372 [label="Medications & Treatments <= 3.5\ngini = 0.397\nsamples = 11\nvalue = [8, 3]\nclass = 0", fillcolor="#efb083"] ;
366 -> 372 ;
373 [label="gini = 0.0\nsamples = 2\nvalue = [0, 2]\nclass = 1", fillcolor="#399de5"] ;
372 -> 373 ;
374 [label="Medical Conditions <= 5.5\ngini = 0.198\nsamples = 9\nvalue = [8, 1]\nclass = 0", fillcolor="#e89152"] ;
372 -> 374 ;
375 [label="gini = 0.0\nsamples = 5\nvalue = [5, 0]\nclass = 0", fillcolor="#e58139"] ;
374 -> 375 ;
376 [label="Nutritional Deficiencies  <= 2.5\ngini = 0.375\nsamples = 4\nvalue = [3, 1]\nclass = 0", fillcolor="#eeab7b"] ;
374 -> 376 ;
377 [label="gini = 0.5\nsamples = 2\nvalue = [1, 1]\nclass = 0", fillcolor="#ffffff"] ;
376 -> 377 ;
378 [label="gini = 0.0\nsamples = 2\nvalue = [2, 0]\nclass = 0", fillcolor="#e58139"] ;
376 -> 378 ;
379 [label="Nutritional Deficiencies  <= 2.5\ngini = 0.298\nsamples = 11\nvalue = [9, 2]\nclass = 0", fillcolor="#eb9d65"] ;
365 -> 379 ;
380 [label="gini = 0.5\nsamples = 2\nvalue = [1, 1]\nclass = 0", fillcolor="#ffffff"] ;
379 -> 380 ;
381 [label="Medical Conditions <= 5.5\ngini = 0.198\nsamples = 9\nvalue = [8, 1]\nclass = 0", fillcolor="#e89152"] ;
379 -> 381 ;
382 [label="gini = 0.0\nsamples = 5\nvalue = [5, 0]\nclass = 0", fillcolor="#e58139"] ;
381 -> 382 ;
383 [label="Medical Conditions <= 7.5\ngini = 0.375\nsamples = 4\nvalue = [3, 1]\nclass = 0", fillcolor="#eeab7b"] ;
381 -> 383 ;
384 [label="gini = 0.5\nsamples = 2\nvalue = [1, 1]\nclass = 0", fillcolor="#ffffff"] ;
383 -> 384 ;
385 [label="gini = 0.0\nsamples = 2\nvalue = [2, 0]\nclass = 0", fillcolor="#e58139"] ;
383 -> 385 ;
386 [label="Medical Conditions <= 5.5\ngini = 0.444\nsamples = 9\nvalue = [3, 6]\nclass = 1", fillcolor="#9ccef2"] ;
364 -> 386 ;
387 [label="gini = 0.0\nsamples = 3\nvalue = [0, 3]\nclass = 1", fillcolor="#399de5"] ;
386 -> 387 ;
388 [label="Nutritional Deficiencies  <= 2.5\ngini = 0.5\nsamples = 6\nvalue = [3, 3]\nclass = 0", fillcolor="#ffffff"] ;
386 -> 388 ;
389 [label="Medical Conditions <= 7.5\ngini = 0.375\nsamples = 4\nvalue = [1, 3]\nclass = 1", fillcolor="#7bbeee"] ;
388 -> 389 ;
390 [label="gini = 0.5\nsamples = 2\nvalue = [1, 1]\nclass = 0", fillcolor="#ffffff"] ;
389 -> 390 ;
391 [label="gini = 0.0\nsamples = 2\nvalue = [0, 2]\nclass = 1", fillcolor="#399de5"] ;
389 -> 391 ;
392 [label="gini = 0.0\nsamples = 2\nvalue = [2, 0]\nclass = 0", fillcolor="#e58139"] ;
388 -> 392 ;
393 [label="Nutritional Deficiencies  <= 8.5\ngini = 0.498\nsamples = 149\nvalue = [70, 79]\nclass = 1", fillcolor="#e8f4fc"] ;
363 -> 393 ;
394 [label="Medical Conditions <= 8.5\ngini = 0.491\nsamples = 106\nvalue = [46, 60]\nclass = 1", fillcolor="#d1e8f9"] ;
393 -> 394 ;
395 [label="Medical Conditions <= 7.5\ngini = 0.496\nsamples = 97\nvalue = [44, 53]\nclass = 1", fillcolor="#ddeefb"] ;
394 -> 395 ;
396 [label="Nutritional Deficiencies  <= 4.5\ngini = 0.49\nsamples = 86\nvalue = [37, 49]\nclass = 1", fillcolor="#cfe7f9"] ;
395 -> 396 ;
397 [label="Medical Conditions <= 2.5\ngini = 0.463\nsamples = 22\nvalue = [8, 14]\nclass = 1", fillcolor="#aad5f4"] ;
396 -> 397 ;
398 [label="gini = 0.0\nsamples = 3\nvalue = [0, 3]\nclass = 1", fillcolor="#399de5"] ;
397 -> 398 ;
399 [label="Medications & Treatments <= 4.5\ngini = 0.488\nsamples = 19\nvalue = [8, 11]\nclass = 1", fillcolor="#c9e4f8"] ;
397 -> 399 ;
400 [label="Medical Conditions <= 6.5\ngini = 0.42\nsamples = 10\nvalue = [3, 7]\nclass = 1", fillcolor="#8ec7f0"] ;
399 -> 400 ;
401 [label="Medications & Treatments <= 3.5\ngini = 0.245\nsamples = 7\nvalue = [1, 6]\nclass = 1", fillcolor="#5aade9"] ;
400 -> 401 ;
402 [label="Medical Conditions <= 5.5\ngini = 0.375\nsamples = 4\nvalue = [1, 3]\nclass = 1", fillcolor="#7bbeee"] ;
401 -> 402 ;
403 [label="Medical Conditions <= 4.0\ngini = 0.5\nsamples = 2\nvalue = [1, 1]\nclass = 0", fillcolor="#ffffff"] ;
402 -> 403 ;
404 [label="gini = 0.0\nsamples = 1\nvalue = [0, 1]\nclass = 1", fillcolor="#399de5"] ;
403 -> 404 ;
405 [label="gini = 0.0\nsamples = 1\nvalue = [1, 0]\nclass = 0", fillcolor="#e58139"] ;
403 -> 405 ;
406 [label="gini = 0.0\nsamples = 2\nvalue = [0, 2]\nclass = 1", fillcolor="#399de5"] ;
402 -> 406 ;
407 [label="gini = 0.0\nsamples = 3\nvalue = [0, 3]\nclass = 1", fillcolor="#399de5"] ;
401 -> 407 ;
408 [label="Medications & Treatments <= 3.5\ngini = 0.444\nsamples = 3\nvalue = [2, 1]\nclass = 0", fillcolor="#f2c09c"] ;
400 -> 408 ;
409 [label="gini = 0.0\nsamples = 1\nvalue = [1, 0]\nclass = 0", fillcolor="#e58139"] ;
408 -> 409 ;
410 [label="gini = 0.5\nsamples = 2\nvalue = [1, 1]\nclass = 0", fillcolor="#ffffff"] ;
408 -> 410 ;
411 [label="Medical Conditions <= 5.5\ngini = 0.494\nsamples = 9\nvalue = [5, 4]\nclass = 0", fillcolor="#fae6d7"] ;
399 -> 411 ;
412 [label="Medical Conditions <= 4.0\ngini = 0.49\nsamples = 7\nvalue = [3, 4]\nclass = 1", fillcolor="#cee6f8"] ;
411 -> 412 ;
413 [label="Medications & Treatments <= 5.5\ngini = 0.375\nsamples = 4\nvalue = [3, 1]\nclass = 0", fillcolor="#eeab7b"] ;
412 -> 413 ;
414 [label="gini = 0.0\nsamples = 1\nvalue = [1, 0]\nclass = 0", fillcolor="#e58139"] ;
413 -> 414 ;
415 [label="gini = 0.444\nsamples = 3\nvalue = [2, 1]\nclass = 0", fillcolor="#f2c09c"] ;
413 -> 415 ;
416 [label="gini = 0.0\nsamples = 3\nvalue = [0, 3]\nclass = 1", fillcolor="#399de5"] ;
412 -> 416 ;
417 [label="gini = 0.0\nsamples = 2\nvalue = [2, 0]\nclass = 0", fillcolor="#e58139"] ;
411 -> 417 ;
418 [label="Nutritional Deficiencies  <= 5.5\ngini = 0.496\nsamples = 64\nvalue = [29, 35]\nclass = 1", fillcolor="#ddeefb"] ;
396 -> 418 ;
419 [label="Medical Conditions <= 4.5\ngini = 0.486\nsamples = 12\nvalue = [7, 5]\nclass = 0", fillcolor="#f8dbc6"] ;
418 -> 419 ;
420 [label="Medications & Treatments <= 5.5\ngini = 0.48\nsamples = 5\nvalue = [2, 3]\nclass = 1", fillcolor="#bddef6"] ;
419 -> 420 ;
421 [label="Medications & Treatments <= 4.0\ngini = 0.444\nsamples = 3\nvalue = [2, 1]\nclass = 0", fillcolor="#f2c09c"] ;
420 -> 421 ;
422 [label="gini = 0.5\nsamples = 2\nvalue = [1, 1]\nclass = 0", fillcolor="#ffffff"] ;
421 -> 422 ;
423 [label="gini = 0.0\nsamples = 1\nvalue = [1, 0]\nclass = 0", fillcolor="#e58139"] ;
421 -> 423 ;
424 [label="gini = 0.0\nsamples = 2\nvalue = [0, 2]\nclass = 1", fillcolor="#399de5"] ;
420 -> 424 ;
425 [label="Medications & Treatments <= 3.5\ngini = 0.408\nsamples = 7\nvalue = [5, 2]\nclass = 0", fillcolor="#efb388"] ;
419 -> 425 ;
426 [label="gini = 0.0\nsamples = 1\nvalue = [0, 1]\nclass = 1", fillcolor="#399de5"] ;
425 -> 426 ;
427 [label="Medical Conditions <= 5.5\ngini = 0.278\nsamples = 6\nvalue = [5, 1]\nclass = 0", fillcolor="#ea9a61"] ;
425 -> 427 ;
428 [label="gini = 0.0\nsamples = 3\nvalue = [3, 0]\nclass = 0", fillcolor="#e58139"] ;
427 -> 428 ;
429 [label="Medications & Treatments <= 4.5\ngini = 0.444\nsamples = 3\nvalue = [2, 1]\nclass = 0", fillcolor="#f2c09c"] ;
427 -> 429 ;
430 [label="gini = 0.0\nsamples = 1\nvalue = [1, 0]\nclass = 0", fillcolor="#e58139"] ;
429 -> 430 ;
431 [label="gini = 0.5\nsamples = 2\nvalue = [1, 1]\nclass = 0", fillcolor="#ffffff"] ;
429 -> 431 ;
432 [label="Medical Conditions <= 4.5\ngini = 0.488\nsamples = 52\nvalue = [22, 30]\nclass = 1", fillcolor="#cae5f8"] ;
418 -> 432 ;
433 [label="Medical Conditions <= 3.5\ngini = 0.499\nsamples = 23\nvalue = [12, 11]\nclass = 0", fillcolor="#fdf5ef"] ;
432 -> 433 ;
434 [label="Medical Conditions <= 2.5\ngini = 0.499\nsamples = 19\nvalue = [9, 10]\nclass = 1", fillcolor="#ebf5fc"] ;
433 -> 434 ;
435 [label="Medications & Treatments <= 4.5\ngini = 0.496\nsamples = 11\nvalue = [6, 5]\nclass = 0", fillcolor="#fbeade"] ;
434 -> 435 ;
436 [label="Nutritional Deficiencies  <= 7.0\ngini = 0.375\nsamples = 4\nvalue = [3, 1]\nclass = 0", fillcolor="#eeab7b"] ;
435 -> 436 ;
437 [label="gini = 0.0\nsamples = 2\nvalue = [2, 0]\nclass = 0", fillcolor="#e58139"] ;
436 -> 437 ;
438 [label="Medications & Treatments <= 3.5\ngini = 0.5\nsamples = 2\nvalue = [1, 1]\nclass = 0", fillcolor="#ffffff"] ;
436 -> 438 ;
439 [label="gini = 0.0\nsamples = 1\nvalue = [0, 1]\nclass = 1", fillcolor="#399de5"] ;
438 -> 439 ;
440 [label="gini = 0.0\nsamples = 1\nvalue = [1, 0]\nclass = 0", fillcolor="#e58139"] ;
438 -> 440 ;
441 [label="Nutritional Deficiencies  <= 7.5\ngini = 0.49\nsamples = 7\nvalue = [3, 4]\nclass = 1", fillcolor="#cee6f8"] ;
435 -> 441 ;
442 [label="Nutritional Deficiencies  <= 6.5\ngini = 0.32\nsamples = 5\nvalue = [1, 4]\nclass = 1", fillcolor="#6ab6ec"] ;
441 -> 442 ;
443 [label="gini = 0.5\nsamples = 2\nvalue = [1, 1]\nclass = 0", fillcolor="#ffffff"] ;
442 -> 443 ;
444 [label="gini = 0.0\nsamples = 3\nvalue = [0, 3]\nclass = 1", fillcolor="#399de5"] ;
442 -> 444 ;
445 [label="gini = 0.0\nsamples = 2\nvalue = [2, 0]\nclass = 0", fillcolor="#e58139"] ;
441 -> 445 ;
446 [label="Medications & Treatments <= 5.5\ngini = 0.469\nsamples = 8\nvalue = [3, 5]\nclass = 1", fillcolor="#b0d8f5"] ;
434 -> 446 ;
447 [label="Medications & Treatments <= 3.5\ngini = 0.32\nsamples = 5\nvalue = [1, 4]\nclass = 1", fillcolor="#6ab6ec"] ;
446 -> 447 ;
448 [label="Nutritional Deficiencies  <= 7.0\ngini = 0.444\nsamples = 3\nvalue = [1, 2]\nclass = 1", fillcolor="#9ccef2"] ;
447 -> 448 ;
449 [label="gini = 0.0\nsamples = 1\nvalue = [0, 1]\nclass = 1", fillcolor="#399de5"] ;
448 -> 449 ;
450 [label="gini = 0.5\nsamples = 2\nvalue = [1, 1]\nclass = 0", fillcolor="#ffffff"] ;
448 -> 450 ;
451 [label="gini = 0.0\nsamples = 2\nvalue = [0, 2]\nclass = 1", fillcolor="#399de5"] ;
447 -> 451 ;
452 [label="gini = 0.444\nsamples = 3\nvalue = [2, 1]\nclass = 0", fillcolor="#f2c09c"] ;
446 -> 452 ;
453 [label="Medications & Treatments <= 5.5\ngini = 0.375\nsamples = 4\nvalue = [3, 1]\nclass = 0", fillcolor="#eeab7b"] ;
433 -> 453 ;
454 [label="gini = 0.0\nsamples = 3\nvalue = [3, 0]\nclass = 0", fillcolor="#e58139"] ;
453 -> 454 ;
455 [label="gini = 0.0\nsamples = 1\nvalue = [0, 1]\nclass = 1", fillcolor="#399de5"] ;
453 -> 455 ;
456 [label="Nutritional Deficiencies  <= 6.5\ngini = 0.452\nsamples = 29\nvalue = [10, 19]\nclass = 1", fillcolor="#a1d1f3"] ;
432 -> 456 ;
457 [label="Medications & Treatments <= 5.5\ngini = 0.486\nsamples = 12\nvalue = [5, 7]\nclass = 1", fillcolor="#c6e3f8"] ;
456 -> 457 ;
458 [label="Medical Conditions <= 5.5\ngini = 0.469\nsamples = 8\nvalue = [5, 3]\nclass = 0", fillcolor="#f5cdb0"] ;
457 -> 458 ;
459 [label="gini = 0.0\nsamples = 2\nvalue = [0, 2]\nclass = 1", fillcolor="#399de5"] ;
458 -> 459 ;
460 [label="Medications & Treatments <= 4.5\ngini = 0.278\nsamples = 6\nvalue = [5, 1]\nclass = 0", fillcolor="#ea9a61"] ;
458 -> 460 ;
461 [label="gini = 0.0\nsamples = 4\nvalue = [4, 0]\nclass = 0", fillcolor="#e58139"] ;
460 -> 461 ;
462 [label="gini = 0.5\nsamples = 2\nvalue = [1, 1]\nclass = 0", fillcolor="#ffffff"] ;
460 -> 462 ;
463 [label="gini = 0.0\nsamples = 4\nvalue = [0, 4]\nclass = 1", fillcolor="#399de5"] ;
457 -> 463 ;
464 [label="Medical Conditions <= 5.5\ngini = 0.415\nsamples = 17\nvalue = [5, 12]\nclass = 1", fillcolor="#8bc6f0"] ;
456 -> 464 ;
465 [label="Medications & Treatments <= 3.5\ngini = 0.5\nsamples = 6\nvalue = [3, 3]\nclass = 0", fillcolor="#ffffff"] ;
464 -> 465 ;
466 [label="gini = 0.0\nsamples = 2\nvalue = [0, 2]\nclass = 1", fillcolor="#399de5"] ;
465 -> 466 ;
467 [label="Medications & Treatments <= 5.5\ngini = 0.375\nsamples = 4\nvalue = [3, 1]\nclass = 0", fillcolor="#eeab7b"] ;
465 -> 467 ;
468 [label="gini = 0.0\nsamples = 2\nvalue = [2, 0]\nclass = 0", fillcolor="#e58139"] ;
467 -> 468 ;
469 [label="gini = 0.5\nsamples = 2\nvalue = [1, 1]\nclass = 0", fillcolor="#ffffff"] ;
467 -> 469 ;
470 [label="Medications & Treatments <= 5.5\ngini = 0.298\nsamples = 11\nvalue = [2, 9]\nclass = 1", fillcolor="#65b3eb"] ;
464 -> 470 ;
471 [label="Nutritional Deficiencies  <= 7.5\ngini = 0.198\nsamples = 9\nvalue = [1, 8]\nclass = 1", fillcolor="#52a9e8"] ;
470 -> 471 ;
472 [label="gini = 0.32\nsamples = 5\nvalue = [1, 4]\nclass = 1", fillcolor="#6ab6ec"] ;
471 -> 472 ;
473 [label="gini = 0.0\nsamples = 4\nvalue = [0, 4]\nclass = 1", fillcolor="#399de5"] ;
471 -> 473 ;
474 [label="Nutritional Deficiencies  <= 7.5\ngini = 0.5\nsamples = 2\nvalue = [1, 1]\nclass = 0", fillcolor="#ffffff"] ;
470 -> 474 ;
475 [label="gini = 0.0\nsamples = 1\nvalue = [0, 1]\nclass = 1", fillcolor="#399de5"] ;
474 -> 475 ;
476 [label="gini = 0.0\nsamples = 1\nvalue = [1, 0]\nclass = 0", fillcolor="#e58139"] ;
474 -> 476 ;
477 [label="Nutritional Deficiencies  <= 7.5\ngini = 0.463\nsamples = 11\nvalue = [7, 4]\nclass = 0", fillcolor="#f4c9aa"] ;
395 -> 477 ;
478 [label="Medications & Treatments <= 4.5\ngini = 0.494\nsamples = 9\nvalue = [5, 4]\nclass = 0", fillcolor="#fae6d7"] ;
477 -> 478 ;
479 [label="Nutritional Deficiencies  <= 6.0\ngini = 0.32\nsamples = 5\nvalue = [4, 1]\nclass = 0", fillcolor="#eca06a"] ;
478 -> 479 ;
480 [label="gini = 0.0\nsamples = 2\nvalue = [2, 0]\nclass = 0", fillcolor="#e58139"] ;
479 -> 480 ;
481 [label="gini = 0.444\nsamples = 3\nvalue = [2, 1]\nclass = 0", fillcolor="#f2c09c"] ;
479 -> 481 ;
482 [label="Medications & Treatments <= 5.5\ngini = 0.375\nsamples = 4\nvalue = [1, 3]\nclass = 1", fillcolor="#7bbeee"] ;
478 -> 482 ;
483 [label="gini = 0.0\nsamples = 2\nvalue = [0, 2]\nclass = 1", fillcolor="#399de5"] ;
482 -> 483 ;
484 [label="gini = 0.5\nsamples = 2\nvalue = [1, 1]\nclass = 0", fillcolor="#ffffff"] ;
482 -> 484 ;
485 [label="gini = 0.0\nsamples = 2\nvalue = [2, 0]\nclass = 0", fillcolor="#e58139"] ;
477 -> 485 ;
486 [label="Medications & Treatments <= 5.5\ngini = 0.346\nsamples = 9\nvalue = [2, 7]\nclass = 1", fillcolor="#72b9ec"] ;
394 -> 486 ;
487 [label="Medications & Treatments <= 3.5\ngini = 0.245\nsamples = 7\nvalue = [1, 6]\nclass = 1", fillcolor="#5aade9"] ;
486 -> 487 ;
488 [label="gini = 0.0\nsamples = 2\nvalue = [0, 2]\nclass = 1", fillcolor="#399de5"] ;
487 -> 488 ;
489 [label="Medications & Treatments <= 4.5\ngini = 0.32\nsamples = 5\nvalue = [1, 4]\nclass = 1", fillcolor="#6ab6ec"] ;
487 -> 489 ;
490 [label="Nutritional Deficiencies  <= 5.5\ngini = 0.375\nsamples = 4\nvalue = [1, 3]\nclass = 1", fillcolor="#7bbeee"] ;
489 -> 490 ;
491 [label="gini = 0.0\nsamples = 1\nvalue = [0, 1]\nclass = 1", fillcolor="#399de5"] ;
490 -> 491 ;
492 [label="Nutritional Deficiencies  <= 7.5\ngini = 0.444\nsamples = 3\nvalue = [1, 2]\nclass = 1", fillcolor="#9ccef2"] ;
490 -> 492 ;
493 [label="gini = 0.5\nsamples = 2\nvalue = [1, 1]\nclass = 0", fillcolor="#ffffff"] ;
492 -> 493 ;
494 [label="gini = 0.0\nsamples = 1\nvalue = [0, 1]\nclass = 1", fillcolor="#399de5"] ;
492 -> 494 ;
495 [label="gini = 0.0\nsamples = 1\nvalue = [0, 1]\nclass = 1", fillcolor="#399de5"] ;
489 -> 495 ;
496 [label="Nutritional Deficiencies  <= 5.5\ngini = 0.5\nsamples = 2\nvalue = [1, 1]\nclass = 0", fillcolor="#ffffff"] ;
486 -> 496 ;
497 [label="gini = 0.0\nsamples = 1\nvalue = [0, 1]\nclass = 1", fillcolor="#399de5"] ;
496 -> 497 ;
498 [label="gini = 0.0\nsamples = 1\nvalue = [1, 0]\nclass = 0", fillcolor="#e58139"] ;
496 -> 498 ;
499 [label="Medications & Treatments <= 5.5\ngini = 0.493\nsamples = 43\nvalue = [24, 19]\nclass = 0", fillcolor="#fae5d6"] ;
393 -> 499 ;
500 [label="Medical Conditions <= 2.5\ngini = 0.5\nsamples = 33\nvalue = [17, 16]\nclass = 0", fillcolor="#fdf8f3"] ;
499 -> 500 ;
501 [label="Medications & Treatments <= 3.5\ngini = 0.444\nsamples = 6\nvalue = [2, 4]\nclass = 1", fillcolor="#9ccef2"] ;
500 -> 501 ;
502 [label="gini = 0.0\nsamples = 3\nvalue = [0, 3]\nclass = 1", fillcolor="#399de5"] ;
501 -> 502 ;
503 [label="Nutritional Deficiencies  <= 9.5\ngini = 0.444\nsamples = 3\nvalue = [2, 1]\nclass = 0", fillcolor="#f2c09c"] ;
501 -> 503 ;
504 [label="gini = 0.0\nsamples = 1\nvalue = [0, 1]\nclass = 1", fillcolor="#399de5"] ;
503 -> 504 ;
505 [label="gini = 0.0\nsamples = 2\nvalue = [2, 0]\nclass = 0", fillcolor="#e58139"] ;
503 -> 505 ;
506 [label="Medical Conditions <= 3.5\ngini = 0.494\nsamples = 27\nvalue = [15, 12]\nclass = 0", fillcolor="#fae6d7"] ;
500 -> 506 ;
507 [label="gini = 0.0\nsamples = 1\nvalue = [1, 0]\nclass = 0", fillcolor="#e58139"] ;
506 -> 507 ;
508 [label="Medications & Treatments <= 4.5\ngini = 0.497\nsamples = 26\nvalue = [14, 12]\nclass = 0", fillcolor="#fbede3"] ;
506 -> 508 ;
509 [label="Medical Conditions <= 4.5\ngini = 0.475\nsamples = 18\nvalue = [11, 7]\nclass = 0", fillcolor="#f6d1b7"] ;
508 -> 509 ;
510 [label="Medications & Treatments <= 3.5\ngini = 0.444\nsamples = 3\nvalue = [1, 2]\nclass = 1", fillcolor="#9ccef2"] ;
509 -> 510 ;
511 [label="gini = 0.0\nsamples = 2\nvalue = [0, 2]\nclass = 1", fillcolor="#399de5"] ;
510 -> 511 ;
512 [label="gini = 0.0\nsamples = 1\nvalue = [1, 0]\nclass = 0", fillcolor="#e58139"] ;
510 -> 512 ;
513 [label="Medications & Treatments <= 3.5\ngini = 0.444\nsamples = 15\nvalue = [10, 5]\nclass = 0", fillcolor="#f2c09c"] ;
509 -> 513 ;
514 [label="Nutritional Deficiencies  <= 9.5\ngini = 0.245\nsamples = 7\nvalue = [6, 1]\nclass = 0", fillcolor="#e9965a"] ;
513 -> 514 ;
515 [label="Medical Conditions <= 8.5\ngini = 0.5\nsamples = 2\nvalue = [1, 1]\nclass = 0", fillcolor="#ffffff"] ;
514 -> 515 ;
516 [label="gini = 0.0\nsamples = 1\nvalue = [0, 1]\nclass = 1", fillcolor="#399de5"] ;
515 -> 516 ;
517 [label="gini = 0.0\nsamples = 1\nvalue = [1, 0]\nclass = 0", fillcolor="#e58139"] ;
515 -> 517 ;
518 [label="gini = 0.0\nsamples = 5\nvalue = [5, 0]\nclass = 0", fillcolor="#e58139"] ;
514 -> 518 ;
519 [label="Medical Conditions <= 7.5\ngini = 0.5\nsamples = 8\nvalue = [4, 4]\nclass = 0", fillcolor="#ffffff"] ;
513 -> 519 ;
520 [label="Medical Conditions <= 6.0\ngini = 0.444\nsamples = 3\nvalue = [2, 1]\nclass = 0", fillcolor="#f2c09c"] ;
519 -> 520 ;
521 [label="Nutritional Deficiencies  <= 9.5\ngini = 0.5\nsamples = 2\nvalue = [1, 1]\nclass = 0", fillcolor="#ffffff"] ;
520 -> 521 ;
522 [label="gini = 0.0\nsamples = 1\nvalue = [1, 0]\nclass = 0", fillcolor="#e58139"] ;
521 -> 522 ;
523 [label="gini = 0.0\nsamples = 1\nvalue = [0, 1]\nclass = 1", fillcolor="#399de5"] ;
521 -> 523 ;
524 [label="gini = 0.0\nsamples = 1\nvalue = [1, 0]\nclass = 0", fillcolor="#e58139"] ;
520 -> 524 ;
525 [label="Nutritional Deficiencies  <= 9.5\ngini = 0.48\nsamples = 5\nvalue = [2, 3]\nclass = 1", fillcolor="#bddef6"] ;
519 -> 525 ;
526 [label="Medical Conditions <= 8.5\ngini = 0.5\nsamples = 4\nvalue = [2, 2]\nclass = 0", fillcolor="#ffffff"] ;
525 -> 526 ;
527 [label="gini = 0.5\nsamples = 2\nvalue = [1, 1]\nclass = 0", fillcolor="#ffffff"] ;
526 -> 527 ;
528 [label="gini = 0.5\nsamples = 2\nvalue = [1, 1]\nclass = 0", fillcolor="#ffffff"] ;
526 -> 528 ;
529 [label="gini = 0.0\nsamples = 1\nvalue = [0, 1]\nclass = 1", fillcolor="#399de5"] ;
525 -> 529 ;
530 [label="Medical Conditions <= 4.5\ngini = 0.469\nsamples = 8\nvalue = [3, 5]\nclass = 1", fillcolor="#b0d8f5"] ;
508 -> 530 ;
531 [label="gini = 0.0\nsamples = 1\nvalue = [1, 0]\nclass = 0", fillcolor="#e58139"] ;
530 -> 531 ;
532 [label="Medical Conditions <= 8.5\ngini = 0.408\nsamples = 7\nvalue = [2, 5]\nclass = 1", fillcolor="#88c4ef"] ;
530 -> 532 ;
533 [label="Nutritional Deficiencies  <= 9.5\ngini = 0.278\nsamples = 6\nvalue = [1, 5]\nclass = 1", fillcolor="#61b1ea"] ;
532 -> 533 ;
534 [label="Medical Conditions <= 6.0\ngini = 0.444\nsamples = 3\nvalue = [1, 2]\nclass = 1", fillcolor="#9ccef2"] ;
533 -> 534 ;
535 [label="gini = 0.0\nsamples = 1\nvalue = [1, 0]\nclass = 0", fillcolor="#e58139"] ;
534 -> 535 ;
536 [label="gini = 0.0\nsamples = 2\nvalue = [0, 2]\nclass = 1", fillcolor="#399de5"] ;
534 -> 536 ;
537 [label="gini = 0.0\nsamples = 3\nvalue = [0, 3]\nclass = 1", fillcolor="#399de5"] ;
533 -> 537 ;
538 [label="gini = 0.0\nsamples = 1\nvalue = [1, 0]\nclass = 0", fillcolor="#e58139"] ;
532 -> 538 ;
539 [label="Medical Conditions <= 3.5\ngini = 0.42\nsamples = 10\nvalue = [7, 3]\nclass = 0", fillcolor="#f0b78e"] ;
499 -> 539 ;
540 [label="gini = 0.0\nsamples = 3\nvalue = [3, 0]\nclass = 0", fillcolor="#e58139"] ;
539 -> 540 ;
541 [label="Medical Conditions <= 4.5\ngini = 0.49\nsamples = 7\nvalue = [4, 3]\nclass = 0", fillcolor="#f8e0ce"] ;
539 -> 541 ;
542 [label="Nutritional Deficiencies  <= 9.5\ngini = 0.444\nsamples = 3\nvalue = [1, 2]\nclass = 1", fillcolor="#9ccef2"] ;
541 -> 542 ;
543 [label="gini = 0.0\nsamples = 1\nvalue = [0, 1]\nclass = 1", fillcolor="#399de5"] ;
542 -> 543 ;
544 [label="gini = 0.5\nsamples = 2\nvalue = [1, 1]\nclass = 0", fillcolor="#ffffff"] ;
542 -> 544 ;
545 [label="Nutritional Deficiencies  <= 9.5\ngini = 0.375\nsamples = 4\nvalue = [3, 1]\nclass = 0", fillcolor="#eeab7b"] ;
541 -> 545 ;
546 [label="gini = 0.0\nsamples = 3\nvalue = [3, 0]\nclass = 0", fillcolor="#e58139"] ;
545 -> 546 ;
547 [label="gini = 0.0\nsamples = 1\nvalue = [0, 1]\nclass = 1", fillcolor="#399de5"] ;
545 -> 547 ;
548 [label="Nutritional Deficiencies  <= 2.5\ngini = 0.483\nsamples = 49\nvalue = [29, 20]\nclass = 0", fillcolor="#f7d8c2"] ;
208 -> 548 ;
549 [label="Medications & Treatments <= 5.5\ngini = 0.444\nsamples = 9\nvalue = [3, 6]\nclass = 1", fillcolor="#9ccef2"] ;
548 -> 549 ;
550 [label="Medications & Treatments <= 1.0\ngini = 0.375\nsamples = 8\nvalue = [2, 6]\nclass = 1", fillcolor="#7bbeee"] ;
549 -> 550 ;
551 [label="gini = 0.0\nsamples = 2\nvalue = [0, 2]\nclass = 1", fillcolor="#399de5"] ;
550 -> 551 ;
552 [label="Medications & Treatments <= 3.0\ngini = 0.444\nsamples = 6\nvalue = [2, 4]\nclass = 1", fillcolor="#9ccef2"] ;
550 -> 552 ;
553 [label="gini = 0.5\nsamples = 2\nvalue = [1, 1]\nclass = 0", fillcolor="#ffffff"] ;
552 -> 553 ;
554 [label="Nutritional Deficiencies  <= 1.5\ngini = 0.375\nsamples = 4\nvalue = [1, 3]\nclass = 1", fillcolor="#7bbeee"] ;
552 -> 554 ;
555 [label="gini = 0.0\nsamples = 2\nvalue = [0, 2]\nclass = 1", fillcolor="#399de5"] ;
554 -> 555 ;
556 [label="Medications & Treatments <= 4.5\ngini = 0.5\nsamples = 2\nvalue = [1, 1]\nclass = 0", fillcolor="#ffffff"] ;
554 -> 556 ;
557 [label="gini = 0.0\nsamples = 1\nvalue = [0, 1]\nclass = 1", fillcolor="#399de5"] ;
556 -> 557 ;
558 [label="gini = 0.0\nsamples = 1\nvalue = [1, 0]\nclass = 0", fillcolor="#e58139"] ;
556 -> 558 ;
559 [label="gini = 0.0\nsamples = 1\nvalue = [1, 0]\nclass = 0", fillcolor="#e58139"] ;
549 -> 559 ;
560 [label="Nutritional Deficiencies  <= 4.5\ngini = 0.455\nsamples = 40\nvalue = [26, 14]\nclass = 0", fillcolor="#f3c5a4"] ;
548 -> 560 ;
561 [label="Medications & Treatments <= 5.5\ngini = 0.49\nsamples = 14\nvalue = [8, 6]\nclass = 0", fillcolor="#f8e0ce"] ;
560 -> 561 ;
562 [label="Medications & Treatments <= 2.5\ngini = 0.444\nsamples = 9\nvalue = [6, 3]\nclass = 0", fillcolor="#f2c09c"] ;
561 -> 562 ;
563 [label="Medications & Treatments <= 1.5\ngini = 0.49\nsamples = 7\nvalue = [4, 3]\nclass = 0", fillcolor="#f8e0ce"] ;
562 -> 563 ;
564 [label="Nutritional Deficiencies  <= 3.5\ngini = 0.444\nsamples = 6\nvalue = [4, 2]\nclass = 0", fillcolor="#f2c09c"] ;
563 -> 564 ;
565 [label="gini = 0.0\nsamples = 2\nvalue = [2, 0]\nclass = 0", fillcolor="#e58139"] ;
564 -> 565 ;
566 [label="Medications & Treatments <= 0.5\ngini = 0.5\nsamples = 4\nvalue = [2, 2]\nclass = 0", fillcolor="#ffffff"] ;
564 -> 566 ;
567 [label="gini = 0.5\nsamples = 2\nvalue = [1, 1]\nclass = 0", fillcolor="#ffffff"] ;
566 -> 567 ;
568 [label="gini = 0.5\nsamples = 2\nvalue = [1, 1]\nclass = 0", fillcolor="#ffffff"] ;
566 -> 568 ;
569 [label="gini = 0.0\nsamples = 1\nvalue = [0, 1]\nclass = 1", fillcolor="#399de5"] ;
563 -> 569 ;
570 [label="gini = 0.0\nsamples = 2\nvalue = [2, 0]\nclass = 0", fillcolor="#e58139"] ;
562 -> 570 ;
571 [label="Nutritional Deficiencies  <= 3.5\ngini = 0.48\nsamples = 5\nvalue = [2, 3]\nclass = 1", fillcolor="#bddef6"] ;
561 -> 571 ;
572 [label="gini = 0.444\nsamples = 3\nvalue = [1, 2]\nclass = 1", fillcolor="#9ccef2"] ;
571 -> 572 ;
573 [label="gini = 0.5\nsamples = 2\nvalue = [1, 1]\nclass = 0", fillcolor="#ffffff"] ;
571 -> 573 ;
574 [label="Nutritional Deficiencies  <= 6.5\ngini = 0.426\nsamples = 26\nvalue = [18, 8]\nclass = 0", fillcolor="#f1b991"] ;
560 -> 574 ;
575 [label="Medications & Treatments <= 3.5\ngini = 0.298\nsamples = 11\nvalue = [9, 2]\nclass = 0", fillcolor="#eb9d65"] ;
574 -> 575 ;
576 [label="Medications & Treatments <= 1.0\ngini = 0.375\nsamples = 8\nvalue = [6, 2]\nclass = 0", fillcolor="#eeab7b"] ;
575 -> 576 ;
577 [label="gini = 0.0\nsamples = 2\nvalue = [2, 0]\nclass = 0", fillcolor="#e58139"] ;
576 -> 577 ;
578 [label="Medications & Treatments <= 2.5\ngini = 0.444\nsamples = 6\nvalue = [4, 2]\nclass = 0", fillcolor="#f2c09c"] ;
576 -> 578 ;
579 [label="Nutritional Deficiencies  <= 5.5\ngini = 0.375\nsamples = 4\nvalue = [3, 1]\nclass = 0", fillcolor="#eeab7b"] ;
578 -> 579 ;
580 [label="gini = 0.0\nsamples = 3\nvalue = [3, 0]\nclass = 0", fillcolor="#e58139"] ;
579 -> 580 ;
581 [label="gini = 0.0\nsamples = 1\nvalue = [0, 1]\nclass = 1", fillcolor="#399de5"] ;
579 -> 581 ;
582 [label="Nutritional Deficiencies  <= 5.5\ngini = 0.5\nsamples = 2\nvalue = [1, 1]\nclass = 0", fillcolor="#ffffff"] ;
578 -> 582 ;
583 [label="gini = 0.0\nsamples = 1\nvalue = [0, 1]\nclass = 1", fillcolor="#399de5"] ;
582 -> 583 ;
584 [label="gini = 0.0\nsamples = 1\nvalue = [1, 0]\nclass = 0", fillcolor="#e58139"] ;
582 -> 584 ;
585 [label="gini = 0.0\nsamples = 3\nvalue = [3, 0]\nclass = 0", fillcolor="#e58139"] ;
575 -> 585 ;
586 [label="Medications & Treatments <= 5.5\ngini = 0.48\nsamples = 15\nvalue = [9, 6]\nclass = 0", fillcolor="#f6d5bd"] ;
574 -> 586 ;
587 [label="Medications & Treatments <= 4.5\ngini = 0.497\nsamples = 13\nvalue = [7, 6]\nclass = 0", fillcolor="#fbede3"] ;
586 -> 587 ;
588 [label="Nutritional Deficiencies  <= 7.5\ngini = 0.486\nsamples = 12\nvalue = [7, 5]\nclass = 0", fillcolor="#f8dbc6"] ;
587 -> 588 ;
589 [label="Medications & Treatments <= 2.5\ngini = 0.444\nsamples = 3\nvalue = [1, 2]\nclass = 1", fillcolor="#9ccef2"] ;
588 -> 589 ;
590 [label="gini = 0.0\nsamples = 2\nvalue = [0, 2]\nclass = 1", fillcolor="#399de5"] ;
589 -> 590 ;
591 [label="gini = 0.0\nsamples = 1\nvalue = [1, 0]\nclass = 0", fillcolor="#e58139"] ;
589 -> 591 ;
592 [label="Medications & Treatments <= 2.5\ngini = 0.444\nsamples = 9\nvalue = [6, 3]\nclass = 0", fillcolor="#f2c09c"] ;
588 -> 592 ;
593 [label="gini = 0.0\nsamples = 3\nvalue = [3, 0]\nclass = 0", fillcolor="#e58139"] ;
592 -> 593 ;
594 [label="Nutritional Deficiencies  <= 9.5\ngini = 0.5\nsamples = 6\nvalue = [3, 3]\nclass = 0", fillcolor="#ffffff"] ;
592 -> 594 ;
595 [label="gini = 0.0\nsamples = 1\nvalue = [1, 0]\nclass = 0", fillcolor="#e58139"] ;
594 -> 595 ;
596 [label="Medications & Treatments <= 3.5\ngini = 0.48\nsamples = 5\nvalue = [2, 3]\nclass = 1", fillcolor="#bddef6"] ;
594 -> 596 ;
597 [label="gini = 0.0\nsamples = 1\nvalue = [0, 1]\nclass = 1", fillcolor="#399de5"] ;
596 -> 597 ;
598 [label="gini = 0.5\nsamples = 4\nvalue = [2, 2]\nclass = 0", fillcolor="#ffffff"] ;
596 -> 598 ;
599 [label="gini = 0.0\nsamples = 1\nvalue = [0, 1]\nclass = 1", fillcolor="#399de5"] ;
587 -> 599 ;
600 [label="gini = 0.0\nsamples = 2\nvalue = [2, 0]\nclass = 0", fillcolor="#e58139"] ;
586 -> 600 ;
601 [label="Medical Conditions <= 5.5\ngini = 0.463\nsamples = 55\nvalue = [35, 20]\nclass = 0", fillcolor="#f4c9aa"] ;
171 -> 601 ;
602 [label="Nutritional Deficiencies  <= 7.5\ngini = 0.491\nsamples = 23\nvalue = [10, 13]\nclass = 1", fillcolor="#d1e8f9"] ;
601 -> 602 ;
603 [label="Nutritional Deficiencies  <= 5.5\ngini = 0.5\nsamples = 18\nvalue = [9, 9]\nclass = 0", fillcolor="#ffffff"] ;
602 -> 603 ;
604 [label="Nutritional Deficiencies  <= 0.5\ngini = 0.463\nsamples = 11\nvalue = [4, 7]\nclass = 1", fillcolor="#aad5f4"] ;
603 -> 604 ;
605 [label="gini = 0.0\nsamples = 1\nvalue = [0, 1]\nclass = 1", fillcolor="#399de5"] ;
604 -> 605 ;
606 [label="Nutritional Deficiencies  <= 1.5\ngini = 0.48\nsamples = 10\nvalue = [4, 6]\nclass = 1", fillcolor="#bddef6"] ;
604 -> 606 ;
607 [label="Medical Conditions <= 4.5\ngini = 0.444\nsamples = 3\nvalue = [2, 1]\nclass = 0", fillcolor="#f2c09c"] ;
606 -> 607 ;
608 [label="gini = 0.0\nsamples = 2\nvalue = [2, 0]\nclass = 0", fillcolor="#e58139"] ;
607 -> 608 ;
609 [label="gini = 0.0\nsamples = 1\nvalue = [0, 1]\nclass = 1", fillcolor="#399de5"] ;
607 -> 609 ;
610 [label="Medical Conditions <= 4.0\ngini = 0.408\nsamples = 7\nvalue = [2, 5]\nclass = 1", fillcolor="#88c4ef"] ;
606 -> 610 ;
611 [label="Nutritional Deficiencies  <= 3.5\ngini = 0.32\nsamples = 5\nvalue = [1, 4]\nclass = 1", fillcolor="#6ab6ec"] ;
610 -> 611 ;
612 [label="gini = 0.0\nsamples = 2\nvalue = [0, 2]\nclass = 1", fillcolor="#399de5"] ;
611 -> 612 ;
613 [label="Nutritional Deficiencies  <= 4.5\ngini = 0.444\nsamples = 3\nvalue = [1, 2]\nclass = 1", fillcolor="#9ccef2"] ;
611 -> 613 ;
614 [label="gini = 0.5\nsamples = 2\nvalue = [1, 1]\nclass = 0", fillcolor="#ffffff"] ;
613 -> 614 ;
615 [label="gini = 0.0\nsamples = 1\nvalue = [0, 1]\nclass = 1", fillcolor="#399de5"] ;
613 -> 615 ;
616 [label="gini = 0.5\nsamples = 2\nvalue = [1, 1]\nclass = 0", fillcolor="#ffffff"] ;
610 -> 616 ;
617 [label="Nutritional Deficiencies  <= 6.5\ngini = 0.408\nsamples = 7\nvalue = [5, 2]\nclass = 0", fillcolor="#efb388"] ;
603 -> 617 ;
618 [label="gini = 0.0\nsamples = 3\nvalue = [3, 0]\nclass = 0", fillcolor="#e58139"] ;
617 -> 618 ;
619 [label="Medical Conditions <= 2.5\ngini = 0.5\nsamples = 4\nvalue = [2, 2]\nclass = 0", fillcolor="#ffffff"] ;
617 -> 619 ;
620 [label="gini = 0.0\nsamples = 1\nvalue = [1, 0]\nclass = 0", fillcolor="#e58139"] ;
619 -> 620 ;
621 [label="Medical Conditions <= 3.5\ngini = 0.444\nsamples = 3\nvalue = [1, 2]\nclass = 1", fillcolor="#9ccef2"] ;
619 -> 621 ;
622 [label="gini = 0.0\nsamples = 1\nvalue = [0, 1]\nclass = 1", fillcolor="#399de5"] ;
621 -> 622 ;
623 [label="gini = 0.5\nsamples = 2\nvalue = [1, 1]\nclass = 0", fillcolor="#ffffff"] ;
621 -> 623 ;
624 [label="Nutritional Deficiencies  <= 9.5\ngini = 0.32\nsamples = 5\nvalue = [1, 4]\nclass = 1", fillcolor="#6ab6ec"] ;
602 -> 624 ;
625 [label="gini = 0.0\nsamples = 2\nvalue = [0, 2]\nclass = 1", fillcolor="#399de5"] ;
624 -> 625 ;
626 [label="Medical Conditions <= 4.5\ngini = 0.444\nsamples = 3\nvalue = [1, 2]\nclass = 1", fillcolor="#9ccef2"] ;
624 -> 626 ;
627 [label="gini = 0.0\nsamples = 1\nvalue = [0, 1]\nclass = 1", fillcolor="#399de5"] ;
626 -> 627 ;
628 [label="gini = 0.5\nsamples = 2\nvalue = [1, 1]\nclass = 0", fillcolor="#ffffff"] ;
626 -> 628 ;
629 [label="Nutritional Deficiencies  <= 9.5\ngini = 0.342\nsamples = 32\nvalue = [25, 7]\nclass = 0", fillcolor="#eca470"] ;
601 -> 629 ;
630 [label="Nutritional Deficiencies  <= 4.5\ngini = 0.26\nsamples = 26\nvalue = [22, 4]\nclass = 0", fillcolor="#ea985d"] ;
629 -> 630 ;
631 [label="Medical Conditions <= 6.5\ngini = 0.397\nsamples = 11\nvalue = [8, 3]\nclass = 0", fillcolor="#efb083"] ;
630 -> 631 ;
632 [label="gini = 0.0\nsamples = 3\nvalue = [3, 0]\nclass = 0", fillcolor="#e58139"] ;
631 -> 632 ;
633 [label="Nutritional Deficiencies  <= 3.5\ngini = 0.469\nsamples = 8\nvalue = [5, 3]\nclass = 0", fillcolor="#f5cdb0"] ;
631 -> 633 ;
634 [label="Nutritional Deficiencies  <= 0.5\ngini = 0.408\nsamples = 7\nvalue = [5, 2]\nclass = 0", fillcolor="#efb388"] ;
633 -> 634 ;
635 [label="Medical Conditions <= 8.5\ngini = 0.5\nsamples = 2\nvalue = [1, 1]\nclass = 0", fillcolor="#ffffff"] ;
634 -> 635 ;
636 [label="gini = 0.0\nsamples = 1\nvalue = [0, 1]\nclass = 1", fillcolor="#399de5"] ;
635 -> 636 ;
637 [label="gini = 0.0\nsamples = 1\nvalue = [1, 0]\nclass = 0", fillcolor="#e58139"] ;
635 -> 637 ;
638 [label="Nutritional Deficiencies  <= 2.5\ngini = 0.32\nsamples = 5\nvalue = [4, 1]\nclass = 0", fillcolor="#eca06a"] ;
634 -> 638 ;
639 [label="gini = 0.0\nsamples = 3\nvalue = [3, 0]\nclass = 0", fillcolor="#e58139"] ;
638 -> 639 ;
640 [label="Medical Conditions <= 8.5\ngini = 0.5\nsamples = 2\nvalue = [1, 1]\nclass = 0", fillcolor="#ffffff"] ;
638 -> 640 ;
641 [label="gini = 0.0\nsamples = 1\nvalue = [1, 0]\nclass = 0", fillcolor="#e58139"] ;
640 -> 641 ;
642 [label="gini = 0.0\nsamples = 1\nvalue = [0, 1]\nclass = 1", fillcolor="#399de5"] ;
640 -> 642 ;
643 [label="gini = 0.0\nsamples = 1\nvalue = [0, 1]\nclass = 1", fillcolor="#399de5"] ;
633 -> 643 ;
644 [label="Nutritional Deficiencies  <= 8.5\ngini = 0.124\nsamples = 15\nvalue = [14, 1]\nclass = 0", fillcolor="#e78a47"] ;
630 -> 644 ;
645 [label="gini = 0.0\nsamples = 9\nvalue = [9, 0]\nclass = 0", fillcolor="#e58139"] ;
644 -> 645 ;
646 [label="Medical Conditions <= 6.5\ngini = 0.278\nsamples = 6\nvalue = [5, 1]\nclass = 0", fillcolor="#ea9a61"] ;
644 -> 646 ;
647 [label="gini = 0.0\nsamples = 2\nvalue = [2, 0]\nclass = 0", fillcolor="#e58139"] ;
646 -> 647 ;
648 [label="Medical Conditions <= 8.0\ngini = 0.375\nsamples = 4\nvalue = [3, 1]\nclass = 0", fillcolor="#eeab7b"] ;
646 -> 648 ;
649 [label="gini = 0.5\nsamples = 2\nvalue = [1, 1]\nclass = 0", fillcolor="#ffffff"] ;
648 -> 649 ;
650 [label="gini = 0.0\nsamples = 2\nvalue = [2, 0]\nclass = 0", fillcolor="#e58139"] ;
648 -> 650 ;
651 [label="Medical Conditions <= 6.5\ngini = 0.5\nsamples = 6\nvalue = [3, 3]\nclass = 0", fillcolor="#ffffff"] ;
629 -> 651 ;
652 [label="gini = 0.0\nsamples = 1\nvalue = [0, 1]\nclass = 1", fillcolor="#399de5"] ;
651 -> 652 ;
653 [label="Medical Conditions <= 7.5\ngini = 0.48\nsamples = 5\nvalue = [3, 2]\nclass = 0", fillcolor="#f6d5bd"] ;
651 -> 653 ;
654 [label="gini = 0.5\nsamples = 2\nvalue = [1, 1]\nclass = 0", fillcolor="#ffffff"] ;
653 -> 654 ;
655 [label="Medical Conditions <= 8.5\ngini = 0.444\nsamples = 3\nvalue = [2, 1]\nclass = 0", fillcolor="#f2c09c"] ;
653 -> 655 ;
656 [label="gini = 0.0\nsamples = 1\nvalue = [1, 0]\nclass = 0", fillcolor="#e58139"] ;
655 -> 656 ;
657 [label="gini = 0.5\nsamples = 2\nvalue = [1, 1]\nclass = 0", fillcolor="#ffffff"] ;
655 -> 657 ;
658 [label="Medical Conditions <= 8.5\ngini = 0.5\nsamples = 146\nvalue = [71, 75]\nclass = 1", fillcolor="#f4fafe"] ;
170 -> 658 ;
659 [label="Medications & Treatments <= 9.5\ngini = 0.497\nsamples = 113\nvalue = [61, 52]\nclass = 0", fillcolor="#fbece2"] ;
658 -> 659 ;
660 [label="Nutritional Deficiencies  <= 6.5\ngini = 0.479\nsamples = 58\nvalue = [35, 23]\nclass = 0", fillcolor="#f6d4bb"] ;
659 -> 660 ;
661 [label="Medical Conditions <= 2.5\ngini = 0.5\nsamples = 39\nvalue = [20, 19]\nclass = 0", fillcolor="#fef9f5"] ;
660 -> 661 ;
662 [label="gini = 0.0\nsamples = 3\nvalue = [0, 3]\nclass = 1", fillcolor="#399de5"] ;
661 -> 662 ;
663 [label="Medical Conditions <= 7.5\ngini = 0.494\nsamples = 36\nvalue = [20, 16]\nclass = 0", fillcolor="#fae6d7"] ;
661 -> 663 ;
664 [label="Nutritional Deficiencies  <= 4.5\ngini = 0.5\nsamples = 28\nvalue = [14, 14]\nclass = 0", fillcolor="#ffffff"] ;
663 -> 664 ;
665 [label="Nutritional Deficiencies  <= 3.5\ngini = 0.465\nsamples = 19\nvalue = [12, 7]\nclass = 0", fillcolor="#f4caac"] ;
664 -> 665 ;
666 [label="Nutritional Deficiencies  <= 0.5\ngini = 0.5\nsamples = 14\nvalue = [7, 7]\nclass = 0", fillcolor="#ffffff"] ;
665 -> 666 ;
667 [label="gini = 0.0\nsamples = 3\nvalue = [3, 0]\nclass = 0", fillcolor="#e58139"] ;
666 -> 667 ;
668 [label="Medical Conditions <= 5.5\ngini = 0.463\nsamples = 11\nvalue = [4, 7]\nclass = 1", fillcolor="#aad5f4"] ;
666 -> 668 ;
669 [label="Medications & Treatments <= 8.5\ngini = 0.49\nsamples = 7\nvalue = [4, 3]\nclass = 0", fillcolor="#f8e0ce"] ;
668 -> 669 ;
670 [label="gini = 0.0\nsamples = 1\nvalue = [1, 0]\nclass = 0", fillcolor="#e58139"] ;
669 -> 670 ;
671 [label="Medical Conditions <= 3.5\ngini = 0.5\nsamples = 6\nvalue = [3, 3]\nclass = 0", fillcolor="#ffffff"] ;
669 -> 671 ;
672 [label="Nutritional Deficiencies  <= 1.5\ngini = 0.444\nsamples = 3\nvalue = [2, 1]\nclass = 0", fillcolor="#f2c09c"] ;
671 -> 672 ;
673 [label="gini = 0.0\nsamples = 2\nvalue = [2, 0]\nclass = 0", fillcolor="#e58139"] ;
672 -> 673 ;
674 [label="gini = 0.0\nsamples = 1\nvalue = [0, 1]\nclass = 1", fillcolor="#399de5"] ;
672 -> 674 ;
675 [label="Medical Conditions <= 4.5\ngini = 0.444\nsamples = 3\nvalue = [1, 2]\nclass = 1", fillcolor="#9ccef2"] ;
671 -> 675 ;
676 [label="gini = 0.0\nsamples = 1\nvalue = [0, 1]\nclass = 1", fillcolor="#399de5"] ;
675 -> 676 ;
677 [label="Nutritional Deficiencies  <= 1.5\ngini = 0.5\nsamples = 2\nvalue = [1, 1]\nclass = 0", fillcolor="#ffffff"] ;
675 -> 677 ;
678 [label="gini = 0.0\nsamples = 1\nvalue = [0, 1]\nclass = 1", fillcolor="#399de5"] ;
677 -> 678 ;
679 [label="gini = 0.0\nsamples = 1\nvalue = [1, 0]\nclass = 0", fillcolor="#e58139"] ;
677 -> 679 ;
680 [label="gini = 0.0\nsamples = 4\nvalue = [0, 4]\nclass = 1", fillcolor="#399de5"] ;
668 -> 680 ;
681 [label="gini = 0.0\nsamples = 5\nvalue = [5, 0]\nclass = 0", fillcolor="#e58139"] ;
665 -> 681 ;
682 [label="Medical Conditions <= 4.5\ngini = 0.346\nsamples = 9\nvalue = [2, 7]\nclass = 1", fillcolor="#72b9ec"] ;
664 -> 682 ;
683 [label="Nutritional Deficiencies  <= 5.5\ngini = 0.5\nsamples = 4\nvalue = [2, 2]\nclass = 0", fillcolor="#ffffff"] ;
682 -> 683 ;
684 [label="gini = 0.0\nsamples = 1\nvalue = [0, 1]\nclass = 1", fillcolor="#399de5"] ;
683 -> 684 ;
685 [label="Medical Conditions <= 3.5\ngini = 0.444\nsamples = 3\nvalue = [2, 1]\nclass = 0", fillcolor="#f2c09c"] ;
683 -> 685 ;
686 [label="gini = 0.0\nsamples = 1\nvalue = [1, 0]\nclass = 0", fillcolor="#e58139"] ;
685 -> 686 ;
687 [label="gini = 0.5\nsamples = 2\nvalue = [1, 1]\nclass = 0", fillcolor="#ffffff"] ;
685 -> 687 ;
688 [label="gini = 0.0\nsamples = 5\nvalue = [0, 5]\nclass = 1", fillcolor="#399de5"] ;
682 -> 688 ;
689 [label="Nutritional Deficiencies  <= 1.5\ngini = 0.375\nsamples = 8\nvalue = [6, 2]\nclass = 0", fillcolor="#eeab7b"] ;
663 -> 689 ;
690 [label="gini = 0.0\nsamples = 1\nvalue = [0, 1]\nclass = 1", fillcolor="#399de5"] ;
689 -> 690 ;
691 [label="Nutritional Deficiencies  <= 4.5\ngini = 0.245\nsamples = 7\nvalue = [6, 1]\nclass = 0", fillcolor="#e9965a"] ;
689 -> 691 ;
692 [label="gini = 0.0\nsamples = 2\nvalue = [2, 0]\nclass = 0", fillcolor="#e58139"] ;
691 -> 692 ;
693 [label="Nutritional Deficiencies  <= 5.5\ngini = 0.32\nsamples = 5\nvalue = [4, 1]\nclass = 0", fillcolor="#eca06a"] ;
691 -> 693 ;
694 [label="gini = 0.375\nsamples = 4\nvalue = [3, 1]\nclass = 0", fillcolor="#eeab7b"] ;
693 -> 694 ;
695 [label="gini = 0.0\nsamples = 1\nvalue = [1, 0]\nclass = 0", fillcolor="#e58139"] ;
693 -> 695 ;
696 [label="Medical Conditions <= 4.5\ngini = 0.332\nsamples = 19\nvalue = [15, 4]\nclass = 0", fillcolor="#eca36e"] ;
660 -> 696 ;
697 [label="Medical Conditions <= 2.5\ngini = 0.444\nsamples = 9\nvalue = [6, 3]\nclass = 0", fillcolor="#f2c09c"] ;
696 -> 697 ;
698 [label="gini = 0.0\nsamples = 2\nvalue = [2, 0]\nclass = 0", fillcolor="#e58139"] ;
697 -> 698 ;
699 [label="Nutritional Deficiencies  <= 9.5\ngini = 0.49\nsamples = 7\nvalue = [4, 3]\nclass = 0", fillcolor="#f8e0ce"] ;
697 -> 699 ;
700 [label="Nutritional Deficiencies  <= 8.5\ngini = 0.444\nsamples = 6\nvalue = [4, 2]\nclass = 0", fillcolor="#f2c09c"] ;
699 -> 700 ;
701 [label="Medical Conditions <= 3.5\ngini = 0.5\nsamples = 2\nvalue = [1, 1]\nclass = 0", fillcolor="#ffffff"] ;
700 -> 701 ;
702 [label="gini = 0.0\nsamples = 1\nvalue = [1, 0]\nclass = 0", fillcolor="#e58139"] ;
701 -> 702 ;
703 [label="gini = 0.0\nsamples = 1\nvalue = [0, 1]\nclass = 1", fillcolor="#399de5"] ;
701 -> 703 ;
704 [label="Medical Conditions <= 3.5\ngini = 0.375\nsamples = 4\nvalue = [3, 1]\nclass = 0", fillcolor="#eeab7b"] ;
700 -> 704 ;
705 [label="gini = 0.444\nsamples = 3\nvalue = [2, 1]\nclass = 0", fillcolor="#f2c09c"] ;
704 -> 705 ;
706 [label="gini = 0.0\nsamples = 1\nvalue = [1, 0]\nclass = 0", fillcolor="#e58139"] ;
704 -> 706 ;
707 [label="gini = 0.0\nsamples = 1\nvalue = [0, 1]\nclass = 1", fillcolor="#399de5"] ;
699 -> 707 ;
708 [label="Nutritional Deficiencies  <= 7.5\ngini = 0.18\nsamples = 10\nvalue = [9, 1]\nclass = 0", fillcolor="#e88f4f"] ;
696 -> 708 ;
709 [label="Medical Conditions <= 7.5\ngini = 0.444\nsamples = 3\nvalue = [2, 1]\nclass = 0", fillcolor="#f2c09c"] ;
708 -> 709 ;
710 [label="gini = 0.0\nsamples = 2\nvalue = [2, 0]\nclass = 0", fillcolor="#e58139"] ;
709 -> 710 ;
711 [label="gini = 0.0\nsamples = 1\nvalue = [0, 1]\nclass = 1", fillcolor="#399de5"] ;
709 -> 711 ;
712 [label="gini = 0.0\nsamples = 7\nvalue = [7, 0]\nclass = 0", fillcolor="#e58139"] ;
708 -> 712 ;
713 [label="Nutritional Deficiencies  <= 9.5\ngini = 0.499\nsamples = 55\nvalue = [26, 29]\nclass = 1", fillcolor="#ebf5fc"] ;
659 -> 713 ;
714 [label="Medical Conditions <= 3.5\ngini = 0.5\nsamples = 49\nvalue = [25, 24]\nclass = 0", fillcolor="#fefaf7"] ;
713 -> 714 ;
715 [label="Nutritional Deficiencies  <= 6.0\ngini = 0.426\nsamples = 13\nvalue = [9, 4]\nclass = 0", fillcolor="#f1b991"] ;
714 -> 715 ;
716 [label="Nutritional Deficiencies  <= 3.0\ngini = 0.245\nsamples = 7\nvalue = [6, 1]\nclass = 0", fillcolor="#e9965a"] ;
715 -> 716 ;
717 [label="gini = 0.0\nsamples = 3\nvalue = [3, 0]\nclass = 0", fillcolor="#e58139"] ;
716 -> 717 ;
718 [label="Nutritional Deficiencies  <= 4.5\ngini = 0.375\nsamples = 4\nvalue = [3, 1]\nclass = 0", fillcolor="#eeab7b"] ;
716 -> 718 ;
719 [label="gini = 0.444\nsamples = 3\nvalue = [2, 1]\nclass = 0", fillcolor="#f2c09c"] ;
718 -> 719 ;
720 [label="gini = 0.0\nsamples = 1\nvalue = [1, 0]\nclass = 0", fillcolor="#e58139"] ;
718 -> 720 ;
721 [label="Medical Conditions <= 2.5\ngini = 0.5\nsamples = 6\nvalue = [3, 3]\nclass = 0", fillcolor="#ffffff"] ;
715 -> 721 ;
722 [label="gini = 0.0\nsamples = 2\nvalue = [0, 2]\nclass = 1", fillcolor="#399de5"] ;
721 -> 722 ;
723 [label="Nutritional Deficiencies  <= 7.5\ngini = 0.375\nsamples = 4\nvalue = [3, 1]\nclass = 0", fillcolor="#eeab7b"] ;
721 -> 723 ;
724 [label="gini = 0.0\nsamples = 1\nvalue = [0, 1]\nclass = 1", fillcolor="#399de5"] ;
723 -> 724 ;
725 [label="gini = 0.0\nsamples = 3\nvalue = [3, 0]\nclass = 0", fillcolor="#e58139"] ;
723 -> 725 ;
726 [label="Nutritional Deficiencies  <= 5.5\ngini = 0.494\nsamples = 36\nvalue = [16, 20]\nclass = 1", fillcolor="#d7ebfa"] ;
714 -> 726 ;
727 [label="Nutritional Deficiencies  <= 1.5\ngini = 0.48\nsamples = 25\nvalue = [10, 15]\nclass = 1", fillcolor="#bddef6"] ;
726 -> 727 ;
728 [label="Medical Conditions <= 5.5\ngini = 0.49\nsamples = 7\nvalue = [4, 3]\nclass = 0", fillcolor="#f8e0ce"] ;
727 -> 728 ;
729 [label="gini = 0.0\nsamples = 2\nvalue = [2, 0]\nclass = 0", fillcolor="#e58139"] ;
728 -> 729 ;
730 [label="Medical Conditions <= 6.5\ngini = 0.48\nsamples = 5\nvalue = [2, 3]\nclass = 1", fillcolor="#bddef6"] ;
728 -> 730 ;
731 [label="gini = 0.5\nsamples = 2\nvalue = [1, 1]\nclass = 0", fillcolor="#ffffff"] ;
730 -> 731 ;
732 [label="Medical Conditions <= 7.5\ngini = 0.444\nsamples = 3\nvalue = [1, 2]\nclass = 1", fillcolor="#9ccef2"] ;
730 -> 732 ;
733 [label="gini = 0.0\nsamples = 1\nvalue = [0, 1]\nclass = 1", fillcolor="#399de5"] ;
732 -> 733 ;
734 [label="gini = 0.5\nsamples = 2\nvalue = [1, 1]\nclass = 0", fillcolor="#ffffff"] ;
732 -> 734 ;
735 [label="Medical Conditions <= 6.5\ngini = 0.444\nsamples = 18\nvalue = [6, 12]\nclass = 1", fillcolor="#9ccef2"] ;
727 -> 735 ;
736 [label="Nutritional Deficiencies  <= 3.5\ngini = 0.355\nsamples = 13\nvalue = [3, 10]\nclass = 1", fillcolor="#74baed"] ;
735 -> 736 ;
737 [label="Medical Conditions <= 4.5\ngini = 0.469\nsamples = 8\nvalue = [3, 5]\nclass = 1", fillcolor="#b0d8f5"] ;
736 -> 737 ;
738 [label="gini = 0.0\nsamples = 1\nvalue = [0, 1]\nclass = 1", fillcolor="#399de5"] ;
737 -> 738 ;
739 [label="Nutritional Deficiencies  <= 2.5\ngini = 0.49\nsamples = 7\nvalue = [3, 4]\nclass = 1", fillcolor="#cee6f8"] ;
737 -> 739 ;
740 [label="Medical Conditions <= 5.5\ngini = 0.5\nsamples = 4\nvalue = [2, 2]\nclass = 0", fillcolor="#ffffff"] ;
739 -> 740 ;
741 [label="gini = 0.5\nsamples = 2\nvalue = [1, 1]\nclass = 0", fillcolor="#ffffff"] ;
740 -> 741 ;
742 [label="gini = 0.5\nsamples = 2\nvalue = [1, 1]\nclass = 0", fillcolor="#ffffff"] ;
740 -> 742 ;
743 [label="gini = 0.444\nsamples = 3\nvalue = [1, 2]\nclass = 1", fillcolor="#9ccef2"] ;
739 -> 743 ;
744 [label="gini = 0.0\nsamples = 5\nvalue = [0, 5]\nclass = 1", fillcolor="#399de5"] ;
736 -> 744 ;
745 [label="Nutritional Deficiencies  <= 3.5\ngini = 0.48\nsamples = 5\nvalue = [3, 2]\nclass = 0", fillcolor="#f6d5bd"] ;
735 -> 745 ;
746 [label="gini = 0.0\nsamples = 2\nvalue = [0, 2]\nclass = 1", fillcolor="#399de5"] ;
745 -> 746 ;
747 [label="gini = 0.0\nsamples = 3\nvalue = [3, 0]\nclass = 0", fillcolor="#e58139"] ;
745 -> 747 ;
748 [label="Medical Conditions <= 7.5\ngini = 0.496\nsamples = 11\nvalue = [6, 5]\nclass = 0", fillcolor="#fbeade"] ;
726 -> 748 ;
749 [label="Medical Conditions <= 6.5\ngini = 0.48\nsamples = 10\nvalue = [6, 4]\nclass = 0", fillcolor="#f6d5bd"] ;
748 -> 749 ;
750 [label="Medical Conditions <= 5.5\ngini = 0.5\nsamples = 8\nvalue = [4, 4]\nclass = 0", fillcolor="#ffffff"] ;
749 -> 750 ;
751 [label="Nutritional Deficiencies  <= 6.5\ngini = 0.444\nsamples = 6\nvalue = [4, 2]\nclass = 0", fillcolor="#f2c09c"] ;
750 -> 751 ;
752 [label="gini = 0.0\nsamples = 1\nvalue = [0, 1]\nclass = 1", fillcolor="#399de5"] ;
751 -> 752 ;
753 [label="Nutritional Deficiencies  <= 8.5\ngini = 0.32\nsamples = 5\nvalue = [4, 1]\nclass = 0", fillcolor="#eca06a"] ;
751 -> 753 ;
754 [label="gini = 0.0\nsamples = 2\nvalue = [2, 0]\nclass = 0", fillcolor="#e58139"] ;
753 -> 754 ;
755 [label="gini = 0.444\nsamples = 3\nvalue = [2, 1]\nclass = 0", fillcolor="#f2c09c"] ;
753 -> 755 ;
756 [label="gini = 0.0\nsamples = 2\nvalue = [0, 2]\nclass = 1", fillcolor="#399de5"] ;
750 -> 756 ;
757 [label="gini = 0.0\nsamples = 2\nvalue = [2, 0]\nclass = 0", fillcolor="#e58139"] ;
749 -> 757 ;
758 [label="gini = 0.0\nsamples = 1\nvalue = [0, 1]\nclass = 1", fillcolor="#399de5"] ;
748 -> 758 ;
759 [label="Medical Conditions <= 5.0\ngini = 0.278\nsamples = 6\nvalue = [1, 5]\nclass = 1", fillcolor="#61b1ea"] ;
713 -> 759 ;
760 [label="Medical Conditions <= 3.5\ngini = 0.444\nsamples = 3\nvalue = [1, 2]\nclass = 1", fillcolor="#9ccef2"] ;
759 -> 760 ;
761 [label="gini = 0.0\nsamples = 1\nvalue = [0, 1]\nclass = 1", fillcolor="#399de5"] ;
760 -> 761 ;
762 [label="gini = 0.5\nsamples = 2\nvalue = [1, 1]\nclass = 0", fillcolor="#ffffff"] ;
760 -> 762 ;
763 [label="gini = 0.0\nsamples = 3\nvalue = [0, 3]\nclass = 1", fillcolor="#399de5"] ;
759 -> 763 ;
764 [label="Medications & Treatments <= 9.5\ngini = 0.422\nsamples = 33\nvalue = [10, 23]\nclass = 1", fillcolor="#8fc8f0"] ;
658 -> 764 ;
765 [label="Nutritional Deficiencies  <= 1.5\ngini = 0.291\nsamples = 17\nvalue = [3, 14]\nclass = 1", fillcolor="#63b2eb"] ;
764 -> 765 ;
766 [label="Nutritional Deficiencies  <= 0.5\ngini = 0.5\nsamples = 4\nvalue = [2, 2]\nclass = 0", fillcolor="#ffffff"] ;
765 -> 766 ;
767 [label="gini = 0.0\nsamples = 2\nvalue = [0, 2]\nclass = 1", fillcolor="#399de5"] ;
766 -> 767 ;
768 [label="gini = 0.0\nsamples = 2\nvalue = [2, 0]\nclass = 0", fillcolor="#e58139"] ;
766 -> 768 ;
769 [label="Medical Conditions <= 9.5\ngini = 0.142\nsamples = 13\nvalue = [1, 12]\nclass = 1", fillcolor="#49a5e7"] ;
765 -> 769 ;
770 [label="Nutritional Deficiencies  <= 3.5\ngini = 0.245\nsamples = 7\nvalue = [1, 6]\nclass = 1", fillcolor="#5aade9"] ;
769 -> 770 ;
771 [label="gini = 0.0\nsamples = 3\nvalue = [0, 3]\nclass = 1", fillcolor="#399de5"] ;
770 -> 771 ;
772 [label="Nutritional Deficiencies  <= 5.0\ngini = 0.375\nsamples = 4\nvalue = [1, 3]\nclass = 1", fillcolor="#7bbeee"] ;
770 -> 772 ;
773 [label="gini = 0.5\nsamples = 2\nvalue = [1, 1]\nclass = 0", fillcolor="#ffffff"] ;
772 -> 773 ;
774 [label="gini = 0.0\nsamples = 2\nvalue = [0, 2]\nclass = 1", fillcolor="#399de5"] ;
772 -> 774 ;
775 [label="gini = 0.0\nsamples = 6\nvalue = [0, 6]\nclass = 1", fillcolor="#399de5"] ;
769 -> 775 ;
776 [label="Nutritional Deficiencies  <= 3.0\ngini = 0.492\nsamples = 16\nvalue = [7, 9]\nclass = 1", fillcolor="#d3e9f9"] ;
764 -> 776 ;
777 [label="Nutritional Deficiencies  <= 1.5\ngini = 0.245\nsamples = 7\nvalue = [1, 6]\nclass = 1", fillcolor="#5aade9"] ;
776 -> 777 ;
778 [label="gini = 0.0\nsamples = 4\nvalue = [0, 4]\nclass = 1", fillcolor="#399de5"] ;
777 -> 778 ;
779 [label="gini = 0.444\nsamples = 3\nvalue = [1, 2]\nclass = 1", fillcolor="#9ccef2"] ;
777 -> 779 ;
780 [label="Nutritional Deficiencies  <= 5.0\ngini = 0.444\nsamples = 9\nvalue = [6, 3]\nclass = 0", fillcolor="#f2c09c"] ;
776 -> 780 ;
781 [label="gini = 0.0\nsamples = 1\nvalue = [1, 0]\nclass = 0", fillcolor="#e58139"] ;
780 -> 781 ;
782 [label="Nutritional Deficiencies  <= 6.5\ngini = 0.469\nsamples = 8\nvalue = [5, 3]\nclass = 0", fillcolor="#f5cdb0"] ;
780 -> 782 ;
783 [label="gini = 0.0\nsamples = 1\nvalue = [0, 1]\nclass = 1", fillcolor="#399de5"] ;
782 -> 783 ;
784 [label="Medical Conditions <= 9.5\ngini = 0.408\nsamples = 7\nvalue = [5, 2]\nclass = 0", fillcolor="#efb388"] ;
782 -> 784 ;
785 [label="Nutritional Deficiencies  <= 9.5\ngini = 0.48\nsamples = 5\nvalue = [3, 2]\nclass = 0", fillcolor="#f6d5bd"] ;
784 -> 785 ;
786 [label="Nutritional Deficiencies  <= 8.5\ngini = 0.5\nsamples = 4\nvalue = [2, 2]\nclass = 0", fillcolor="#ffffff"] ;
785 -> 786 ;
787 [label="gini = 0.5\nsamples = 2\nvalue = [1, 1]\nclass = 0", fillcolor="#ffffff"] ;
786 -> 787 ;
788 [label="gini = 0.5\nsamples = 2\nvalue = [1, 1]\nclass = 0", fillcolor="#ffffff"] ;
786 -> 788 ;
789 [label="gini = 0.0\nsamples = 1\nvalue = [1, 0]\nclass = 0", fillcolor="#e58139"] ;
785 -> 789 ;
790 [label="gini = 0.0\nsamples = 2\nvalue = [2, 0]\nclass = 0", fillcolor="#e58139"] ;
784 -> 790 ;
}