digraph Tree {
node [shape=box, style="filled", color="black", fontname="helvetica"] ;
edge [fontname="helvetica"] ;
0 [label="hypertension <= 0.5\ngini = 0.499\nsamples = 29684\nvalue = [15319, 14365]\nclass = 1", fillcolor="#fdf7f3"] ;
1 [label="heart_disease <= 0.5\ngini = 0.489\nsamples = 23888\nvalue = [13752, 10136]\nclass = 1", fillcolor="#f8decb"] ;
0 -> 1 [labeldistance=2.5, labelangle=45, headlabel="True"] ;
2 [label="ever_married <= 0.5\ngini = 0.473\nsamples = 21277\nvalue = [13122, 8155]\nclass = 1", fillcolor="#f5cfb4"] ;
1 -> 2 ;
3 [label="avg_glucose_level <= 104.88\ngini = 0.287\nsamples = 4436\nvalue = [3666, 770]\nclass = 1", fillcolor="#ea9b63"] ;
2 -> 3 ;
4 [label="bmi <= 22.75\ngini = 0.346\nsamples = 3454\nvalue = [2684, 770]\nclass = 1", fillcolor="#eca572"] ;
3 -> 4 ;
5 [label="gini = 0.0\nsamples = 699\nvalue = [699, 0]\nclass = 1", fillcolor="#e58139"] ;
4 -> 5 ;
6 [label="bmi <= 22.95\ngini = 0.403\nsamples = 2755\nvalue = [1985, 770]\nclass = 1", fillcolor="#efb286"] ;
4 -> 6 ;
7 [label="avg_glucose_level <= 85.025\ngini = 0.27\nsamples = 224\nvalue = [36, 188]\nclass = 0", fillcolor="#5fb0ea"] ;
6 -> 7 ;
8 [label="gini = 0.0\nsamples = 23\nvalue = [23, 0]\nclass = 1", fillcolor="#e58139"] ;
7 -> 8 ;
9 [label="avg_glucose_level <= 94.85\ngini = 0.121\nsamples = 201\nvalue = [13, 188]\nclass = 0", fillcolor="#47a4e7"] ;
7 -> 9 ;
10 [label="gini = 0.0\nsamples = 188\nvalue = [0, 188]\nclass = 0", fillcolor="#399de5"] ;
9 -> 10 ;
11 [label="gini = 0.0\nsamples = 13\nvalue = [13, 0]\nclass = 1", fillcolor="#e58139"] ;
9 -> 11 ;
12 [label="work_type <= 3.5\ngini = 0.354\nsamples = 2531\nvalue = [1949, 582]\nclass = 1", fillcolor="#eda774"] ;
6 -> 12 ;
13 [label="Residence_type <= 0.5\ngini = 0.496\nsamples = 956\nvalue = [523, 433]\nclass = 1", fillcolor="#fbe9dd"] ;
12 -> 13 ;
14 [label="gini = 0.0\nsamples = 268\nvalue = [268, 0]\nclass = 1", fillcolor="#e58139"] ;
13 -> 14 ;
15 [label="avg_glucose_level <= 90.2\ngini = 0.467\nsamples = 688\nvalue = [255, 433]\nclass = 0", fillcolor="#aed7f4"] ;
13 -> 15 ;
16 [label="avg_glucose_level <= 66.93\ngini = 0.419\nsamples = 617\nvalue = [184, 433]\nclass = 0", fillcolor="#8dc7f0"] ;
15 -> 16 ;
17 [label="gini = 0.0\nsamples = 45\nvalue = [45, 0]\nclass = 1", fillcolor="#e58139"] ;
16 -> 17 ;
18 [label="work_type <= 1.5\ngini = 0.368\nsamples = 572\nvalue = [139, 433]\nclass = 0", fillcolor="#79bced"] ;
16 -> 18 ;
19 [label="gini = 0.0\nsamples = 34\nvalue = [34, 0]\nclass = 1", fillcolor="#e58139"] ;
18 -> 19 ;
20 [label="bmi <= 23.7\ngini = 0.314\nsamples = 538\nvalue = [105, 433]\nclass = 0", fillcolor="#69b5eb"] ;
18 -> 20 ;
21 [label="gini = 0.0\nsamples = 12\nvalue = [12, 0]\nclass = 1", fillcolor="#e58139"] ;
20 -> 21 ;
22 [label="avg_glucose_level <= 71.15\ngini = 0.291\nsamples = 526\nvalue = [93, 433]\nclass = 0", fillcolor="#64b2eb"] ;
20 -> 22 ;
23 [label="gini = 0.0\nsamples = 172\nvalue = [0, 172]\nclass = 0", fillcolor="#399de5"] ;
22 -> 23 ;
24 [label="avg_glucose_level <= 82.245\ngini = 0.387\nsamples = 354\nvalue = [93, 261]\nclass = 0", fillcolor="#80c0ee"] ;
22 -> 24 ;
25 [label="gini = 0.0\nsamples = 50\nvalue = [50, 0]\nclass = 1", fillcolor="#e58139"] ;
24 -> 25 ;
26 [label="bmi <= 29.85\ngini = 0.243\nsamples = 304\nvalue = [43, 261]\nclass = 0", fillcolor="#5aade9"] ;
24 -> 26 ;
27 [label="avg_glucose_level <= 89.33\ngini = 0.185\nsamples = 291\nvalue = [30, 261]\nclass = 0", fillcolor="#50a8e8"] ;
26 -> 27 ;
28 [label="avg_glucose_level <= 84.33\ngini = 0.259\nsamples = 196\nvalue = [30, 166]\nclass = 0", fillcolor="#5dafea"] ;
27 -> 28 ;
29 [label="avg_glucose_level <= 84.13\ngini = 0.107\nsamples = 176\nvalue = [10, 166]\nclass = 0", fillcolor="#45a3e7"] ;
28 -> 29 ;
30 [label="avg_glucose_level <= 82.94\ngini = 0.203\nsamples = 87\nvalue = [10, 77]\nclass = 0", fillcolor="#53aae8"] ;
29 -> 30 ;
31 [label="gini = 0.0\nsamples = 77\nvalue = [0, 77]\nclass = 0", fillcolor="#399de5"] ;
30 -> 31 ;
32 [label="gini = 0.0\nsamples = 10\nvalue = [10, 0]\nclass = 1", fillcolor="#e58139"] ;
30 -> 32 ;
33 [label="gini = 0.0\nsamples = 89\nvalue = [0, 89]\nclass = 0", fillcolor="#399de5"] ;
29 -> 33 ;
34 [label="gini = 0.0\nsamples = 20\nvalue = [20, 0]\nclass = 1", fillcolor="#e58139"] ;
28 -> 34 ;
35 [label="gini = 0.0\nsamples = 95\nvalue = [0, 95]\nclass = 0", fillcolor="#399de5"] ;
27 -> 35 ;
36 [label="gini = 0.0\nsamples = 13\nvalue = [13, 0]\nclass = 1", fillcolor="#e58139"] ;
26 -> 36 ;
37 [label="gini = 0.0\nsamples = 71\nvalue = [71, 0]\nclass = 1", fillcolor="#e58139"] ;
15 -> 37 ;
38 [label="avg_glucose_level <= 104.535\ngini = 0.171\nsamples = 1575\nvalue = [1426, 149]\nclass = 1", fillcolor="#e88e4e"] ;
12 -> 38 ;
39 [label="bmi <= 37.7\ngini = 0.093\nsamples = 1499\nvalue = [1426, 73]\nclass = 1", fillcolor="#e68743"] ;
38 -> 39 ;
40 [label="gini = 0.0\nsamples = 1301\nvalue = [1301, 0]\nclass = 1", fillcolor="#e58139"] ;
39 -> 40 ;
41 [label="bmi <= 37.9\ngini = 0.466\nsamples = 198\nvalue = [125, 73]\nclass = 1", fillcolor="#f4cbad"] ;
39 -> 41 ;
42 [label="Residence_type <= 0.5\ngini = 0.098\nsamples = 77\nvalue = [4, 73]\nclass = 0", fillcolor="#44a2e6"] ;
41 -> 42 ;
43 [label="gini = 0.0\nsamples = 4\nvalue = [4, 0]\nclass = 1", fillcolor="#e58139"] ;
42 -> 43 ;
44 [label="gini = 0.0\nsamples = 73\nvalue = [0, 73]\nclass = 0", fillcolor="#399de5"] ;
42 -> 44 ;
45 [label="gini = 0.0\nsamples = 121\nvalue = [121, 0]\nclass = 1", fillcolor="#e58139"] ;
41 -> 45 ;
46 [label="gini = 0.0\nsamples = 76\nvalue = [0, 76]\nclass = 0", fillcolor="#399de5"] ;
38 -> 46 ;
47 [label="gini = 0.0\nsamples = 982\nvalue = [982, 0]\nclass = 1", fillcolor="#e58139"] ;
3 -> 47 ;
48 [label="avg_glucose_level <= 161.855\ngini = 0.492\nsamples = 16841\nvalue = [9456, 7385]\nclass = 1", fillcolor="#f9e3d4"] ;
2 -> 48 ;
49 [label="bmi <= 34.45\ngini = 0.479\nsamples = 14104\nvalue = [8502, 5602]\nclass = 1", fillcolor="#f6d4bb"] ;
48 -> 49 ;
50 [label="avg_glucose_level <= 70.925\ngini = 0.491\nsamples = 12137\nvalue = [6866, 5271]\nclass = 1", fillcolor="#f9e2d1"] ;
49 -> 50 ;
51 [label="work_type <= 3.5\ngini = 0.367\nsamples = 1783\nvalue = [1351, 432]\nclass = 1", fillcolor="#eda978"] ;
50 -> 51 ;
52 [label="gini = 0.0\nsamples = 536\nvalue = [536, 0]\nclass = 1", fillcolor="#e58139"] ;
51 -> 52 ;
53 [label="bmi <= 24.55\ngini = 0.453\nsamples = 1247\nvalue = [815, 432]\nclass = 1", fillcolor="#f3c4a2"] ;
51 -> 53 ;
54 [label="gini = 0.0\nsamples = 215\nvalue = [215, 0]\nclass = 1", fillcolor="#e58139"] ;
53 -> 54 ;
55 [label="avg_glucose_level <= 59.185\ngini = 0.487\nsamples = 1032\nvalue = [600, 432]\nclass = 1", fillcolor="#f8dcc8"] ;
53 -> 55 ;
56 [label="gini = 0.0\nsamples = 161\nvalue = [161, 0]\nclass = 1", fillcolor="#e58139"] ;
55 -> 56 ;
57 [label="avg_glucose_level <= 59.865\ngini = 0.5\nsamples = 871\nvalue = [439, 432]\nclass = 1", fillcolor="#fffdfc"] ;
55 -> 57 ;
58 [label="Residence_type <= 0.5\ngini = 0.17\nsamples = 181\nvalue = [17, 164]\nclass = 0", fillcolor="#4ea7e8"] ;
57 -> 58 ;
59 [label="gini = 0.0\nsamples = 164\nvalue = [0, 164]\nclass = 0", fillcolor="#399de5"] ;
58 -> 59 ;
60 [label="gini = 0.0\nsamples = 17\nvalue = [17, 0]\nclass = 1", fillcolor="#e58139"] ;
58 -> 60 ;
61 [label="smoking_status <= 0.5\ngini = 0.475\nsamples = 690\nvalue = [422, 268]\nclass = 1", fillcolor="#f6d1b7"] ;
57 -> 61 ;
62 [label="bmi <= 29.95\ngini = 0.495\nsamples = 488\nvalue = [220, 268]\nclass = 0", fillcolor="#dcedfa"] ;
61 -> 62 ;
63 [label="bmi <= 29.35\ngini = 0.427\nsamples = 388\nvalue = [120, 268]\nclass = 0", fillcolor="#92c9f1"] ;
62 -> 63 ;
64 [label="bmi <= 24.8\ngini = 0.499\nsamples = 208\nvalue = [109, 99]\nclass = 1", fillcolor="#fdf3ed"] ;
63 -> 64 ;
65 [label="gini = 0.0\nsamples = 99\nvalue = [0, 99]\nclass = 0", fillcolor="#399de5"] ;
64 -> 65 ;
66 [label="gini = 0.0\nsamples = 109\nvalue = [109, 0]\nclass = 1", fillcolor="#e58139"] ;
64 -> 66 ;
67 [label="avg_glucose_level <= 63.96\ngini = 0.115\nsamples = 180\nvalue = [11, 169]\nclass = 0", fillcolor="#46a3e7"] ;
63 -> 67 ;
68 [label="Residence_type <= 0.5\ngini = 0.223\nsamples = 86\nvalue = [11, 75]\nclass = 0", fillcolor="#56abe9"] ;
67 -> 68 ;
69 [label="gini = 0.0\nsamples = 11\nvalue = [11, 0]\nclass = 1", fillcolor="#e58139"] ;
68 -> 69 ;
70 [label="gini = 0.0\nsamples = 75\nvalue = [0, 75]\nclass = 0", fillcolor="#399de5"] ;
68 -> 70 ;
71 [label="gini = 0.0\nsamples = 94\nvalue = [0, 94]\nclass = 0", fillcolor="#399de5"] ;
67 -> 71 ;
72 [label="gini = 0.0\nsamples = 100\nvalue = [100, 0]\nclass = 1", fillcolor="#e58139"] ;
62 -> 72 ;
73 [label="gini = 0.0\nsamples = 202\nvalue = [202, 0]\nclass = 1", fillcolor="#e58139"] ;
61 -> 73 ;
74 [label="avg_glucose_level <= 78.825\ngini = 0.498\nsamples = 10354\nvalue = [5515, 4839]\nclass = 1", fillcolor="#fcf0e7"] ;
50 -> 74 ;
75 [label="work_type <= 2.5\ngini = 0.461\nsamples = 2248\nvalue = [809, 1439]\nclass = 0", fillcolor="#a8d4f4"] ;
74 -> 75 ;
76 [label="gini = 0.0\nsamples = 126\nvalue = [126, 0]\nclass = 1", fillcolor="#e58139"] ;
75 -> 76 ;
77 [label="bmi <= 34.0\ngini = 0.437\nsamples = 2122\nvalue = [683, 1439]\nclass = 0", fillcolor="#97ccf1"] ;
75 -> 77 ;
78 [label="bmi <= 31.35\ngini = 0.459\nsamples = 1907\nvalue = [680, 1227]\nclass = 0", fillcolor="#a7d3f3"] ;
77 -> 78 ;
79 [label="avg_glucose_level <= 71.21\ngini = 0.436\nsamples = 1806\nvalue = [579, 1227]\nclass = 0", fillcolor="#96cbf1"] ;
78 -> 79 ;
80 [label="gini = 0.0\nsamples = 48\nvalue = [48, 0]\nclass = 1", fillcolor="#e58139"] ;
79 -> 80 ;
81 [label="bmi <= 20.45\ngini = 0.422\nsamples = 1758\nvalue = [531, 1227]\nclass = 0", fillcolor="#8fc7f0"] ;
79 -> 81 ;
82 [label="gini = 0.0\nsamples = 36\nvalue = [36, 0]\nclass = 1", fillcolor="#e58139"] ;
81 -> 82 ;
83 [label="bmi <= 21.3\ngini = 0.41\nsamples = 1722\nvalue = [495, 1227]\nclass = 0", fillcolor="#89c5ef"] ;
81 -> 83 ;
84 [label="avg_glucose_level <= 73.555\ngini = 0.05\nsamples = 194\nvalue = [5, 189]\nclass = 0", fillcolor="#3ea0e6"] ;
83 -> 84 ;
85 [label="gini = 0.0\nsamples = 5\nvalue = [5, 0]\nclass = 1", fillcolor="#e58139"] ;
84 -> 85 ;
86 [label="gini = 0.0\nsamples = 189\nvalue = [0, 189]\nclass = 0", fillcolor="#399de5"] ;
84 -> 86 ;
87 [label="bmi <= 23.55\ngini = 0.436\nsamples = 1528\nvalue = [490, 1038]\nclass = 0", fillcolor="#96cbf1"] ;
83 -> 87 ;
88 [label="gini = 0.0\nsamples = 72\nvalue = [72, 0]\nclass = 1", fillcolor="#e58139"] ;
87 -> 88 ;
89 [label="avg_glucose_level <= 72.98\ngini = 0.409\nsamples = 1456\nvalue = [418, 1038]\nclass = 0", fillcolor="#89c4ef"] ;
87 -> 89 ;
90 [label="bmi <= 26.15\ngini = 0.257\nsamples = 463\nvalue = [70, 393]\nclass = 0", fillcolor="#5caeea"] ;
89 -> 90 ;
91 [label="gini = 0.0\nsamples = 26\nvalue = [26, 0]\nclass = 1", fillcolor="#e58139"] ;
90 -> 91 ;
92 [label="avg_glucose_level <= 72.67\ngini = 0.181\nsamples = 437\nvalue = [44, 393]\nclass = 0", fillcolor="#4fa8e8"] ;
90 -> 92 ;
93 [label="avg_glucose_level <= 71.31\ngini = 0.436\nsamples = 137\nvalue = [44, 93]\nclass = 0", fillcolor="#97cbf1"] ;
92 -> 93 ;
94 [label="gini = 0.0\nsamples = 93\nvalue = [0, 93]\nclass = 0", fillcolor="#399de5"] ;
93 -> 94 ;
95 [label="gini = 0.0\nsamples = 44\nvalue = [44, 0]\nclass = 1", fillcolor="#e58139"] ;
93 -> 95 ;
96 [label="gini = 0.0\nsamples = 300\nvalue = [0, 300]\nclass = 0", fillcolor="#399de5"] ;
92 -> 96 ;
97 [label="avg_glucose_level <= 74.91\ngini = 0.455\nsamples = 993\nvalue = [348, 645]\nclass = 0", fillcolor="#a4d2f3"] ;
89 -> 97 ;
98 [label="gini = 0.0\nsamples = 113\nvalue = [113, 0]\nclass = 1", fillcolor="#e58139"] ;
97 -> 98 ;
99 [label="work_type <= 3.5\ngini = 0.391\nsamples = 880\nvalue = [235, 645]\nclass = 0", fillcolor="#81c1ee"] ;
97 -> 99 ;
100 [label="bmi <= 29.55\ngini = 0.209\nsamples = 429\nvalue = [51, 378]\nclass = 0", fillcolor="#54aae9"] ;
99 -> 100 ;
101 [label="bmi <= 24.3\ngini = 0.144\nsamples = 410\nvalue = [32, 378]\nclass = 0", fillcolor="#4aa5e7"] ;
100 -> 101 ;
102 [label="gini = 0.0\nsamples = 5\nvalue = [5, 0]\nclass = 1", fillcolor="#e58139"] ;
101 -> 102 ;
103 [label="avg_glucose_level <= 76.27\ngini = 0.124\nsamples = 405\nvalue = [27, 378]\nclass = 0", fillcolor="#47a4e7"] ;
101 -> 103 ;
104 [label="avg_glucose_level <= 75.105\ngini = 0.236\nsamples = 117\nvalue = [16, 101]\nclass = 0", fillcolor="#58ade9"] ;
103 -> 104 ;
105 [label="gini = 0.0\nsamples = 101\nvalue = [0, 101]\nclass = 0", fillcolor="#399de5"] ;
104 -> 105 ;
106 [label="gini = 0.0\nsamples = 16\nvalue = [16, 0]\nclass = 1", fillcolor="#e58139"] ;
104 -> 106 ;
107 [label="smoking_status <= 0.5\ngini = 0.073\nsamples = 288\nvalue = [11, 277]\nclass = 0", fillcolor="#41a1e6"] ;
103 -> 107 ;
108 [label="gini = 0.0\nsamples = 5\nvalue = [5, 0]\nclass = 1", fillcolor="#e58139"] ;
107 -> 108 ;
109 [label="bmi <= 26.65\ngini = 0.042\nsamples = 283\nvalue = [6, 277]\nclass = 0", fillcolor="#3d9fe6"] ;
107 -> 109 ;
110 [label="Residence_type <= 0.5\ngini = 0.126\nsamples = 89\nvalue = [6, 83]\nclass = 0", fillcolor="#47a4e7"] ;
109 -> 110 ;
111 [label="gini = 0.0\nsamples = 83\nvalue = [0, 83]\nclass = 0", fillcolor="#399de5"] ;
110 -> 111 ;
112 [label="gini = 0.0\nsamples = 6\nvalue = [6, 0]\nclass = 1", fillcolor="#e58139"] ;
110 -> 112 ;
113 [label="gini = 0.0\nsamples = 194\nvalue = [0, 194]\nclass = 0", fillcolor="#399de5"] ;
109 -> 113 ;
114 [label="gini = 0.0\nsamples = 19\nvalue = [19, 0]\nclass = 1", fillcolor="#e58139"] ;
100 -> 114 ;
115 [label="avg_glucose_level <= 76.085\ngini = 0.483\nsamples = 451\nvalue = [184, 267]\nclass = 0", fillcolor="#c1e1f7"] ;
99 -> 115 ;
116 [label="gini = 0.0\nsamples = 70\nvalue = [70, 0]\nclass = 1", fillcolor="#e58139"] ;
115 -> 116 ;
117 [label="avg_glucose_level <= 78.235\ngini = 0.419\nsamples = 381\nvalue = [114, 267]\nclass = 0", fillcolor="#8ec7f0"] ;
115 -> 117 ;
118 [label="avg_glucose_level <= 78.01\ngini = 0.345\nsamples = 343\nvalue = [76, 267]\nclass = 0", fillcolor="#71b9ec"] ;
117 -> 118 ;
119 [label="avg_glucose_level <= 76.16\ngini = 0.499\nsamples = 157\nvalue = [76, 81]\nclass = 0", fillcolor="#f3f9fd"] ;
118 -> 119 ;
120 [label="gini = 0.0\nsamples = 81\nvalue = [0, 81]\nclass = 0", fillcolor="#399de5"] ;
119 -> 120 ;
121 [label="gini = 0.0\nsamples = 76\nvalue = [76, 0]\nclass = 1", fillcolor="#e58139"] ;
119 -> 121 ;
122 [label="gini = 0.0\nsamples = 186\nvalue = [0, 186]\nclass = 0", fillcolor="#399de5"] ;
118 -> 122 ;
123 [label="gini = 0.0\nsamples = 38\nvalue = [38, 0]\nclass = 1", fillcolor="#e58139"] ;
117 -> 123 ;
124 [label="gini = 0.0\nsamples = 101\nvalue = [101, 0]\nclass = 1", fillcolor="#e58139"] ;
78 -> 124 ;
125 [label="smoking_status <= 0.5\ngini = 0.028\nsamples = 215\nvalue = [3, 212]\nclass = 0", fillcolor="#3c9ee5"] ;
77 -> 125 ;
126 [label="gini = 0.0\nsamples = 212\nvalue = [0, 212]\nclass = 0", fillcolor="#399de5"] ;
125 -> 126 ;
127 [label="gini = 0.0\nsamples = 3\nvalue = [3, 0]\nclass = 1", fillcolor="#e58139"] ;
125 -> 127 ;
128 [label="avg_glucose_level <= 92.97\ngini = 0.487\nsamples = 8106\nvalue = [4706, 3400]\nclass = 1", fillcolor="#f8dcc8"] ;
74 -> 128 ;
129 [label="bmi <= 17.4\ngini = 0.419\nsamples = 2742\nvalue = [1924, 818]\nclass = 1", fillcolor="#f0b78d"] ;
128 -> 129 ;
130 [label="gini = 0.0\nsamples = 95\nvalue = [0, 95]\nclass = 0", fillcolor="#399de5"] ;
129 -> 130 ;
131 [label="bmi <= 29.45\ngini = 0.397\nsamples = 2647\nvalue = [1924, 723]\nclass = 1", fillcolor="#efb083"] ;
129 -> 131 ;
132 [label="avg_glucose_level <= 83.255\ngini = 0.295\nsamples = 1535\nvalue = [1259, 276]\nclass = 1", fillcolor="#eb9d64"] ;
131 -> 132 ;
133 [label="avg_glucose_level <= 82.745\ngini = 0.481\nsamples = 684\nvalue = [408, 276]\nclass = 1", fillcolor="#f7d6bf"] ;
132 -> 133 ;
134 [label="bmi <= 23.5\ngini = 0.366\nsamples = 468\nvalue = [355, 113]\nclass = 1", fillcolor="#eda978"] ;
133 -> 134 ;
135 [label="bmi <= 23.25\ngini = 0.472\nsamples = 183\nvalue = [70, 113]\nclass = 0", fillcolor="#b4daf5"] ;
134 -> 135 ;
136 [label="gini = 0.0\nsamples = 70\nvalue = [70, 0]\nclass = 1", fillcolor="#e58139"] ;
135 -> 136 ;
137 [label="gini = 0.0\nsamples = 113\nvalue = [0, 113]\nclass = 0", fillcolor="#399de5"] ;
135 -> 137 ;
138 [label="gini = 0.0\nsamples = 285\nvalue = [285, 0]\nclass = 1", fillcolor="#e58139"] ;
134 -> 138 ;
139 [label="bmi <= 26.05\ngini = 0.37\nsamples = 216\nvalue = [53, 163]\nclass = 0", fillcolor="#79bded"] ;
133 -> 139 ;
140 [label="gini = 0.0\nsamples = 42\nvalue = [42, 0]\nclass = 1", fillcolor="#e58139"] ;
139 -> 140 ;
141 [label="Residence_type <= 0.5\ngini = 0.118\nsamples = 174\nvalue = [11, 163]\nclass = 0", fillcolor="#46a4e7"] ;
139 -> 141 ;
142 [label="gini = 0.0\nsamples = 8\nvalue = [8, 0]\nclass = 1", fillcolor="#e58139"] ;
141 -> 142 ;
143 [label="smoking_status <= 0.5\ngini = 0.035\nsamples = 166\nvalue = [3, 163]\nclass = 0", fillcolor="#3d9fe5"] ;
141 -> 143 ;
144 [label="gini = 0.0\nsamples = 163\nvalue = [0, 163]\nclass = 0", fillcolor="#399de5"] ;
143 -> 144 ;
145 [label="gini = 0.0\nsamples = 3\nvalue = [3, 0]\nclass = 1", fillcolor="#e58139"] ;
143 -> 145 ;
146 [label="gini = 0.0\nsamples = 851\nvalue = [851, 0]\nclass = 1", fillcolor="#e58139"] ;
132 -> 146 ;
147 [label="avg_glucose_level <= 86.01\ngini = 0.481\nsamples = 1112\nvalue = [665, 447]\nclass = 1", fillcolor="#f6d6be"] ;
131 -> 147 ;
148 [label="gini = 0.0\nsamples = 390\nvalue = [390, 0]\nclass = 1", fillcolor="#e58139"] ;
147 -> 148 ;
149 [label="bmi <= 32.05\ngini = 0.472\nsamples = 722\nvalue = [275, 447]\nclass = 0", fillcolor="#b3d9f5"] ;
147 -> 149 ;
150 [label="Residence_type <= 0.5\ngini = 0.377\nsamples = 598\nvalue = [151, 447]\nclass = 0", fillcolor="#7cbeee"] ;
149 -> 150 ;
151 [label="avg_glucose_level <= 91.595\ngini = 0.241\nsamples = 422\nvalue = [59, 363]\nclass = 0", fillcolor="#59ade9"] ;
150 -> 151 ;
152 [label="bmi <= 31.05\ngini = 0.2\nsamples = 409\nvalue = [46, 363]\nclass = 0", fillcolor="#52a9e8"] ;
151 -> 152 ;
153 [label="bmi <= 29.8\ngini = 0.403\nsamples = 111\nvalue = [31, 80]\nclass = 0", fillcolor="#86c3ef"] ;
152 -> 153 ;
154 [label="smoking_status <= 0.5\ngini = 0.048\nsamples = 82\nvalue = [2, 80]\nclass = 0", fillcolor="#3e9fe6"] ;
153 -> 154 ;
155 [label="gini = 0.0\nsamples = 2\nvalue = [2, 0]\nclass = 1", fillcolor="#e58139"] ;
154 -> 155 ;
156 [label="gini = 0.0\nsamples = 80\nvalue = [0, 80]\nclass = 0", fillcolor="#399de5"] ;
154 -> 156 ;
157 [label="gini = 0.0\nsamples = 29\nvalue = [29, 0]\nclass = 1", fillcolor="#e58139"] ;
153 -> 157 ;
158 [label="work_type <= 3.5\ngini = 0.096\nsamples = 298\nvalue = [15, 283]\nclass = 0", fillcolor="#43a2e6"] ;
152 -> 158 ;
159 [label="gini = 0.0\nsamples = 283\nvalue = [0, 283]\nclass = 0", fillcolor="#399de5"] ;
158 -> 159 ;
160 [label="gini = 0.0\nsamples = 15\nvalue = [15, 0]\nclass = 1", fillcolor="#e58139"] ;
158 -> 160 ;
161 [label="gini = 0.0\nsamples = 13\nvalue = [13, 0]\nclass = 1", fillcolor="#e58139"] ;
151 -> 161 ;
162 [label="avg_glucose_level <= 86.235\ngini = 0.499\nsamples = 176\nvalue = [92, 84]\nclass = 1", fillcolor="#fdf4ee"] ;
150 -> 162 ;
163 [label="gini = 0.0\nsamples = 84\nvalue = [0, 84]\nclass = 0", fillcolor="#399de5"] ;
162 -> 163 ;
164 [label="gini = 0.0\nsamples = 92\nvalue = [92, 0]\nclass = 1", fillcolor="#e58139"] ;
162 -> 164 ;
165 [label="gini = 0.0\nsamples = 124\nvalue = [124, 0]\nclass = 1", fillcolor="#e58139"] ;
149 -> 165 ;
166 [label="bmi <= 21.45\ngini = 0.499\nsamples = 5364\nvalue = [2782, 2582]\nclass = 1", fillcolor="#fdf6f1"] ;
128 -> 166 ;
167 [label="gini = 0.0\nsamples = 233\nvalue = [233, 0]\nclass = 1", fillcolor="#e58139"] ;
166 -> 167 ;
168 [label="avg_glucose_level <= 93.095\ngini = 0.5\nsamples = 5131\nvalue = [2549, 2582]\nclass = 0", fillcolor="#fcfeff"] ;
166 -> 168 ;
169 [label="bmi <= 27.4\ngini = 0.094\nsamples = 203\nvalue = [10, 193]\nclass = 0", fillcolor="#43a2e6"] ;
168 -> 169 ;
170 [label="gini = 0.0\nsamples = 193\nvalue = [0, 193]\nclass = 0", fillcolor="#399de5"] ;
169 -> 170 ;
171 [label="gini = 0.0\nsamples = 10\nvalue = [10, 0]\nclass = 1", fillcolor="#e58139"] ;
169 -> 171 ;
172 [label="smoking_status <= 0.5\ngini = 0.5\nsamples = 4928\nvalue = [2539, 2389]\nclass = 1", fillcolor="#fdf8f3"] ;
168 -> 172 ;
173 [label="work_type <= 3.5\ngini = 0.46\nsamples = 2103\nvalue = [1349, 754]\nclass = 1", fillcolor="#f4c7a8"] ;
172 -> 173 ;
174 [label="avg_glucose_level <= 95.585\ngini = 0.489\nsamples = 1023\nvalue = [437, 586]\nclass = 0", fillcolor="#cde6f8"] ;
173 -> 174 ;
175 [label="gini = 0.0\nsamples = 89\nvalue = [89, 0]\nclass = 1", fillcolor="#e58139"] ;
174 -> 175 ;
176 [label="work_type <= 2.5\ngini = 0.468\nsamples = 934\nvalue = [348, 586]\nclass = 0", fillcolor="#afd7f4"] ;
174 -> 176 ;
177 [label="avg_glucose_level <= 131.355\ngini = 0.452\nsamples = 255\nvalue = [167, 88]\nclass = 1", fillcolor="#f3c3a1"] ;
176 -> 177 ;
178 [label="gini = 0.0\nsamples = 146\nvalue = [146, 0]\nclass = 1", fillcolor="#e58139"] ;
177 -> 178 ;
179 [label="avg_glucose_level <= 138.745\ngini = 0.311\nsamples = 109\nvalue = [21, 88]\nclass = 0", fillcolor="#68b4eb"] ;
177 -> 179 ;
180 [label="gini = 0.0\nsamples = 88\nvalue = [0, 88]\nclass = 0", fillcolor="#399de5"] ;
179 -> 180 ;
181 [label="gini = 0.0\nsamples = 21\nvalue = [21, 0]\nclass = 1", fillcolor="#e58139"] ;
179 -> 181 ;
182 [label="avg_glucose_level <= 116.385\ngini = 0.391\nsamples = 679\nvalue = [181, 498]\nclass = 0", fillcolor="#81c1ee"] ;
176 -> 182 ;
183 [label="avg_glucose_level <= 115.765\ngini = 0.282\nsamples = 600\nvalue = [102, 498]\nclass = 0", fillcolor="#62b1ea"] ;
182 -> 183 ;
184 [label="avg_glucose_level <= 109.77\ngini = 0.328\nsamples = 493\nvalue = [102, 391]\nclass = 0", fillcolor="#6db7ec"] ;
183 -> 184 ;
185 [label="avg_glucose_level <= 99.31\ngini = 0.225\nsamples = 449\nvalue = [58, 391]\nclass = 0", fillcolor="#56ace9"] ;
184 -> 185 ;
186 [label="avg_glucose_level <= 95.86\ngini = 0.423\nsamples = 138\nvalue = [42, 96]\nclass = 0", fillcolor="#90c8f0"] ;
185 -> 186 ;
187 [label="gini = 0.0\nsamples = 96\nvalue = [0, 96]\nclass = 0", fillcolor="#399de5"] ;
186 -> 187 ;
188 [label="gini = 0.0\nsamples = 42\nvalue = [42, 0]\nclass = 1", fillcolor="#e58139"] ;
186 -> 188 ;
189 [label="bmi <= 30.2\ngini = 0.098\nsamples = 311\nvalue = [16, 295]\nclass = 0", fillcolor="#44a2e6"] ;
185 -> 189 ;
190 [label="bmi <= 24.35\ngini = 0.216\nsamples = 130\nvalue = [16, 114]\nclass = 0", fillcolor="#55abe9"] ;
189 -> 190 ;
191 [label="gini = 0.0\nsamples = 114\nvalue = [0, 114]\nclass = 0", fillcolor="#399de5"] ;
190 -> 191 ;
192 [label="gini = 0.0\nsamples = 16\nvalue = [16, 0]\nclass = 1", fillcolor="#e58139"] ;
190 -> 192 ;
193 [label="gini = 0.0\nsamples = 181\nvalue = [0, 181]\nclass = 0", fillcolor="#399de5"] ;
189 -> 193 ;
194 [label="gini = 0.0\nsamples = 44\nvalue = [44, 0]\nclass = 1", fillcolor="#e58139"] ;
184 -> 194 ;
195 [label="gini = 0.0\nsamples = 107\nvalue = [0, 107]\nclass = 0", fillcolor="#399de5"] ;
183 -> 195 ;
196 [label="gini = 0.0\nsamples = 79\nvalue = [79, 0]\nclass = 1", fillcolor="#e58139"] ;
182 -> 196 ;
197 [label="avg_glucose_level <= 105.24\ngini = 0.263\nsamples = 1080\nvalue = [912, 168]\nclass = 1", fillcolor="#ea985d"] ;
173 -> 197 ;
198 [label="avg_glucose_level <= 105.07\ngini = 0.41\nsamples = 584\nvalue = [416, 168]\nclass = 1", fillcolor="#f0b489"] ;
197 -> 198 ;
199 [label="avg_glucose_level <= 96.725\ngini = 0.272\nsamples = 492\nvalue = [412, 80]\nclass = 1", fillcolor="#ea995f"] ;
198 -> 199 ;
200 [label="avg_glucose_level <= 96.415\ngini = 0.485\nsamples = 194\nvalue = [114, 80]\nclass = 1", fillcolor="#f7d9c4"] ;
199 -> 200 ;
201 [label="gini = 0.0\nsamples = 114\nvalue = [114, 0]\nclass = 1", fillcolor="#e58139"] ;
200 -> 201 ;
202 [label="gini = 0.0\nsamples = 80\nvalue = [0, 80]\nclass = 0", fillcolor="#399de5"] ;
200 -> 202 ;
203 [label="gini = 0.0\nsamples = 298\nvalue = [298, 0]\nclass = 1", fillcolor="#e58139"] ;
199 -> 203 ;
204 [label="Residence_type <= 0.5\ngini = 0.083\nsamples = 92\nvalue = [4, 88]\nclass = 0", fillcolor="#42a1e6"] ;
198 -> 204 ;
205 [label="gini = 0.0\nsamples = 4\nvalue = [4, 0]\nclass = 1", fillcolor="#e58139"] ;
204 -> 205 ;
206 [label="gini = 0.0\nsamples = 88\nvalue = [0, 88]\nclass = 0", fillcolor="#399de5"] ;
204 -> 206 ;
207 [label="gini = 0.0\nsamples = 496\nvalue = [496, 0]\nclass = 1", fillcolor="#e58139"] ;
197 -> 207 ;
208 [label="work_type <= 3.5\ngini = 0.488\nsamples = 2825\nvalue = [1190, 1635]\nclass = 0", fillcolor="#c9e4f8"] ;
172 -> 208 ;
209 [label="bmi <= 29.7\ngini = 0.47\nsamples = 707\nvalue = [440, 267]\nclass = 1", fillcolor="#f5cdb1"] ;
208 -> 209 ;
210 [label="bmi <= 29.5\ngini = 0.498\nsamples = 571\nvalue = [304, 267]\nclass = 1", fillcolor="#fcf0e7"] ;
209 -> 210 ;
211 [label="avg_glucose_level <= 130.955\ngini = 0.473\nsamples = 481\nvalue = [296, 185]\nclass = 1", fillcolor="#f5d0b5"] ;
210 -> 211 ;
212 [label="bmi <= 27.1\ngini = 0.366\nsamples = 361\nvalue = [274, 87]\nclass = 1", fillcolor="#eda978"] ;
211 -> 212 ;
213 [label="gini = 0.0\nsamples = 198\nvalue = [198, 0]\nclass = 1", fillcolor="#e58139"] ;
212 -> 213 ;
214 [label="bmi <= 27.4\ngini = 0.498\nsamples = 163\nvalue = [76, 87]\nclass = 0", fillcolor="#e6f3fc"] ;
212 -> 214 ;
215 [label="avg_glucose_level <= 105.995\ngini = 0.121\nsamples = 93\nvalue = [6, 87]\nclass = 0", fillcolor="#47a4e7"] ;
214 -> 215 ;
216 [label="gini = 0.0\nsamples = 87\nvalue = [0, 87]\nclass = 0", fillcolor="#399de5"] ;
215 -> 216 ;
217 [label="gini = 0.0\nsamples = 6\nvalue = [6, 0]\nclass = 1", fillcolor="#e58139"] ;
215 -> 217 ;
218 [label="gini = 0.0\nsamples = 70\nvalue = [70, 0]\nclass = 1", fillcolor="#e58139"] ;
214 -> 218 ;
219 [label="avg_glucose_level <= 135.0\ngini = 0.299\nsamples = 120\nvalue = [22, 98]\nclass = 0", fillcolor="#65b3eb"] ;
211 -> 219 ;
220 [label="gini = 0.0\nsamples = 98\nvalue = [0, 98]\nclass = 0", fillcolor="#399de5"] ;
219 -> 220 ;
221 [label="gini = 0.0\nsamples = 22\nvalue = [22, 0]\nclass = 1", fillcolor="#e58139"] ;
219 -> 221 ;
222 [label="Residence_type <= 0.5\ngini = 0.162\nsamples = 90\nvalue = [8, 82]\nclass = 0", fillcolor="#4ca7e8"] ;
210 -> 222 ;
223 [label="gini = 0.0\nsamples = 8\nvalue = [8, 0]\nclass = 1", fillcolor="#e58139"] ;
222 -> 223 ;
224 [label="gini = 0.0\nsamples = 82\nvalue = [0, 82]\nclass = 0", fillcolor="#399de5"] ;
222 -> 224 ;
225 [label="gini = 0.0\nsamples = 136\nvalue = [136, 0]\nclass = 1", fillcolor="#e58139"] ;
209 -> 225 ;
226 [label="avg_glucose_level <= 151.245\ngini = 0.457\nsamples = 2118\nvalue = [750, 1368]\nclass = 0", fillcolor="#a6d3f3"] ;
208 -> 226 ;
227 [label="avg_glucose_level <= 96.95\ngini = 0.447\nsamples = 2065\nvalue = [697, 1368]\nclass = 0", fillcolor="#9ecff2"] ;
226 -> 227 ;
228 [label="avg_glucose_level <= 93.8\ngini = 0.458\nsamples = 200\nvalue = [129, 71]\nclass = 1", fillcolor="#f3c6a6"] ;
227 -> 228 ;
229 [label="avg_glucose_level <= 93.65\ngini = 0.323\nsamples = 89\nvalue = [18, 71]\nclass = 0", fillcolor="#6bb6ec"] ;
228 -> 229 ;
230 [label="gini = 0.0\nsamples = 18\nvalue = [18, 0]\nclass = 1", fillcolor="#e58139"] ;
229 -> 230 ;
231 [label="gini = 0.0\nsamples = 71\nvalue = [0, 71]\nclass = 0", fillcolor="#399de5"] ;
229 -> 231 ;
232 [label="gini = 0.0\nsamples = 111\nvalue = [111, 0]\nclass = 1", fillcolor="#e58139"] ;
228 -> 232 ;
233 [label="avg_glucose_level <= 97.975\ngini = 0.424\nsamples = 1865\nvalue = [568, 1297]\nclass = 0", fillcolor="#90c8f0"] ;
227 -> 233 ;
234 [label="bmi <= 29.4\ngini = 0.17\nsamples = 385\nvalue = [36, 349]\nclass = 0", fillcolor="#4da7e8"] ;
233 -> 234 ;
235 [label="avg_glucose_level <= 97.4\ngini = 0.089\nsamples = 366\nvalue = [17, 349]\nclass = 0", fillcolor="#43a2e6"] ;
234 -> 235 ;
236 [label="avg_glucose_level <= 97.005\ngini = 0.231\nsamples = 105\nvalue = [14, 91]\nclass = 0", fillcolor="#57ace9"] ;
235 -> 236 ;
237 [label="gini = 0.0\nsamples = 91\nvalue = [0, 91]\nclass = 0", fillcolor="#399de5"] ;
236 -> 237 ;
238 [label="gini = 0.0\nsamples = 14\nvalue = [14, 0]\nclass = 1", fillcolor="#e58139"] ;
236 -> 238 ;
239 [label="bmi <= 27.6\ngini = 0.023\nsamples = 261\nvalue = [3, 258]\nclass = 0", fillcolor="#3b9ee5"] ;
235 -> 239 ;
240 [label="gini = 0.0\nsamples = 258\nvalue = [0, 258]\nclass = 0", fillcolor="#399de5"] ;
239 -> 240 ;
241 [label="gini = 0.0\nsamples = 3\nvalue = [3, 0]\nclass = 1", fillcolor="#e58139"] ;
239 -> 241 ;
242 [label="gini = 0.0\nsamples = 19\nvalue = [19, 0]\nclass = 1", fillcolor="#e58139"] ;
234 -> 242 ;
243 [label="avg_glucose_level <= 100.915\ngini = 0.46\nsamples = 1480\nvalue = [532, 948]\nclass = 0", fillcolor="#a8d4f4"] ;
233 -> 243 ;
244 [label="gini = 0.0\nsamples = 63\nvalue = [63, 0]\nclass = 1", fillcolor="#e58139"] ;
243 -> 244 ;
245 [label="bmi <= 23.6\ngini = 0.443\nsamples = 1417\nvalue = [469, 948]\nclass = 0", fillcolor="#9bcdf2"] ;
243 -> 245 ;
246 [label="gini = 0.0\nsamples = 42\nvalue = [42, 0]\nclass = 1", fillcolor="#e58139"] ;
245 -> 246 ;
247 [label="bmi <= 33.05\ngini = 0.428\nsamples = 1375\nvalue = [427, 948]\nclass = 0", fillcolor="#92c9f1"] ;
245 -> 247 ;
248 [label="bmi <= 24.15\ngini = 0.411\nsamples = 1333\nvalue = [385, 948]\nclass = 0", fillcolor="#89c5f0"] ;
247 -> 248 ;
249 [label="gini = 0.0\nsamples = 184\nvalue = [0, 184]\nclass = 0", fillcolor="#399de5"] ;
248 -> 249 ;
250 [label="bmi <= 27.15\ngini = 0.446\nsamples = 1149\nvalue = [385, 764]\nclass = 0", fillcolor="#9dcef2"] ;
248 -> 250 ;
251 [label="gini = 0.0\nsamples = 135\nvalue = [135, 0]\nclass = 1", fillcolor="#e58139"] ;
250 -> 251 ;
252 [label="bmi <= 27.55\ngini = 0.372\nsamples = 1014\nvalue = [250, 764]\nclass = 0", fillcolor="#7abdee"] ;
250 -> 252 ;
253 [label="gini = 0.0\nsamples = 256\nvalue = [0, 256]\nclass = 0", fillcolor="#399de5"] ;
252 -> 253 ;
254 [label="avg_glucose_level <= 102.315\ngini = 0.442\nsamples = 758\nvalue = [250, 508]\nclass = 0", fillcolor="#9acdf2"] ;
252 -> 254 ;
255 [label="Residence_type <= 0.5\ngini = 0.058\nsamples = 168\nvalue = [5, 163]\nclass = 0", fillcolor="#3fa0e6"] ;
254 -> 255 ;
256 [label="gini = 0.0\nsamples = 163\nvalue = [0, 163]\nclass = 0", fillcolor="#399de5"] ;
255 -> 256 ;
257 [label="gini = 0.0\nsamples = 5\nvalue = [5, 0]\nclass = 1", fillcolor="#e58139"] ;
255 -> 257 ;
258 [label="bmi <= 29.85\ngini = 0.486\nsamples = 590\nvalue = [245, 345]\nclass = 0", fillcolor="#c6e3f7"] ;
254 -> 258 ;
259 [label="gini = 0.0\nsamples = 116\nvalue = [116, 0]\nclass = 1", fillcolor="#e58139"] ;
258 -> 259 ;
260 [label="avg_glucose_level <= 106.635\ngini = 0.396\nsamples = 474\nvalue = [129, 345]\nclass = 0", fillcolor="#83c2ef"] ;
258 -> 260 ;
261 [label="gini = 0.0\nsamples = 21\nvalue = [21, 0]\nclass = 1", fillcolor="#e58139"] ;
260 -> 261 ;
262 [label="avg_glucose_level <= 142.64\ngini = 0.363\nsamples = 453\nvalue = [108, 345]\nclass = 0", fillcolor="#77bced"] ;
260 -> 262 ;
263 [label="avg_glucose_level <= 133.305\ngini = 0.332\nsamples = 437\nvalue = [92, 345]\nclass = 0", fillcolor="#6eb7ec"] ;
262 -> 263 ;
264 [label="bmi <= 31.45\ngini = 0.456\nsamples = 242\nvalue = [85, 157]\nclass = 0", fillcolor="#a4d2f3"] ;
263 -> 264 ;
265 [label="gini = 0.0\nsamples = 52\nvalue = [52, 0]\nclass = 1", fillcolor="#e58139"] ;
264 -> 265 ;
266 [label="Residence_type <= 0.5\ngini = 0.287\nsamples = 190\nvalue = [33, 157]\nclass = 0", fillcolor="#63b2ea"] ;
264 -> 266 ;
267 [label="gini = 0.0\nsamples = 17\nvalue = [17, 0]\nclass = 1", fillcolor="#e58139"] ;
266 -> 267 ;
268 [label="avg_glucose_level <= 106.785\ngini = 0.168\nsamples = 173\nvalue = [16, 157]\nclass = 0", fillcolor="#4da7e8"] ;
266 -> 268 ;
269 [label="gini = 0.0\nsamples = 83\nvalue = [0, 83]\nclass = 0", fillcolor="#399de5"] ;
268 -> 269 ;
270 [label="avg_glucose_level <= 110.73\ngini = 0.292\nsamples = 90\nvalue = [16, 74]\nclass = 0", fillcolor="#64b2eb"] ;
268 -> 270 ;
271 [label="gini = 0.0\nsamples = 16\nvalue = [16, 0]\nclass = 1", fillcolor="#e58139"] ;
270 -> 271 ;
272 [label="gini = 0.0\nsamples = 74\nvalue = [0, 74]\nclass = 0", fillcolor="#399de5"] ;
270 -> 272 ;
273 [label="avg_glucose_level <= 140.0\ngini = 0.069\nsamples = 195\nvalue = [7, 188]\nclass = 0", fillcolor="#40a1e6"] ;
263 -> 273 ;
274 [label="avg_glucose_level <= 138.6\ngini = 0.138\nsamples = 94\nvalue = [7, 87]\nclass = 0", fillcolor="#49a5e7"] ;
273 -> 274 ;
275 [label="gini = 0.0\nsamples = 87\nvalue = [0, 87]\nclass = 0", fillcolor="#399de5"] ;
274 -> 275 ;
276 [label="gini = 0.0\nsamples = 7\nvalue = [7, 0]\nclass = 1", fillcolor="#e58139"] ;
274 -> 276 ;
277 [label="gini = 0.0\nsamples = 101\nvalue = [0, 101]\nclass = 0", fillcolor="#399de5"] ;
273 -> 277 ;
278 [label="gini = 0.0\nsamples = 16\nvalue = [16, 0]\nclass = 1", fillcolor="#e58139"] ;
262 -> 278 ;
279 [label="gini = 0.0\nsamples = 42\nvalue = [42, 0]\nclass = 1", fillcolor="#e58139"] ;
247 -> 279 ;
280 [label="gini = 0.0\nsamples = 53\nvalue = [53, 0]\nclass = 1", fillcolor="#e58139"] ;
226 -> 280 ;
281 [label="bmi <= 41.05\ngini = 0.28\nsamples = 1967\nvalue = [1636, 331]\nclass = 1", fillcolor="#ea9a61"] ;
49 -> 281 ;
282 [label="avg_glucose_level <= 107.055\ngini = 0.194\nsamples = 1532\nvalue = [1365, 167]\nclass = 1", fillcolor="#e89051"] ;
281 -> 282 ;
283 [label="gini = 0.0\nsamples = 1083\nvalue = [1083, 0]\nclass = 1", fillcolor="#e58139"] ;
282 -> 283 ;
284 [label="avg_glucose_level <= 107.545\ngini = 0.467\nsamples = 449\nvalue = [282, 167]\nclass = 1", fillcolor="#f4ccae"] ;
282 -> 284 ;
285 [label="gini = 0.0\nsamples = 89\nvalue = [0, 89]\nclass = 0", fillcolor="#399de5"] ;
284 -> 285 ;
286 [label="bmi <= 35.6\ngini = 0.339\nsamples = 360\nvalue = [282, 78]\nclass = 1", fillcolor="#eca470"] ;
284 -> 286 ;
287 [label="bmi <= 35.45\ngini = 0.497\nsamples = 144\nvalue = [66, 78]\nclass = 0", fillcolor="#e1f0fb"] ;
286 -> 287 ;
288 [label="gini = 0.0\nsamples = 53\nvalue = [53, 0]\nclass = 1", fillcolor="#e58139"] ;
287 -> 288 ;
289 [label="Residence_type <= 0.5\ngini = 0.245\nsamples = 91\nvalue = [13, 78]\nclass = 0", fillcolor="#5aade9"] ;
287 -> 289 ;
290 [label="work_type <= 2.5\ngini = 0.133\nsamples = 84\nvalue = [6, 78]\nclass = 0", fillcolor="#48a5e7"] ;
289 -> 290 ;
291 [label="gini = 0.0\nsamples = 6\nvalue = [6, 0]\nclass = 1", fillcolor="#e58139"] ;
290 -> 291 ;
292 [label="gini = 0.0\nsamples = 78\nvalue = [0, 78]\nclass = 0", fillcolor="#399de5"] ;
290 -> 292 ;
293 [label="gini = 0.0\nsamples = 7\nvalue = [7, 0]\nclass = 1", fillcolor="#e58139"] ;
289 -> 293 ;
294 [label="gini = 0.0\nsamples = 216\nvalue = [216, 0]\nclass = 1", fillcolor="#e58139"] ;
286 -> 294 ;
295 [label="bmi <= 41.55\ngini = 0.47\nsamples = 435\nvalue = [271, 164]\nclass = 1", fillcolor="#f5cdb1"] ;
281 -> 295 ;
296 [label="avg_glucose_level <= 88.275\ngini = 0.366\nsamples = 216\nvalue = [52, 164]\nclass = 0", fillcolor="#78bced"] ;
295 -> 296 ;
297 [label="avg_glucose_level <= 62.01\ngini = 0.284\nsamples = 198\nvalue = [34, 164]\nclass = 0", fillcolor="#62b1ea"] ;
296 -> 297 ;
298 [label="gini = 0.0\nsamples = 10\nvalue = [10, 0]\nclass = 1", fillcolor="#e58139"] ;
297 -> 298 ;
299 [label="avg_glucose_level <= 83.46\ngini = 0.223\nsamples = 188\nvalue = [24, 164]\nclass = 0", fillcolor="#56abe9"] ;
297 -> 299 ;
300 [label="bmi <= 41.45\ngini = 0.357\nsamples = 103\nvalue = [24, 79]\nclass = 0", fillcolor="#75bbed"] ;
299 -> 300 ;
301 [label="gini = 0.0\nsamples = 24\nvalue = [24, 0]\nclass = 1", fillcolor="#e58139"] ;
300 -> 301 ;
302 [label="gini = 0.0\nsamples = 79\nvalue = [0, 79]\nclass = 0", fillcolor="#399de5"] ;
300 -> 302 ;
303 [label="gini = 0.0\nsamples = 85\nvalue = [0, 85]\nclass = 0", fillcolor="#399de5"] ;
299 -> 303 ;
304 [label="gini = 0.0\nsamples = 18\nvalue = [18, 0]\nclass = 1", fillcolor="#e58139"] ;
296 -> 304 ;
305 [label="gini = 0.0\nsamples = 219\nvalue = [219, 0]\nclass = 1", fillcolor="#e58139"] ;
295 -> 305 ;
306 [label="avg_glucose_level <= 200.675\ngini = 0.454\nsamples = 2737\nvalue = [954, 1783]\nclass = 0", fillcolor="#a3d1f3"] ;
48 -> 306 ;
307 [label="smoking_status <= 0.5\ngini = 0.362\nsamples = 1389\nvalue = [330, 1059]\nclass = 0", fillcolor="#77bced"] ;
306 -> 307 ;
308 [label="Residence_type <= 0.5\ngini = 0.498\nsamples = 408\nvalue = [216, 192]\nclass = 1", fillcolor="#fcf1e9"] ;
307 -> 308 ;
309 [label="bmi <= 31.65\ngini = 0.449\nsamples = 291\nvalue = [99, 192]\nclass = 0", fillcolor="#9fd0f2"] ;
308 -> 309 ;
310 [label="avg_glucose_level <= 184.135\ngini = 0.32\nsamples = 240\nvalue = [48, 192]\nclass = 0", fillcolor="#6ab6ec"] ;
309 -> 310 ;
311 [label="gini = 0.0\nsamples = 29\nvalue = [29, 0]\nclass = 1", fillcolor="#e58139"] ;
310 -> 311 ;
312 [label="avg_glucose_level <= 190.895\ngini = 0.164\nsamples = 211\nvalue = [19, 192]\nclass = 0", fillcolor="#4da7e8"] ;
310 -> 312 ;
313 [label="bmi <= 27.1\ngini = 0.068\nsamples = 199\nvalue = [7, 192]\nclass = 0", fillcolor="#40a1e6"] ;
312 -> 313 ;
314 [label="gini = 0.0\nsamples = 7\nvalue = [7, 0]\nclass = 1", fillcolor="#e58139"] ;
313 -> 314 ;
315 [label="gini = 0.0\nsamples = 192\nvalue = [0, 192]\nclass = 0", fillcolor="#399de5"] ;
313 -> 315 ;
316 [label="gini = 0.0\nsamples = 12\nvalue = [12, 0]\nclass = 1", fillcolor="#e58139"] ;
312 -> 316 ;
317 [label="gini = 0.0\nsamples = 51\nvalue = [51, 0]\nclass = 1", fillcolor="#e58139"] ;
309 -> 317 ;
318 [label="gini = 0.0\nsamples = 117\nvalue = [117, 0]\nclass = 1", fillcolor="#e58139"] ;
308 -> 318 ;
319 [label="bmi <= 40.45\ngini = 0.205\nsamples = 981\nvalue = [114, 867]\nclass = 0", fillcolor="#53aae8"] ;
307 -> 319 ;
320 [label="bmi <= 28.9\ngini = 0.187\nsamples = 968\nvalue = [101, 867]\nclass = 0", fillcolor="#50a8e8"] ;
319 -> 320 ;
321 [label="bmi <= 23.2\ngini = 0.427\nsamples = 139\nvalue = [43, 96]\nclass = 0", fillcolor="#92c9f1"] ;
320 -> 321 ;
322 [label="gini = 0.0\nsamples = 96\nvalue = [0, 96]\nclass = 0", fillcolor="#399de5"] ;
321 -> 322 ;
323 [label="gini = 0.0\nsamples = 43\nvalue = [43, 0]\nclass = 1", fillcolor="#e58139"] ;
321 -> 323 ;
324 [label="bmi <= 29.05\ngini = 0.13\nsamples = 829\nvalue = [58, 771]\nclass = 0", fillcolor="#48a4e7"] ;
320 -> 324 ;
325 [label="gini = 0.0\nsamples = 200\nvalue = [0, 200]\nclass = 0", fillcolor="#399de5"] ;
324 -> 325 ;
326 [label="bmi <= 32.3\ngini = 0.167\nsamples = 629\nvalue = [58, 571]\nclass = 0", fillcolor="#4da7e8"] ;
324 -> 326 ;
327 [label="gini = 0.0\nsamples = 28\nvalue = [28, 0]\nclass = 1", fillcolor="#e58139"] ;
326 -> 327 ;
328 [label="work_type <= 2.5\ngini = 0.095\nsamples = 601\nvalue = [30, 571]\nclass = 0", fillcolor="#43a2e6"] ;
326 -> 328 ;
329 [label="gini = 0.0\nsamples = 11\nvalue = [11, 0]\nclass = 1", fillcolor="#e58139"] ;
328 -> 329 ;
330 [label="bmi <= 35.9\ngini = 0.062\nsamples = 590\nvalue = [19, 571]\nclass = 0", fillcolor="#40a0e6"] ;
328 -> 330 ;
331 [label="avg_glucose_level <= 198.06\ngini = 0.024\nsamples = 414\nvalue = [5, 409]\nclass = 0", fillcolor="#3b9ee5"] ;
330 -> 331 ;
332 [label="gini = 0.0\nsamples = 323\nvalue = [0, 323]\nclass = 0", fillcolor="#399de5"] ;
331 -> 332 ;
333 [label="avg_glucose_level <= 199.73\ngini = 0.104\nsamples = 91\nvalue = [5, 86]\nclass = 0", fillcolor="#45a3e7"] ;
331 -> 333 ;
334 [label="gini = 0.0\nsamples = 5\nvalue = [5, 0]\nclass = 1", fillcolor="#e58139"] ;
333 -> 334 ;
335 [label="gini = 0.0\nsamples = 86\nvalue = [0, 86]\nclass = 0", fillcolor="#399de5"] ;
333 -> 335 ;
336 [label="bmi <= 39.95\ngini = 0.146\nsamples = 176\nvalue = [14, 162]\nclass = 0", fillcolor="#4aa5e7"] ;
330 -> 336 ;
337 [label="gini = 0.0\nsamples = 14\nvalue = [14, 0]\nclass = 1", fillcolor="#e58139"] ;
336 -> 337 ;
338 [label="gini = 0.0\nsamples = 162\nvalue = [0, 162]\nclass = 0", fillcolor="#399de5"] ;
336 -> 338 ;
339 [label="gini = 0.0\nsamples = 13\nvalue = [13, 0]\nclass = 1", fillcolor="#e58139"] ;
319 -> 339 ;
340 [label="avg_glucose_level <= 228.235\ngini = 0.497\nsamples = 1348\nvalue = [624, 724]\nclass = 0", fillcolor="#e4f1fb"] ;
306 -> 340 ;
341 [label="bmi <= 30.6\ngini = 0.477\nsamples = 892\nvalue = [542, 350]\nclass = 1", fillcolor="#f6d2b9"] ;
340 -> 341 ;
342 [label="gini = 0.0\nsamples = 197\nvalue = [197, 0]\nclass = 1", fillcolor="#e58139"] ;
341 -> 342 ;
343 [label="avg_glucose_level <= 222.05\ngini = 0.5\nsamples = 695\nvalue = [345, 350]\nclass = 0", fillcolor="#fcfeff"] ;
341 -> 343 ;
344 [label="avg_glucose_level <= 219.625\ngini = 0.486\nsamples = 600\nvalue = [250, 350]\nclass = 0", fillcolor="#c6e3f8"] ;
343 -> 344 ;
345 [label="avg_glucose_level <= 208.82\ngini = 0.492\nsamples = 408\nvalue = [229, 179]\nclass = 1", fillcolor="#f9e3d4"] ;
344 -> 345 ;
346 [label="avg_glucose_level <= 205.135\ngini = 0.447\nsamples = 270\nvalue = [91, 179]\nclass = 0", fillcolor="#9ecff2"] ;
345 -> 346 ;
347 [label="gini = 0.0\nsamples = 41\nvalue = [41, 0]\nclass = 1", fillcolor="#e58139"] ;
346 -> 347 ;
348 [label="avg_glucose_level <= 208.52\ngini = 0.341\nsamples = 229\nvalue = [50, 179]\nclass = 0", fillcolor="#70b8ec"] ;
346 -> 348 ;
349 [label="bmi <= 41.95\ngini = 0.466\nsamples = 135\nvalue = [50, 85]\nclass = 0", fillcolor="#add7f4"] ;
348 -> 349 ;
350 [label="gini = 0.0\nsamples = 50\nvalue = [50, 0]\nclass = 1", fillcolor="#e58139"] ;
349 -> 350 ;
351 [label="gini = 0.0\nsamples = 85\nvalue = [0, 85]\nclass = 0", fillcolor="#399de5"] ;
349 -> 351 ;
352 [label="gini = 0.0\nsamples = 94\nvalue = [0, 94]\nclass = 0", fillcolor="#399de5"] ;
348 -> 352 ;
353 [label="gini = 0.0\nsamples = 138\nvalue = [138, 0]\nclass = 1", fillcolor="#e58139"] ;
345 -> 353 ;
354 [label="work_type <= 3.5\ngini = 0.195\nsamples = 192\nvalue = [21, 171]\nclass = 0", fillcolor="#51a9e8"] ;
344 -> 354 ;
355 [label="gini = 0.0\nsamples = 16\nvalue = [16, 0]\nclass = 1", fillcolor="#e58139"] ;
354 -> 355 ;
356 [label="smoking_status <= 0.5\ngini = 0.055\nsamples = 176\nvalue = [5, 171]\nclass = 0", fillcolor="#3fa0e6"] ;
354 -> 356 ;
357 [label="gini = 0.0\nsamples = 5\nvalue = [5, 0]\nclass = 1", fillcolor="#e58139"] ;
356 -> 357 ;
358 [label="gini = 0.0\nsamples = 171\nvalue = [0, 171]\nclass = 0", fillcolor="#399de5"] ;
356 -> 358 ;
359 [label="gini = 0.0\nsamples = 95\nvalue = [95, 0]\nclass = 1", fillcolor="#e58139"] ;
343 -> 359 ;
360 [label="bmi <= 26.25\ngini = 0.295\nsamples = 456\nvalue = [82, 374]\nclass = 0", fillcolor="#64b2eb"] ;
340 -> 360 ;
361 [label="gini = 0.0\nsamples = 24\nvalue = [24, 0]\nclass = 1", fillcolor="#e58139"] ;
360 -> 361 ;
362 [label="avg_glucose_level <= 234.0\ngini = 0.232\nsamples = 432\nvalue = [58, 374]\nclass = 0", fillcolor="#58ace9"] ;
360 -> 362 ;
363 [label="work_type <= 2.5\ngini = 0.188\nsamples = 418\nvalue = [44, 374]\nclass = 0", fillcolor="#50a9e8"] ;
362 -> 363 ;
364 [label="gini = 0.0\nsamples = 11\nvalue = [11, 0]\nclass = 1", fillcolor="#e58139"] ;
363 -> 364 ;
365 [label="bmi <= 42.65\ngini = 0.149\nsamples = 407\nvalue = [33, 374]\nclass = 0", fillcolor="#4aa6e7"] ;
363 -> 365 ;
366 [label="Residence_type <= 0.5\ngini = 0.13\nsamples = 402\nvalue = [28, 374]\nclass = 0", fillcolor="#48a4e7"] ;
365 -> 366 ;
367 [label="bmi <= 35.05\ngini = 0.054\nsamples = 287\nvalue = [8, 279]\nclass = 0", fillcolor="#3fa0e6"] ;
366 -> 367 ;
368 [label="gini = 0.0\nsamples = 181\nvalue = [0, 181]\nclass = 0", fillcolor="#399de5"] ;
367 -> 368 ;
369 [label="bmi <= 41.3\ngini = 0.14\nsamples = 106\nvalue = [8, 98]\nclass = 0", fillcolor="#49a5e7"] ;
367 -> 369 ;
370 [label="gini = 0.0\nsamples = 8\nvalue = [8, 0]\nclass = 1", fillcolor="#e58139"] ;
369 -> 370 ;
371 [label="gini = 0.0\nsamples = 98\nvalue = [0, 98]\nclass = 0", fillcolor="#399de5"] ;
369 -> 371 ;
372 [label="avg_glucose_level <= 228.95\ngini = 0.287\nsamples = 115\nvalue = [20, 95]\nclass = 0", fillcolor="#63b2ea"] ;
366 -> 372 ;
373 [label="gini = 0.0\nsamples = 95\nvalue = [0, 95]\nclass = 0", fillcolor="#399de5"] ;
372 -> 373 ;
374 [label="gini = 0.0\nsamples = 20\nvalue = [20, 0]\nclass = 1", fillcolor="#e58139"] ;
372 -> 374 ;
375 [label="gini = 0.0\nsamples = 5\nvalue = [5, 0]\nclass = 1", fillcolor="#e58139"] ;
365 -> 375 ;
376 [label="gini = 0.0\nsamples = 14\nvalue = [14, 0]\nclass = 1", fillcolor="#e58139"] ;
362 -> 376 ;
377 [label="avg_glucose_level <= 103.48\ngini = 0.366\nsamples = 2611\nvalue = [630, 1981]\nclass = 0", fillcolor="#78bced"] ;
1 -> 377 ;
378 [label="avg_glucose_level <= 68.905\ngini = 0.499\nsamples = 715\nvalue = [344, 371]\nclass = 0", fillcolor="#f1f8fd"] ;
377 -> 378 ;
379 [label="avg_glucose_level <= 58.86\ngini = 0.302\nsamples = 345\nvalue = [64, 281]\nclass = 0", fillcolor="#66b3eb"] ;
378 -> 379 ;
380 [label="gini = 0.0\nsamples = 27\nvalue = [27, 0]\nclass = 1", fillcolor="#e58139"] ;
379 -> 380 ;
381 [label="bmi <= 24.7\ngini = 0.206\nsamples = 318\nvalue = [37, 281]\nclass = 0", fillcolor="#53aae8"] ;
379 -> 381 ;
382 [label="bmi <= 23.15\ngini = 0.057\nsamples = 205\nvalue = [6, 199]\nclass = 0", fillcolor="#3fa0e6"] ;
381 -> 382 ;
383 [label="Residence_type <= 0.5\ngini = 0.112\nsamples = 101\nvalue = [6, 95]\nclass = 0", fillcolor="#46a3e7"] ;
382 -> 383 ;
384 [label="gini = 0.0\nsamples = 95\nvalue = [0, 95]\nclass = 0", fillcolor="#399de5"] ;
383 -> 384 ;
385 [label="gini = 0.0\nsamples = 6\nvalue = [6, 0]\nclass = 1", fillcolor="#e58139"] ;
383 -> 385 ;
386 [label="gini = 0.0\nsamples = 104\nvalue = [0, 104]\nclass = 0", fillcolor="#399de5"] ;
382 -> 386 ;
387 [label="avg_glucose_level <= 60.775\ngini = 0.398\nsamples = 113\nvalue = [31, 82]\nclass = 0", fillcolor="#84c2ef"] ;
381 -> 387 ;
388 [label="gini = 0.0\nsamples = 82\nvalue = [0, 82]\nclass = 0", fillcolor="#399de5"] ;
387 -> 388 ;
389 [label="gini = 0.0\nsamples = 31\nvalue = [31, 0]\nclass = 1", fillcolor="#e58139"] ;
387 -> 389 ;
390 [label="bmi <= 35.55\ngini = 0.368\nsamples = 370\nvalue = [280, 90]\nclass = 1", fillcolor="#edaa79"] ;
378 -> 390 ;
391 [label="gini = 0.0\nsamples = 245\nvalue = [245, 0]\nclass = 1", fillcolor="#e58139"] ;
390 -> 391 ;
392 [label="bmi <= 37.25\ngini = 0.403\nsamples = 125\nvalue = [35, 90]\nclass = 0", fillcolor="#86c3ef"] ;
390 -> 392 ;
393 [label="work_type <= 3.5\ngini = 0.117\nsamples = 96\nvalue = [6, 90]\nclass = 0", fillcolor="#46a4e7"] ;
392 -> 393 ;
394 [label="gini = 0.0\nsamples = 6\nvalue = [6, 0]\nclass = 1", fillcolor="#e58139"] ;
393 -> 394 ;
395 [label="gini = 0.0\nsamples = 90\nvalue = [0, 90]\nclass = 0", fillcolor="#399de5"] ;
393 -> 395 ;
396 [label="gini = 0.0\nsamples = 29\nvalue = [29, 0]\nclass = 1", fillcolor="#e58139"] ;
392 -> 396 ;
397 [label="bmi <= 38.25\ngini = 0.256\nsamples = 1896\nvalue = [286, 1610]\nclass = 0", fillcolor="#5caeea"] ;
377 -> 397 ;
398 [label="bmi <= 22.4\ngini = 0.237\nsamples = 1867\nvalue = [257, 1610]\nclass = 0", fillcolor="#59ade9"] ;
397 -> 398 ;
399 [label="gini = 0.0\nsamples = 15\nvalue = [15, 0]\nclass = 1", fillcolor="#e58139"] ;
398 -> 399 ;
400 [label="bmi <= 36.1\ngini = 0.227\nsamples = 1852\nvalue = [242, 1610]\nclass = 0", fillcolor="#57ace9"] ;
398 -> 400 ;
401 [label="bmi <= 34.85\ngini = 0.28\nsamples = 1400\nvalue = [236, 1164]\nclass = 0", fillcolor="#61b1ea"] ;
400 -> 401 ;
402 [label="avg_glucose_level <= 227.395\ngini = 0.267\nsamples = 1383\nvalue = [219, 1164]\nclass = 0", fillcolor="#5eafea"] ;
401 -> 402 ;
403 [label="avg_glucose_level <= 106.3\ngini = 0.256\nsamples = 1370\nvalue = [206, 1164]\nclass = 0", fillcolor="#5caeea"] ;
402 -> 403 ;
404 [label="gini = 0.0\nsamples = 186\nvalue = [0, 186]\nclass = 0", fillcolor="#399de5"] ;
403 -> 404 ;
405 [label="avg_glucose_level <= 111.295\ngini = 0.287\nsamples = 1184\nvalue = [206, 978]\nclass = 0", fillcolor="#63b2ea"] ;
403 -> 405 ;
406 [label="gini = 0.0\nsamples = 16\nvalue = [16, 0]\nclass = 1", fillcolor="#e58139"] ;
405 -> 406 ;
407 [label="avg_glucose_level <= 212.985\ngini = 0.272\nsamples = 1168\nvalue = [190, 978]\nclass = 0", fillcolor="#5fb0ea"] ;
405 -> 407 ;
408 [label="avg_glucose_level <= 205.74\ngini = 0.33\nsamples = 778\nvalue = [162, 616]\nclass = 0", fillcolor="#6db7ec"] ;
407 -> 408 ;
409 [label="smoking_status <= 0.5\ngini = 0.282\nsamples = 742\nvalue = [126, 616]\nclass = 0", fillcolor="#61b1ea"] ;
408 -> 409 ;
410 [label="Residence_type <= 0.5\ngini = 0.495\nsamples = 171\nvalue = [77, 94]\nclass = 0", fillcolor="#dbedfa"] ;
409 -> 410 ;
411 [label="bmi <= 29.15\ngini = 0.316\nsamples = 117\nvalue = [23, 94]\nclass = 0", fillcolor="#69b5eb"] ;
410 -> 411 ;
412 [label="gini = 0.0\nsamples = 94\nvalue = [0, 94]\nclass = 0", fillcolor="#399de5"] ;
411 -> 412 ;
413 [label="gini = 0.0\nsamples = 23\nvalue = [23, 0]\nclass = 1", fillcolor="#e58139"] ;
411 -> 413 ;
414 [label="gini = 0.0\nsamples = 54\nvalue = [54, 0]\nclass = 1", fillcolor="#e58139"] ;
410 -> 414 ;
415 [label="work_type <= 2.5\ngini = 0.157\nsamples = 571\nvalue = [49, 522]\nclass = 0", fillcolor="#4ca6e7"] ;
409 -> 415 ;
416 [label="gini = 0.0\nsamples = 5\nvalue = [5, 0]\nclass = 1", fillcolor="#e58139"] ;
415 -> 416 ;
417 [label="avg_glucose_level <= 120.09\ngini = 0.143\nsamples = 566\nvalue = [44, 522]\nclass = 0", fillcolor="#4aa5e7"] ;
415 -> 417 ;
418 [label="gini = 0.0\nsamples = 172\nvalue = [0, 172]\nclass = 0", fillcolor="#399de5"] ;
417 -> 418 ;
419 [label="avg_glucose_level <= 127.18\ngini = 0.198\nsamples = 394\nvalue = [44, 350]\nclass = 0", fillcolor="#52a9e8"] ;
417 -> 419 ;
420 [label="gini = 0.0\nsamples = 9\nvalue = [9, 0]\nclass = 1", fillcolor="#e58139"] ;
419 -> 420 ;
421 [label="bmi <= 31.95\ngini = 0.165\nsamples = 385\nvalue = [35, 350]\nclass = 0", fillcolor="#4da7e8"] ;
419 -> 421 ;
422 [label="avg_glucose_level <= 144.965\ngini = 0.129\nsamples = 376\nvalue = [26, 350]\nclass = 0", fillcolor="#48a4e7"] ;
421 -> 422 ;
423 [label="bmi <= 26.2\ngini = 0.034\nsamples = 175\nvalue = [3, 172]\nclass = 0", fillcolor="#3c9fe5"] ;
422 -> 423 ;
424 [label="bmi <= 24.3\ngini = 0.067\nsamples = 87\nvalue = [3, 84]\nclass = 0", fillcolor="#40a0e6"] ;
423 -> 424 ;
425 [label="gini = 0.0\nsamples = 84\nvalue = [0, 84]\nclass = 0", fillcolor="#399de5"] ;
424 -> 425 ;
426 [label="gini = 0.0\nsamples = 3\nvalue = [3, 0]\nclass = 1", fillcolor="#e58139"] ;
424 -> 426 ;
427 [label="gini = 0.0\nsamples = 88\nvalue = [0, 88]\nclass = 0", fillcolor="#399de5"] ;
423 -> 427 ;
428 [label="avg_glucose_level <= 191.555\ngini = 0.203\nsamples = 201\nvalue = [23, 178]\nclass = 0", fillcolor="#53aae8"] ;
422 -> 428 ;
429 [label="gini = 0.0\nsamples = 18\nvalue = [18, 0]\nclass = 1", fillcolor="#e58139"] ;
428 -> 429 ;
430 [label="Residence_type <= 0.5\ngini = 0.053\nsamples = 183\nvalue = [5, 178]\nclass = 0", fillcolor="#3fa0e6"] ;
428 -> 430 ;
431 [label="gini = 0.0\nsamples = 5\nvalue = [5, 0]\nclass = 1", fillcolor="#e58139"] ;
430 -> 431 ;
432 [label="gini = 0.0\nsamples = 178\nvalue = [0, 178]\nclass = 0", fillcolor="#399de5"] ;
430 -> 432 ;
433 [label="gini = 0.0\nsamples = 9\nvalue = [9, 0]\nclass = 1", fillcolor="#e58139"] ;
421 -> 433 ;
434 [label="gini = 0.0\nsamples = 36\nvalue = [36, 0]\nclass = 1", fillcolor="#e58139"] ;
408 -> 434 ;
435 [label="bmi <= 27.35\ngini = 0.133\nsamples = 390\nvalue = [28, 362]\nclass = 0", fillcolor="#48a5e7"] ;
407 -> 435 ;
436 [label="gini = 0.0\nsamples = 16\nvalue = [16, 0]\nclass = 1", fillcolor="#e58139"] ;
435 -> 436 ;
437 [label="bmi <= 33.05\ngini = 0.062\nsamples = 374\nvalue = [12, 362]\nclass = 0", fillcolor="#40a0e6"] ;
435 -> 437 ;
438 [label="smoking_status <= 0.5\ngini = 0.032\nsamples = 368\nvalue = [6, 362]\nclass = 0", fillcolor="#3c9fe5"] ;
437 -> 438 ;
439 [label="gini = 0.0\nsamples = 276\nvalue = [0, 276]\nclass = 0", fillcolor="#399de5"] ;
438 -> 439 ;
440 [label="avg_glucose_level <= 220.365\ngini = 0.122\nsamples = 92\nvalue = [6, 86]\nclass = 0", fillcolor="#47a4e7"] ;
438 -> 440 ;
441 [label="gini = 0.0\nsamples = 6\nvalue = [6, 0]\nclass = 1", fillcolor="#e58139"] ;
440 -> 441 ;
442 [label="gini = 0.0\nsamples = 86\nvalue = [0, 86]\nclass = 0", fillcolor="#399de5"] ;
440 -> 442 ;
443 [label="gini = 0.0\nsamples = 6\nvalue = [6, 0]\nclass = 1", fillcolor="#e58139"] ;
437 -> 443 ;
444 [label="gini = 0.0\nsamples = 13\nvalue = [13, 0]\nclass = 1", fillcolor="#e58139"] ;
402 -> 444 ;
445 [label="gini = 0.0\nsamples = 17\nvalue = [17, 0]\nclass = 1", fillcolor="#e58139"] ;
401 -> 445 ;
446 [label="bmi <= 37.0\ngini = 0.026\nsamples = 452\nvalue = [6, 446]\nclass = 0", fillcolor="#3c9ee5"] ;
400 -> 446 ;
447 [label="gini = 0.0\nsamples = 360\nvalue = [0, 360]\nclass = 0", fillcolor="#399de5"] ;
446 -> 447 ;
448 [label="avg_glucose_level <= 165.945\ngini = 0.122\nsamples = 92\nvalue = [6, 86]\nclass = 0", fillcolor="#47a4e7"] ;
446 -> 448 ;
449 [label="gini = 0.0\nsamples = 6\nvalue = [6, 0]\nclass = 1", fillcolor="#e58139"] ;
448 -> 449 ;
450 [label="gini = 0.0\nsamples = 86\nvalue = [0, 86]\nclass = 0", fillcolor="#399de5"] ;
448 -> 450 ;
451 [label="gini = 0.0\nsamples = 29\nvalue = [29, 0]\nclass = 1", fillcolor="#e58139"] ;
397 -> 451 ;
452 [label="bmi <= 31.55\ngini = 0.395\nsamples = 5796\nvalue = [1567, 4229]\nclass = 0", fillcolor="#82c1ef"] ;
0 -> 452 [labeldistance=2.5, labelangle=-45, headlabel="False"] ;
453 [label="avg_glucose_level <= 222.04\ngini = 0.325\nsamples = 3846\nvalue = [785, 3061]\nclass = 0", fillcolor="#6cb6ec"] ;
452 -> 453 ;
454 [label="avg_glucose_level <= 121.715\ngini = 0.317\nsamples = 3815\nvalue = [754, 3061]\nclass = 0", fillcolor="#6ab5eb"] ;
453 -> 454 ;
455 [label="avg_glucose_level <= 88.27\ngini = 0.38\nsamples = 2127\nvalue = [542, 1585]\nclass = 0", fillcolor="#7dbfee"] ;
454 -> 455 ;
456 [label="bmi <= 30.4\ngini = 0.292\nsamples = 1606\nvalue = [285, 1321]\nclass = 0", fillcolor="#64b2eb"] ;
455 -> 456 ;
457 [label="bmi <= 21.6\ngini = 0.273\nsamples = 1578\nvalue = [257, 1321]\nclass = 0", fillcolor="#60b0ea"] ;
456 -> 457 ;
458 [label="gini = 0.0\nsamples = 20\nvalue = [20, 0]\nclass = 1", fillcolor="#e58139"] ;
457 -> 458 ;
459 [label="bmi <= 23.2\ngini = 0.258\nsamples = 1558\nvalue = [237, 1321]\nclass = 0", fillcolor="#5dafea"] ;
457 -> 459 ;
460 [label="avg_glucose_level <= 65.875\ngini = 0.022\nsamples = 274\nvalue = [3, 271]\nclass = 0", fillcolor="#3b9ee5"] ;
459 -> 460 ;
461 [label="gini = 0.0\nsamples = 3\nvalue = [3, 0]\nclass = 1", fillcolor="#e58139"] ;
460 -> 461 ;
462 [label="gini = 0.0\nsamples = 271\nvalue = [0, 271]\nclass = 0", fillcolor="#399de5"] ;
460 -> 462 ;
463 [label="bmi <= 24.7\ngini = 0.298\nsamples = 1284\nvalue = [234, 1050]\nclass = 0", fillcolor="#65b3eb"] ;
459 -> 463 ;
464 [label="gini = 0.0\nsamples = 52\nvalue = [52, 0]\nclass = 1", fillcolor="#e58139"] ;
463 -> 464 ;
465 [label="Residence_type <= 0.5\ngini = 0.252\nsamples = 1232\nvalue = [182, 1050]\nclass = 0", fillcolor="#5baeea"] ;
463 -> 465 ;
466 [label="work_type <= 2.5\ngini = 0.194\nsamples = 907\nvalue = [99, 808]\nclass = 0", fillcolor="#51a9e8"] ;
465 -> 466 ;
467 [label="gini = 0.0\nsamples = 16\nvalue = [16, 0]\nclass = 1", fillcolor="#e58139"] ;
466 -> 467 ;
468 [label="avg_glucose_level <= 84.845\ngini = 0.169\nsamples = 891\nvalue = [83, 808]\nclass = 0", fillcolor="#4da7e8"] ;
466 -> 468 ;
469 [label="bmi <= 26.6\ngini = 0.154\nsamples = 882\nvalue = [74, 808]\nclass = 0", fillcolor="#4ba6e7"] ;
468 -> 469 ;
470 [label="bmi <= 25.9\ngini = 0.021\nsamples = 377\nvalue = [4, 373]\nclass = 0", fillcolor="#3b9ee5"] ;
469 -> 470 ;
471 [label="gini = 0.0\nsamples = 280\nvalue = [0, 280]\nclass = 0", fillcolor="#399de5"] ;
470 -> 471 ;
472 [label="avg_glucose_level <= 80.595\ngini = 0.079\nsamples = 97\nvalue = [4, 93]\nclass = 0", fillcolor="#42a1e6"] ;
470 -> 472 ;
473 [label="gini = 0.0\nsamples = 4\nvalue = [4, 0]\nclass = 1", fillcolor="#e58139"] ;
472 -> 473 ;
474 [label="gini = 0.0\nsamples = 93\nvalue = [0, 93]\nclass = 0", fillcolor="#399de5"] ;
472 -> 474 ;
475 [label="avg_glucose_level <= 68.575\ngini = 0.239\nsamples = 505\nvalue = [70, 435]\nclass = 0", fillcolor="#59ade9"] ;
469 -> 475 ;
476 [label="gini = 0.0\nsamples = 24\nvalue = [24, 0]\nclass = 1", fillcolor="#e58139"] ;
475 -> 476 ;
477 [label="bmi <= 27.25\ngini = 0.173\nsamples = 481\nvalue = [46, 435]\nclass = 0", fillcolor="#4ea7e8"] ;
475 -> 477 ;
478 [label="gini = 0.0\nsamples = 11\nvalue = [11, 0]\nclass = 1", fillcolor="#e58139"] ;
477 -> 478 ;
479 [label="avg_glucose_level <= 80.53\ngini = 0.138\nsamples = 470\nvalue = [35, 435]\nclass = 0", fillcolor="#49a5e7"] ;
477 -> 479 ;
480 [label="bmi <= 27.5\ngini = 0.117\nsamples = 464\nvalue = [29, 435]\nclass = 0", fillcolor="#46a4e7"] ;
479 -> 480 ;
481 [label="gini = 0.0\nsamples = 189\nvalue = [0, 189]\nclass = 0", fillcolor="#399de5"] ;
480 -> 481 ;
482 [label="bmi <= 28.6\ngini = 0.189\nsamples = 275\nvalue = [29, 246]\nclass = 0", fillcolor="#50a9e8"] ;
480 -> 482 ;
483 [label="gini = 0.0\nsamples = 11\nvalue = [11, 0]\nclass = 1", fillcolor="#e58139"] ;
482 -> 483 ;
484 [label="avg_glucose_level <= 73.235\ngini = 0.127\nsamples = 264\nvalue = [18, 246]\nclass = 0", fillcolor="#47a4e7"] ;
482 -> 484 ;
485 [label="gini = 0.0\nsamples = 151\nvalue = [0, 151]\nclass = 0", fillcolor="#399de5"] ;
484 -> 485 ;
486 [label="avg_glucose_level <= 79.43\ngini = 0.268\nsamples = 113\nvalue = [18, 95]\nclass = 0", fillcolor="#5fb0ea"] ;
484 -> 486 ;
487 [label="gini = 0.0\nsamples = 18\nvalue = [18, 0]\nclass = 1", fillcolor="#e58139"] ;
486 -> 487 ;
488 [label="gini = 0.0\nsamples = 95\nvalue = [0, 95]\nclass = 0", fillcolor="#399de5"] ;
486 -> 488 ;
489 [label="gini = 0.0\nsamples = 6\nvalue = [6, 0]\nclass = 1", fillcolor="#e58139"] ;
479 -> 489 ;
490 [label="gini = 0.0\nsamples = 9\nvalue = [9, 0]\nclass = 1", fillcolor="#e58139"] ;
468 -> 490 ;
491 [label="avg_glucose_level <= 78.81\ngini = 0.38\nsamples = 325\nvalue = [83, 242]\nclass = 0", fillcolor="#7dbfee"] ;
465 -> 491 ;
492 [label="gini = 0.0\nsamples = 40\nvalue = [40, 0]\nclass = 1", fillcolor="#e58139"] ;
491 -> 492 ;
493 [label="heart_disease <= 0.5\ngini = 0.256\nsamples = 285\nvalue = [43, 242]\nclass = 0", fillcolor="#5caeea"] ;
491 -> 493 ;
494 [label="bmi <= 27.1\ngini = 0.141\nsamples = 262\nvalue = [20, 242]\nclass = 0", fillcolor="#49a5e7"] ;
493 -> 494 ;
495 [label="gini = 0.0\nsamples = 9\nvalue = [9, 0]\nclass = 1", fillcolor="#e58139"] ;
494 -> 495 ;
496 [label="smoking_status <= 0.5\ngini = 0.083\nsamples = 253\nvalue = [11, 242]\nclass = 0", fillcolor="#42a1e6"] ;
494 -> 496 ;
497 [label="gini = 0.0\nsamples = 168\nvalue = [0, 168]\nclass = 0", fillcolor="#399de5"] ;
496 -> 497 ;
498 [label="avg_glucose_level <= 80.68\ngini = 0.225\nsamples = 85\nvalue = [11, 74]\nclass = 0", fillcolor="#56ace9"] ;
496 -> 498 ;
499 [label="gini = 0.0\nsamples = 74\nvalue = [0, 74]\nclass = 0", fillcolor="#399de5"] ;
498 -> 499 ;
500 [label="gini = 0.0\nsamples = 11\nvalue = [11, 0]\nclass = 1", fillcolor="#e58139"] ;
498 -> 500 ;
501 [label="gini = 0.0\nsamples = 23\nvalue = [23, 0]\nclass = 1", fillcolor="#e58139"] ;
493 -> 501 ;
502 [label="gini = 0.0\nsamples = 28\nvalue = [28, 0]\nclass = 1", fillcolor="#e58139"] ;
456 -> 502 ;
503 [label="ever_married <= 0.5\ngini = 0.5\nsamples = 521\nvalue = [257, 264]\nclass = 0", fillcolor="#fafcfe"] ;
455 -> 503 ;
504 [label="bmi <= 26.15\ngini = 0.248\nsamples = 221\nvalue = [32, 189]\nclass = 0", fillcolor="#5baee9"] ;
503 -> 504 ;
505 [label="Residence_type <= 0.5\ngini = 0.031\nsamples = 192\nvalue = [3, 189]\nclass = 0", fillcolor="#3c9fe5"] ;
504 -> 505 ;
506 [label="gini = 0.0\nsamples = 3\nvalue = [3, 0]\nclass = 1", fillcolor="#e58139"] ;
505 -> 506 ;
507 [label="gini = 0.0\nsamples = 189\nvalue = [0, 189]\nclass = 0", fillcolor="#399de5"] ;
505 -> 507 ;
508 [label="gini = 0.0\nsamples = 29\nvalue = [29, 0]\nclass = 1", fillcolor="#e58139"] ;
504 -> 508 ;
509 [label="bmi <= 31.05\ngini = 0.375\nsamples = 300\nvalue = [225, 75]\nclass = 1", fillcolor="#eeab7b"] ;
503 -> 509 ;
510 [label="gini = 0.0\nsamples = 214\nvalue = [214, 0]\nclass = 1", fillcolor="#e58139"] ;
509 -> 510 ;
511 [label="avg_glucose_level <= 116.13\ngini = 0.223\nsamples = 86\nvalue = [11, 75]\nclass = 0", fillcolor="#56abe9"] ;
509 -> 511 ;
512 [label="gini = 0.0\nsamples = 11\nvalue = [11, 0]\nclass = 1", fillcolor="#e58139"] ;
511 -> 512 ;
513 [label="gini = 0.0\nsamples = 75\nvalue = [0, 75]\nclass = 0", fillcolor="#399de5"] ;
511 -> 513 ;
514 [label="bmi <= 21.05\ngini = 0.22\nsamples = 1688\nvalue = [212, 1476]\nclass = 0", fillcolor="#55abe9"] ;
454 -> 514 ;
515 [label="gini = 0.0\nsamples = 192\nvalue = [0, 192]\nclass = 0", fillcolor="#399de5"] ;
514 -> 515 ;
516 [label="bmi <= 22.1\ngini = 0.243\nsamples = 1496\nvalue = [212, 1284]\nclass = 0", fillcolor="#5aade9"] ;
514 -> 516 ;
517 [label="gini = 0.0\nsamples = 16\nvalue = [16, 0]\nclass = 1", fillcolor="#e58139"] ;
516 -> 517 ;
518 [label="avg_glucose_level <= 220.965\ngini = 0.23\nsamples = 1480\nvalue = [196, 1284]\nclass = 0", fillcolor="#57ace9"] ;
516 -> 518 ;
519 [label="avg_glucose_level <= 217.12\ngini = 0.255\nsamples = 1308\nvalue = [196, 1112]\nclass = 0", fillcolor="#5caeea"] ;
518 -> 519 ;
520 [label="work_type <= 3.5\ngini = 0.224\nsamples = 1276\nvalue = [164, 1112]\nclass = 0", fillcolor="#56abe9"] ;
519 -> 520 ;
521 [label="bmi <= 28.2\ngini = 0.158\nsamples = 1016\nvalue = [88, 928]\nclass = 0", fillcolor="#4ca6e7"] ;
520 -> 521 ;
522 [label="ever_married <= 0.5\ngini = 0.073\nsamples = 687\nvalue = [26, 661]\nclass = 0", fillcolor="#41a1e6"] ;
521 -> 522 ;
523 [label="gini = 0.0\nsamples = 6\nvalue = [6, 0]\nclass = 1", fillcolor="#e58139"] ;
522 -> 523 ;
524 [label="bmi <= 26.55\ngini = 0.057\nsamples = 681\nvalue = [20, 661]\nclass = 0", fillcolor="#3fa0e6"] ;
522 -> 524 ;
525 [label="bmi <= 24.25\ngini = 0.133\nsamples = 210\nvalue = [15, 195]\nclass = 0", fillcolor="#48a5e7"] ;
524 -> 525 ;
526 [label="gini = 0.0\nsamples = 195\nvalue = [0, 195]\nclass = 0", fillcolor="#399de5"] ;
525 -> 526 ;
527 [label="gini = 0.0\nsamples = 15\nvalue = [15, 0]\nclass = 1", fillcolor="#e58139"] ;
525 -> 527 ;
528 [label="avg_glucose_level <= 190.385\ngini = 0.021\nsamples = 471\nvalue = [5, 466]\nclass = 0", fillcolor="#3b9ee5"] ;
524 -> 528 ;
529 [label="bmi <= 27.85\ngini = 0.116\nsamples = 81\nvalue = [5, 76]\nclass = 0", fillcolor="#46a3e7"] ;
528 -> 529 ;
530 [label="gini = 0.0\nsamples = 76\nvalue = [0, 76]\nclass = 0", fillcolor="#399de5"] ;
529 -> 530 ;
531 [label="gini = 0.0\nsamples = 5\nvalue = [5, 0]\nclass = 1", fillcolor="#e58139"] ;
529 -> 531 ;
532 [label="gini = 0.0\nsamples = 390\nvalue = [0, 390]\nclass = 0", fillcolor="#399de5"] ;
528 -> 532 ;
533 [label="bmi <= 30.8\ngini = 0.306\nsamples = 329\nvalue = [62, 267]\nclass = 0", fillcolor="#67b4eb"] ;
521 -> 533 ;
534 [label="gini = 0.0\nsamples = 51\nvalue = [51, 0]\nclass = 1", fillcolor="#e58139"] ;
533 -> 534 ;
535 [label="smoking_status <= 0.5\ngini = 0.076\nsamples = 278\nvalue = [11, 267]\nclass = 0", fillcolor="#41a1e6"] ;
533 -> 535 ;
536 [label="avg_glucose_level <= 179.165\ngini = 0.036\nsamples = 272\nvalue = [5, 267]\nclass = 0", fillcolor="#3d9fe5"] ;
535 -> 536 ;
537 [label="gini = 0.0\nsamples = 184\nvalue = [0, 184]\nclass = 0", fillcolor="#399de5"] ;
536 -> 537 ;
538 [label="avg_glucose_level <= 203.93\ngini = 0.107\nsamples = 88\nvalue = [5, 83]\nclass = 0", fillcolor="#45a3e7"] ;
536 -> 538 ;
539 [label="gini = 0.0\nsamples = 5\nvalue = [5, 0]\nclass = 1", fillcolor="#e58139"] ;
538 -> 539 ;
540 [label="gini = 0.0\nsamples = 83\nvalue = [0, 83]\nclass = 0", fillcolor="#399de5"] ;
538 -> 540 ;
541 [label="gini = 0.0\nsamples = 6\nvalue = [6, 0]\nclass = 1", fillcolor="#e58139"] ;
535 -> 541 ;
542 [label="bmi <= 28.05\ngini = 0.414\nsamples = 260\nvalue = [76, 184]\nclass = 0", fillcolor="#8bc5f0"] ;
520 -> 542 ;
543 [label="gini = 0.0\nsamples = 41\nvalue = [41, 0]\nclass = 1", fillcolor="#e58139"] ;
542 -> 543 ;
544 [label="avg_glucose_level <= 180.66\ngini = 0.269\nsamples = 219\nvalue = [35, 184]\nclass = 0", fillcolor="#5fb0ea"] ;
542 -> 544 ;
545 [label="avg_glucose_level <= 174.625\ngini = 0.123\nsamples = 197\nvalue = [13, 184]\nclass = 0", fillcolor="#47a4e7"] ;
544 -> 545 ;
546 [label="gini = 0.0\nsamples = 8\nvalue = [8, 0]\nclass = 1", fillcolor="#e58139"] ;
545 -> 546 ;
547 [label="smoking_status <= 0.5\ngini = 0.052\nsamples = 189\nvalue = [5, 184]\nclass = 0", fillcolor="#3ea0e6"] ;
545 -> 547 ;
548 [label="gini = 0.0\nsamples = 5\nvalue = [5, 0]\nclass = 1", fillcolor="#e58139"] ;
547 -> 548 ;
549 [label="gini = 0.0\nsamples = 184\nvalue = [0, 184]\nclass = 0", fillcolor="#399de5"] ;
547 -> 549 ;
550 [label="gini = 0.0\nsamples = 22\nvalue = [22, 0]\nclass = 1", fillcolor="#e58139"] ;
544 -> 550 ;
551 [label="gini = 0.0\nsamples = 32\nvalue = [32, 0]\nclass = 1", fillcolor="#e58139"] ;
519 -> 551 ;
552 [label="gini = 0.0\nsamples = 172\nvalue = [0, 172]\nclass = 0", fillcolor="#399de5"] ;
518 -> 552 ;
553 [label="gini = 0.0\nsamples = 31\nvalue = [31, 0]\nclass = 1", fillcolor="#e58139"] ;
453 -> 553 ;
554 [label="bmi <= 32.75\ngini = 0.48\nsamples = 1950\nvalue = [782, 1168]\nclass = 0", fillcolor="#bedff6"] ;
452 -> 554 ;
555 [label="gini = 0.0\nsamples = 146\nvalue = [146, 0]\nclass = 1", fillcolor="#e58139"] ;
554 -> 555 ;
556 [label="avg_glucose_level <= 211.885\ngini = 0.457\nsamples = 1804\nvalue = [636, 1168]\nclass = 0", fillcolor="#a5d2f3"] ;
554 -> 556 ;
557 [label="avg_glucose_level <= 182.945\ngini = 0.436\nsamples = 1720\nvalue = [552, 1168]\nclass = 0", fillcolor="#97cbf1"] ;
556 -> 557 ;
558 [label="avg_glucose_level <= 112.465\ngini = 0.479\nsamples = 1205\nvalue = [478, 727]\nclass = 0", fillcolor="#bbddf6"] ;
557 -> 558 ;
559 [label="avg_glucose_level <= 111.7\ngini = 0.452\nsamples = 1111\nvalue = [384, 727]\nclass = 0", fillcolor="#a2d1f3"] ;
558 -> 559 ;
560 [label="avg_glucose_level <= 91.29\ngini = 0.488\nsamples = 912\nvalue = [384, 528]\nclass = 0", fillcolor="#c9e4f8"] ;
559 -> 560 ;
561 [label="bmi <= 39.3\ngini = 0.426\nsamples = 763\nvalue = [235, 528]\nclass = 0", fillcolor="#91c9f1"] ;
560 -> 561 ;
562 [label="avg_glucose_level <= 88.895\ngini = 0.383\nsamples = 712\nvalue = [184, 528]\nclass = 0", fillcolor="#7ebfee"] ;
561 -> 562 ;
563 [label="avg_glucose_level <= 72.68\ngini = 0.452\nsamples = 487\nvalue = [168, 319]\nclass = 0", fillcolor="#a1d1f3"] ;
562 -> 563 ;
564 [label="bmi <= 35.35\ngini = 0.27\nsamples = 380\nvalue = [61, 319]\nclass = 0", fillcolor="#5fb0ea"] ;
563 -> 564 ;
565 [label="bmi <= 32.95\ngini = 0.477\nsamples = 122\nvalue = [48, 74]\nclass = 0", fillcolor="#b9ddf6"] ;
564 -> 565 ;
566 [label="Residence_type <= 0.5\ngini = 0.21\nsamples = 84\nvalue = [10, 74]\nclass = 0", fillcolor="#54aae9"] ;
565 -> 566 ;
567 [label="gini = 0.0\nsamples = 74\nvalue = [0, 74]\nclass = 0", fillcolor="#399de5"] ;
566 -> 567 ;
568 [label="gini = 0.0\nsamples = 10\nvalue = [10, 0]\nclass = 1", fillcolor="#e58139"] ;
566 -> 568 ;
569 [label="gini = 0.0\nsamples = 38\nvalue = [38, 0]\nclass = 1", fillcolor="#e58139"] ;
565 -> 569 ;
570 [label="work_type <= 2.5\ngini = 0.096\nsamples = 258\nvalue = [13, 245]\nclass = 0", fillcolor="#44a2e6"] ;
564 -> 570 ;
571 [label="gini = 0.0\nsamples = 5\nvalue = [5, 0]\nclass = 1", fillcolor="#e58139"] ;
570 -> 571 ;
572 [label="avg_glucose_level <= 57.62\ngini = 0.061\nsamples = 253\nvalue = [8, 245]\nclass = 0", fillcolor="#3fa0e6"] ;
570 -> 572 ;
573 [label="gini = 0.0\nsamples = 5\nvalue = [5, 0]\nclass = 1", fillcolor="#e58139"] ;
572 -> 573 ;
574 [label="Residence_type <= 0.5\ngini = 0.024\nsamples = 248\nvalue = [3, 245]\nclass = 0", fillcolor="#3b9ee5"] ;
572 -> 574 ;
575 [label="work_type <= 3.5\ngini = 0.073\nsamples = 79\nvalue = [3, 76]\nclass = 0", fillcolor="#41a1e6"] ;
574 -> 575 ;
576 [label="gini = 0.0\nsamples = 3\nvalue = [3, 0]\nclass = 1", fillcolor="#e58139"] ;
575 -> 576 ;
577 [label="gini = 0.0\nsamples = 76\nvalue = [0, 76]\nclass = 0", fillcolor="#399de5"] ;
575 -> 577 ;
578 [label="gini = 0.0\nsamples = 169\nvalue = [0, 169]\nclass = 0", fillcolor="#399de5"] ;
574 -> 578 ;
579 [label="gini = 0.0\nsamples = 107\nvalue = [107, 0]\nclass = 1", fillcolor="#e58139"] ;
563 -> 579 ;
580 [label="bmi <= 34.3\ngini = 0.132\nsamples = 225\nvalue = [16, 209]\nclass = 0", fillcolor="#48a5e7"] ;
562 -> 580 ;
581 [label="smoking_status <= 0.5\ngini = 0.037\nsamples = 213\nvalue = [4, 209]\nclass = 0", fillcolor="#3d9fe5"] ;
580 -> 581 ;
582 [label="gini = 0.0\nsamples = 4\nvalue = [4, 0]\nclass = 1", fillcolor="#e58139"] ;
581 -> 582 ;
583 [label="gini = 0.0\nsamples = 209\nvalue = [0, 209]\nclass = 0", fillcolor="#399de5"] ;
581 -> 583 ;
584 [label="gini = 0.0\nsamples = 12\nvalue = [12, 0]\nclass = 1", fillcolor="#e58139"] ;
580 -> 584 ;
585 [label="gini = 0.0\nsamples = 51\nvalue = [51, 0]\nclass = 1", fillcolor="#e58139"] ;
561 -> 585 ;
586 [label="gini = 0.0\nsamples = 149\nvalue = [149, 0]\nclass = 1", fillcolor="#e58139"] ;
560 -> 586 ;
587 [label="gini = 0.0\nsamples = 199\nvalue = [0, 199]\nclass = 0", fillcolor="#399de5"] ;
559 -> 587 ;
588 [label="gini = 0.0\nsamples = 94\nvalue = [94, 0]\nclass = 1", fillcolor="#e58139"] ;
558 -> 588 ;
589 [label="avg_glucose_level <= 195.12\ngini = 0.246\nsamples = 515\nvalue = [74, 441]\nclass = 0", fillcolor="#5aade9"] ;
557 -> 589 ;
590 [label="bmi <= 38.3\ngini = 0.07\nsamples = 358\nvalue = [13, 345]\nclass = 0", fillcolor="#40a1e6"] ;
589 -> 590 ;
591 [label="work_type <= 2.5\ngini = 0.044\nsamples = 353\nvalue = [8, 345]\nclass = 0", fillcolor="#3e9fe6"] ;
590 -> 591 ;
592 [label="gini = 0.0\nsamples = 4\nvalue = [4, 0]\nclass = 1", fillcolor="#e58139"] ;
591 -> 592 ;
593 [label="bmi <= 34.9\ngini = 0.023\nsamples = 349\nvalue = [4, 345]\nclass = 0", fillcolor="#3b9ee5"] ;
591 -> 593 ;
594 [label="work_type <= 3.5\ngini = 0.081\nsamples = 95\nvalue = [4, 91]\nclass = 0", fillcolor="#42a1e6"] ;
593 -> 594 ;
595 [label="gini = 0.0\nsamples = 91\nvalue = [0, 91]\nclass = 0", fillcolor="#399de5"] ;
594 -> 595 ;
596 [label="gini = 0.0\nsamples = 4\nvalue = [4, 0]\nclass = 1", fillcolor="#e58139"] ;
594 -> 596 ;
597 [label="gini = 0.0\nsamples = 254\nvalue = [0, 254]\nclass = 0", fillcolor="#399de5"] ;
593 -> 597 ;
598 [label="gini = 0.0\nsamples = 5\nvalue = [5, 0]\nclass = 1", fillcolor="#e58139"] ;
590 -> 598 ;
599 [label="avg_glucose_level <= 209.18\ngini = 0.475\nsamples = 157\nvalue = [61, 96]\nclass = 0", fillcolor="#b7dbf6"] ;
589 -> 599 ;
600 [label="gini = 0.0\nsamples = 61\nvalue = [61, 0]\nclass = 1", fillcolor="#e58139"] ;
599 -> 600 ;
601 [label="gini = 0.0\nsamples = 96\nvalue = [0, 96]\nclass = 0", fillcolor="#399de5"] ;
599 -> 601 ;
602 [label="gini = 0.0\nsamples = 84\nvalue = [84, 0]\nclass = 1", fillcolor="#e58139"] ;
556 -> 602 ;
}